abid	0.051425420111243146	0.10156511836113674	-0.06422194210160892	0.07730821961658765	-0.03620239554635158	-0.020092078698863626	0.1234221739345257	0.051995656211069996	0.10955605526130589	-0.06729139529380865	-0.16061550346713563	0.2698409265685165	0.05627236004194937	0.22310637031000585	0.14344144892290617	0.08865600951988102	-0.09916458340391315	0.04170066992662708	0.009621573297805755	-0.01536867824261785	0.09007160839684299	0.005282763579359028	0.2834814920128562	-0.1949188847394203	-0.441809919913432	0.1843741224661706	-0.025580643978590254	0.03388718168162502	-0.15144220817767143	0.406503087228658	0.1913706041313056	-0.10587408570815683	0.159035383000499	0.018703958576483385	-0.05552405452197166	-0.04612196447092354	-0.06440322735623746	-0.04661055036100226	0.09811867243993141	-0.006023685262903343	-0.03429192208753014	0.00989941471418449	-0.035283266801368944	-0.11423769496619635	0.05899970846082151	-0.22838632486837385	-0.061400182263096334	0.04330979642123356	-0.1755830334361436	0.029062092445537906
abil	0.23771598869883548	-0.008077050444602512	-0.2962809542935204	0.2243035316326202	0.25834135168242783	0.057859270747614384	0.04715078453145729	-0.11092764274550619	0.17611853772797245	-0.07404777259619216	-0.10764947350637537	-0.24324945488565564	-0.1899550816656935	0.11882121971189545	0.008906158068508628	0.010264281885668995	-0.10792146786512638	0.17794627164875096	-0.07477065230850673	0.2635984156914708	0.07043763079293061	-0.1659326903026522	-0.0058245895750620455	0.09011370494684612	0.042515715185509985	-0.04147218035331861	0.18726302563646824	0.1060852664371005	-0.05518080204294558	-0.08792560531788877	-0.08751360678884192	-0.25748101863733197	0.025739086700044055	-0.04160311694577486	-0.06754330647110948	-0.12645102876965175	0.09600633553834374	-0.0497933629497907	0.1780427824334227	-0.0557563518362025	-0.0650048633077243	-0.09472025174023896	0.05843440416171697	0.14071727143330945	-0.22714949793306127	-0.24768717321753353	-0.1294620369459462	0.024885662795397646	0.04793786509628912	0.1759731067614033
abl	0.23685682597740604	-0.12510545318829844	-0.20509547771920839	0.2832771616891929	0.06362147239897167	-0.07085672366747928	0.04256592652855923	0.2703613637636547	0.0706680617229489	-0.029218336064299848	0.012153620515921794	0.27131852130583534	-0.1196205377236804	-0.06419585608377776	0.1276510819606797	0.14215267322501238	0.3264459666385206	0.016961975177195263	0.17702042370263568	0.2762797166434803	0.1276845424142824	0.04344731781577279	0.09165238263961527	0.12720799787848353	-0.11989449336450209	-0.04519188299845267	0.06376316697058602	0.11099595953891546	-0.013500595166055082	-0.17373656043595373	-0.13392761633415198	0.00654568763553613	0.035983148440615724	-0.0076750810250563704	-0.17809968256946723	0.19868114806409345	0.012168651496609773	-0.04829894870164584	0.08368951914232713	-0.03573524920073123	0.058688389193168294	0.19579953340170472	0.08070062669524118	0.017986148805349704	0.017343362573970587	0.12087726740718144	0.0001847738802951223	0.03943546790222054	0.29025921579815256	0.12779750818258834
abnorm	-0.1494310499927998	0.2247055290090346	0.1056139528113855	0.13844448060024453	-0.13420885315106934	-0.015112985949543198	-0.08745293992340829	-0.11402453463425151	-0.07953022257943171	0.11354729705821918	-0.27919410715292003	0.15997960518081816	-0.02809535770907364	0.14278940324720765	0.0875445356938081	0.10463459124587665	-0.09889765106595927	-0.026882865627978737	0.31391442633875244	0.06480127496600509	0.18751789055959767	0.0855484050404372	-0.0911922068152267	-0.004814181505219963	0.3334578095712597	0.08087699984304428	0.050013074876951134	-0.03263118707987979	-0.03752611499317693	-0.054436585425401834	-0.061528024124195044	0.05827178788518039	-0.008784138836615751	0.05783609416005167	-0.30397719766432063	-0.05335127969029709	0.27088793949547635	0.09653458438045864	0.048138224147168174	0.030715831701938607	0.004364016446402415	-0.05223775026003124	0.12775911253573555	0.2567089812788493	-0.22270538206712437	-0.1469074463625718	0.012094587011210587	0.04415416713781961	-0.22014876435409242	-0.08458240578397608
abstract	-0.1418236915221033	0.107615850428719	-0.2818158214035108	0.25570424129023545	-0.15398834779157272	0.18769299378771434	-0.0008948691539446429	-0.04713922353955093	-0.11153290150896414	0.07231293429027387	-0.03781819582294044	-0.24763936743923615	-0.09270844583733402	0.08931533921758433	0.05389937657772408	-0.15123360269221778	0.10773291884691935	-0.4412958657689645	-0.07661866785789063	-0.08504081459069453	-0.16606124191851546	0.11979754548552594	-0.05299333433376493	-0.14056651182363952	-0.044031043053358025	-0.0572439208331978	0.1871403088425412	0.02720827564187525	0.0999853929627781	0.08290762983051872	-0.20747689235899763	-0.04786315272047726	-0.040498168043415834	0.11710289520072689	-0.03205117004555618	0.039445407003596764	-0.02263629688213325	-0.07711389430427479	0.14441825308293926	0.27792321760532795	0.10879921208648058	-0.16574230737601633	-0.008218661671870962	-0.14565768235728643	0.011451422908407685	-0.17491529536508735	0.16344586537993142	0.049768270540157616	0.08418149225060757	-0.048397163441373715
accept	-0.24075258743879988	0.016606748208779977	-0.0765860031188568	-0.04926356665817851	0.20489361818359383	-0.0787981547194916	0.09413347842394423	-0.43684742392100023	-0.07088282121630853	0.10388336274782232	-0.03876349212264271	-0.04838505717230441	0.009386909317054137	0.2476369704111139	-0.1551320926069013	0.196776437655321	-0.008014073452971775	0.19901613589916722	0.18271919091391056	-0.07606743087451719	-0.06231265033737903	0.015089737105242699	0.0635118826937989	0.05384886224861301	-0.05279841709415951	-0.0420050768229921	-0.1338446026793072	-0.18357078764977053	-0.13579690192489405	0.07438321668313505	-0.02204868412931859	0.051235945320079995	-0.030851921210389974	-0.23462379796091015	0.030059647068047462	0.025990835629233038	0.1343998219598548	0.07334651533046692	-0.013615718878033093	0.13268319032126719	0.037755428784262135	-0.025370919267394897	-0.17144056983147474	0.0461019073951452	-0.21004841778816913	-0.39411594999849775	0.015857881300595133	-0.005477804575084163	0.17343674821828015	0.07985926211431384
access	-0.16511603522629642	0.15420473786012062	0.028889241920273586	0.035027559853960076	0.21568856627618688	0.1623554552197667	-0.14875177221409902	0.0938598290318071	-0.09225854803917562	-0.08409172597903826	-0.21871664285828887	0.04443190416617463	0.033285251604565726	0.23397745087364927	-0.31670024848704337	0.06910473842237823	-0.06055659519727384	-0.1964682715105973	0.20452901066152362	-0.06314121603672843	-0.20318010956642818	0.024579196779124284	-0.015479999087926173	-0.0776426527766284	-0.0747612089565023	0.049658554680895355	-0.1489709010165332	0.22949664345556664	-0.1314346920192161	-0.16294073425098082	0.16365861257839076	0.14621935876286105	0.2628884993636047	0.015023775933548204	-0.06649357622065581	-0.05285892834540716	-0.047177678610503045	-0.10757281855762665	0.20860215968190307	0.06548813141644978	0.020799614397996654	-0.11994966719317761	0.054771334996669106	-0.09378725369350098	-0.00405266541680999	0.236524307013467	0.12802802632423552	0.12691692042489638	0.04030173660936108	0.225296004341722
accommod	0.04989877172899466	0.04969772430735276	-0.05199498316493905	0.02020903406140891	0.29358507051183386	-0.08620769270682241	-0.05726356821071068	-0.13735646451407327	0.04886809463137858	0.10007297363893573	0.3212773556419035	0.21413948920130316	-0.007630985606694508	0.051872658879740505	-0.2857940147222401	-0.2090740624954787	-0.011853185071681623	0.2193426443622976	-0.11202086009761078	-0.044445779691211766	0.1537145519452272	0.04247005494236627	0.16023482939841932	0.1846606197558439	0.26949338107855947	-0.2222479990906073	0.059416399263080524	-0.03313997353194577	-0.13651903082390493	-0.033457734085904904	-0.11472586050080712	-0.04682298592187002	0.04562332935416018	-0.04183011822257233	0.061740045155786315	0.09923312169985299	-0.18303232103023148	0.14262996318166993	0.017271667783744508	-0.12575086016526832	0.02840341140451665	0.3357716147143749	-0.03390662757974833	-0.024982286475807323	0.12548056130626867	0.19112963166463356	0.0007089661903221546	-0.13394903193077015	0.0565705594945296	-0.024709043879705732
accompani	-0.08808342143287554	0.12591258454097454	0.07901549158839215	0.17950284966999933	0.05699129607189743	-0.08927210163462501	0.0697955040473734	0.2249356614059999	0.34676011342338825	0.009351991099695	-0.03203396948249537	-0.15437772306838174	-0.06146974786119375	-0.03709011502453787	0.006771310655268358	-0.030583415496395	0.09485088509040689	-0.1903205163473212	-0.11443343493367669	0.2714160552855189	-0.10918033375892514	0.1958817228630654	-0.2619596987112244	-0.1439287661831186	0.2496773060664833	0.11502187087024697	0.22240116474031588	0.07410151342480853	-0.06891687460085298	-0.04017339054640947	0.12535172243444884	0.206611237701288	0.036300750786238276	0.05699565698045581	0.07133950673468163	0.09879010135485267	0.18430092829333097	-0.08246592384442182	-0.1140626823147595	-0.027342070729560245	-0.2198053452666858	0.23045744548715344	0.033299811590779105	0.0912174261423923	0.03456283058001366	0.1116414533692277	-0.00144709819594637	-0.0025439827741708517	0.2311342074843129	-0.03366276624751785
accomplish	0.021982809604529807	-0.23405404641838995	0.04308245984374963	-0.051440236458772076	-0.03443492323749862	0.1279228379465292	-0.02892185897375873	-0.09628278891726719	-0.022374469045024516	-0.16315955279371283	0.31012326936796053	-0.22827297094084908	-0.05428002312756002	0.1077622350054702	0.21368777693500018	-0.12379865356312021	-0.12192542608048244	0.12947183450595318	-0.03465367942062855	-0.17222403090895586	0.04269848496241519	-0.06391308495492548	0.26455973444017955	-0.1846131836331188	0.12612331193563603	0.2365267567686663	-0.2070788609259888	-0.1546859437803475	-0.11609736422011145	-0.13933636298157415	-0.20437080209066652	0.10777829115704117	0.0038419580655548835	-0.13375379447689373	-0.19750922141106442	0.08575058800914681	-0.15522869028120684	-0.1298161379808598	-0.052177688162683165	0.10613315049581953	0.09721184823258273	0.19770702023327585	-0.12823496714686095	0.07051520401239465	-0.04483213857615002	0.1770462186406887	-0.12523799434408425	0.06001386628808763	0.09448021110023373	0.11612762456171509
accord	-0.057568179357737954	-0.24933363847207582	0.05832155663062046	-0.014899753877835983	0.001444325873155554	-0.2199050258583274	0.0777297527217806	-0.09530238199315687	-0.1921131494585906	-0.06480367013249931	-0.1983115121003175	0.2864476713513722	-0.16148869643871308	0.1009447021371195	0.09025962908496242	0.006052277173658388	-0.1915496311072837	-0.12163839943183803	0.19965774482145998	-0.2029898393978179	-0.09565106308075347	-0.09633992256652116	-0.13010395237219843	-0.1464411084676089	0.12482744695182468	0.13782555058240348	0.03698267638807185	-0.08817379368444303	0.25155149475751226	-0.049588105924742894	-0.05684583354540692	0.29242741487362456	-0.057727702548125114	-0.1264628552927516	-0.049098886024738574	-0.12423289373029688	0.012063306230511496	-0.1957412061122232	-0.07601769206279767	0.11440264775149471	-0.10770325391880178	-0.06753588719953646	-0.015649061609606916	0.051678486950763124	-0.05170099784239448	-0.34506540822253046	0.10909329935023192	0.03464366833516249	0.0672828401563953	0.14130351711416128
accordingli	-0.03514565227921548	-0.10371472818475341	-0.12699645246707214	-0.14312044760707401	-0.07935938006724905	0.23688013166891803	-0.019892353963183534	0.07805763879327245	-0.026267375504801533	0.29883003635166755	-0.10001953220570413	0.08716973140778966	0.004765432528264496	0.13435353780805348	-0.2630979352838098	-0.28119346593656164	-0.15145755334002328	-0.07225242604641838	-0.22014165805081845	-0.12125683786128036	0.11930012319899984	0.07531858468759925	-0.17205943999631726	-0.0643414457113	-0.0056972075559188155	-0.005098748991059409	-0.21433228918316577	0.04057304711894679	-0.10882474718422791	-0.18754002359818503	0.07183539676055307	0.15492351438543514	-0.09387063583433738	0.16468010425413318	-0.14333531789382464	0.02315885950188095	-0.13311447924799724	-0.17743084033658588	-0.08734479357065193	-0.20171260766824026	0.23671651963103854	0.008148071831016353	0.06307817930358461	0.09752536357601531	-0.10897380383426712	-0.061136406096117646	-0.023748952168225503	0.14515223166541008	-0.2797755681076878	-0.010283550000354438
account	0.09445144327092495	-0.12022063063677035	0.12986608547062176	0.23258455827064006	0.1235238816094997	0.11389583880268792	-0.13626404956838328	-0.07330274512460047	0.12156872726653736	-0.17602219755673132	-0.2383119041547654	0.20314885564509913	0.14610310751738773	-0.05193048493591061	0.10535058196776283	-0.03244774342974191	-0.10245274235004914	-0.13119772629703852	0.02694082997961891	-0.07212344878986042	-0.0207722788745234	-0.17661642287670562	0.3309067804769406	-0.16589860570355885	-0.0016161284383655477	-0.06952433767459157	-0.006405403227192348	-0.12787176357069122	-0.18234782011360792	-0.05827287419014774	0.2945593798337027	-0.008830910085938113	0.22895018702197975	0.0063940922604649765	0.060120510010572635	0.014572514410255344	-0.1474823908341964	-0.010993513636952137	0.14027065874633174	0.08056105725434769	0.31945549723074534	-0.0020418719114339164	0.11562043570125041	-0.18942829026866853	-0.15621515697121569	-0.1540917475693833	0.0804444243782649	-0.010517121212694056	0.029487296805641907	-0.12346201968794508
accumul	0.010687707412243347	-0.15350808380283826	-0.04331458042649539	0.19507799764510855	0.08346134250479502	0.1432866550674901	0.031657388404356994	0.04817135044456537	0.060434394279864294	-0.17795018415784053	-0.15872513570314598	0.13661263753231703	0.10492499709977503	0.12202889235186216	0.05390335392744033	0.10069282406996914	0.3416834524445969	0.06189014821686929	0.17781852295455422	0.005328974833141298	-0.1329564353017942	0.08227422601075891	-0.3274074468595775	0.02422694787576939	-0.012343129003298082	-0.42105633738096376	0.09950244008489616	0.07063095807771957	0.2849942843572875	0.0632688051410259	0.08399810883065077	0.003246880502720764	-0.0057752914786472305	-0.1051578407962418	0.010149021093983078	-0.027816702714456378	0.13501465929359505	-0.02466219607110711	-0.15174329992296087	0.05372826740197888	-0.03871168332885567	0.013924019517723225	-0.03809135326508683	0.23430061114920672	0.039613485763585296	-0.05633955176553927	0.049217094384542456	-0.1663344895641803	0.0589924145949119	-0.2555432215244792
accur	-0.061978426875615715	0.019230823795982767	0.08163311938677562	0.019686001397359782	-0.031465722216011335	0.16009526380569397	-0.1781565895694847	0.09271514331348854	0.0642105601826509	-0.12354911116891043	0.007530068613993321	0.09908754365224079	0.05778883377412491	0.01570497824784939	-0.0023622626310374753	0.04932378271375772	0.2517981551581189	0.05044941152548359	0.01710685553401033	-0.180776033139982	0.21668999693420843	-0.12335323117437136	0.10969045759333025	-0.33889558850846907	-0.09184486835860403	0.012453741471020605	-0.05035148748627303	-0.10763812418865978	0.22310739318000375	0.1613579007864014	-0.31545691352118277	0.22001929962278555	0.05000456835864891	-0.07710209658927929	0.02845082166871761	-0.08468219809375234	0.09384292642912018	-0.287517309504357	-0.0642171044316049	-0.04827984839728715	0.07257186811802904	-0.24441320499139865	-0.2880398163636679	-0.18567127006925327	-0.07749457589001532	0.13844020861221726	-0.08019139528149569	0.052580888189369845	-0.13975772810952358	0.0371102548690635
accuracyth	-0.19041108368928725	-0.049372749659703924	0.04874555711696332	0.07150027450833785	0.02617864220931471	-0.20646698174717512	-0.3589189274262221	-0.04786618151149883	0.03451747268043377	0.20282838416513227	-0.09297796829320672	-0.16615591257756784	0.07627051123001272	-0.17649851321584836	0.06687109570321273	0.02941517914180145	0.0566345687204571	0.04287774051222456	-0.04453747408540983	0.022153423934683905	0.014495522564259495	0.0030888498650217624	0.20799301375900364	0.06946375757355602	-0.07135783057705816	0.07227856545073366	0.2357385747129485	0.19793733860464363	-0.0012306881317532428	0.15803500143448831	-0.024272119034580184	-0.2883313075166629	-0.05887872920525276	-0.007740191694564608	0.009424274575973914	-0.11877183513566655	-0.02629745363907287	-0.06053814363102038	-0.1635540019442419	0.056481710079657375	0.1858625822366772	0.34651249697118064	-0.13057538428918772	0.02566011257572647	0.07469463961298789	0.040660379116753145	0.19500422657388328	-0.2030117871457012	-0.14302772596594704	0.2400676145186264
achiev	0.11934409340019192	0.07201239562865108	-0.29985786774336165	0.11249412017222554	0.05832808157335685	-0.07988184897514557	-0.000723069909712989	-0.027463238933503307	-0.01901891871007619	-0.2237151755609683	-0.19530832336134535	0.10284102240209615	0.06066336924261369	-0.15769913575392952	0.07033114903555061	-0.2893401538016324	-0.020838005005028148	0.1138928482562253	0.08351039471331755	0.1448710702375368	-0.05426749253329692	0.1660844092068724	-0.04989848015981381	-0.06113317576263218	0.26273599988146806	0.19706209320479678	0.06619122632417078	0.11635061190810515	0.017372074493655576	-0.15367804669671722	0.18969325073288484	-0.15388250067884268	-0.17478199235389458	0.12739801359481986	0.09671123128542664	0.15355598140552137	0.11157530246698168	0.05814279114014351	0.008012235874244992	0.024281157616402545	-0.1578684231424797	0.2076159639435755	-0.27820457066601456	-0.06150431167469425	-0.23432215357484362	-0.05819495838245288	-0.023863882299366302	0.022074851924129297	-0.16219323070123012	0.1804748000338409
acknowledg	0.06226791400470935	0.12395732198395497	0.016902054852478327	-0.1512710599375281	0.0794568006426478	0.10188771574715631	-0.14669840605648685	0.14251101950399825	0.16738142710003276	0.002347055406829378	0.10501450218688038	0.08991693475953973	0.17726816443080165	-0.1684843829935418	0.12422943192793866	-0.008683492469621702	-0.016443091588994086	0.08980018589105779	-0.15819526953644425	0.09187441937963113	-0.31811685386655597	0.11921914620843377	0.04030615553654269	-0.12712358924856523	0.024467534719003814	-0.0022782372712323333	-0.19476290128851803	0.011479472224621111	-0.021873960854534785	-0.1443083495198242	0.3447553742323816	0.1838349330279016	0.14292427772619903	-0.04234075071167368	0.03379420034439825	-0.20057646113680436	-0.08527188158940167	-0.0010810110056238384	0.19169988527188273	0.16614463610804858	-0.1924414160330745	0.09914266181881264	-0.14323677930319015	-0.08113219357128051	0.2864917791395203	-0.23299658271092613	0.1854000649843689	-0.0054847462576643885	-0.006293831946930015	-0.09487205859756143
across	0.14216043006284523	-0.03170899984953742	-0.22661276859633864	0.024025184491739508	-0.05479558809433381	0.2777462371435083	-0.15876729046701088	0.161510449487336	0.0532496201532753	-0.016989365985555213	-0.1022919257766406	-0.12473914623857504	0.07650549321178719	0.14690624186077125	0.06533066785967798	0.08272865474029302	-0.01656197594825871	0.1283662458527191	0.1621630579119874	0.03574781968815914	-0.16092027584069749	0.17486897644255037	0.036238723240499586	0.054354614305531575	0.3770721903206528	0.0018629311420745212	0.04135392560206153	-0.20849721175532204	-0.06312781829336543	-0.17860593476535294	0.09208832644197901	-0.31527269701133975	0.11124088693494004	-0.04406980860091438	-0.12889339342924885	-0.17604155193904442	0.15689991882156237	0.1026369571872668	0.009561543431087413	-0.023137661097121873	-0.20333163138934882	0.03744450749501537	0.006872231796134194	0.1300944893464942	0.18216538967430707	-0.10377940099134257	0.012935098887743308	0.08907965251297142	0.013970633607749769	0.2860996967204638
act	0.011327925343888575	-0.09295283236902785	0.042348336309957574	0.003824799450660951	-0.014130007073105282	-0.023560079366536483	-0.06861451464872909	-0.07556841859619715	-0.3135680427904749	0.07357106463581599	-0.04286011744425079	0.10007197847174469	0.031188946051105056	0.020580259500452176	-0.010926703073721455	0.010637865000274567	0.3409666470518658	0.007242970951030618	-0.2644827051884588	0.07312662545911988	-0.1141062189936452	-0.03737048849535729	0.0011572165197774374	0.18775214212081132	-0.4173679261326078	0.18570009871102108	0.04339486036537837	-0.1988573590424696	-0.022682489839705142	-0.012840667955343677	-0.001569531231383422	0.028996690278509346	-0.055985572243548026	-0.0353039750132516	-0.07022483280777626	-0.018662922679003977	-0.19840574833146354	0.06327608003977266	-0.11617231272201643	-0.1892625359988359	-0.02109088894123581	0.2410030441546235	-0.09998549212895547	0.09007963695216721	0.2549456951256258	0.1590105117672338	-0.20297858660336168	-0.2105404080446277	0.09170562929047354	-0.07014263871327181
action	-0.10971503973622565	-0.022474847148049353	-0.2580086167956439	-0.015250596048906743	-0.17705932281122247	-0.025912586880559342	-0.14758713046549501	-0.02433497138472893	-0.10629684010064946	-0.13547437348131158	0.1602894158951028	0.15452486276481678	0.06311602184848081	-0.18052061228101768	-0.13649746889211453	-0.33366416893967515	0.2718855433356286	-0.08414859192755056	0.0994534644162217	-0.03526107641492648	0.2591208579402831	0.25262990143921094	0.020769961968880812	-0.07069680290288399	-0.1440928189285772	-0.17623807945591854	0.14473768609693072	0.06283180171740047	0.2502584964932911	-0.05829672533112264	0.02360259953021244	-0.07572230070353163	-0.03319347914062786	-0.031875477082503545	-0.08812119750088479	-0.0386246147486537	0.09838563578483751	0.1527133916973369	-0.006420713458781684	-0.06635447873669659	-0.1376759416558343	-0.13803261303355807	-0.16393784455882598	0.19046270081630076	0.0817234335608772	0.05249086808139797	-0.16663023335459226	0.09017068375646924	-0.13865323463187246	-0.16851790265125133
activ	0.1772013532156196	0.22722084508398688	-0.08593472820823234	-0.002439536621520108	0.1350254921201842	0.16576501005003919	0.1578133293356146	0.031825812641547775	0.006688667451443159	-0.1843331380169851	-0.17572454475729354	-0.05676874731033014	-0.10629991588826393	0.1593117766273322	0.019392792740765902	-0.019371052173454237	-0.14485480833276396	0.18760769107963493	0.0023348716289349185	-0.03899557747530686	-0.18137322610477496	0.16496338347160416	0.025608434516992264	-0.20289240265732786	0.12138521810789708	-0.07144846179078629	-0.20789358982791648	0.06604393656807742	-0.09835782882291307	-0.1695279880457492	-0.0010240304356193895	0.10140995337225488	-0.0437430658439898	-0.12206347947894843	0.22890304030695832	0.21038940050829572	-0.13166378273029783	0.13827954290096617	-0.004086599176892523	0.21534790765225642	0.03735520165348974	-0.006611356970709143	0.280188274750807	0.3709237100283663	0.01013636054195126	0.059422711118928134	0.017143131760997663	0.054203554747820126	-0.10869911266908265	-0.15526772287428264
actor	-0.10838658088196983	-0.2122186222485719	0.05909135155338614	-0.07424068688295772	-0.003453307888132334	-0.2254100252102522	-0.019933809827203126	-0.13683818544265958	0.004476175707431559	-0.12842496204201118	-0.07642564500080508	-0.06490402318249835	0.027400826853943787	-0.07434183741036363	0.1718102389333788	0.2634082042545828	-0.20600868125942656	-0.09919222819450628	-0.019256462361702715	-0.26263852843220664	0.1784355384343469	0.06572924157280671	0.049300670468932814	0.22412229557299257	0.053876542470068345	-0.17722999784413446	0.08379508623177664	-0.1757685796871247	-0.040627645647744584	0.24521573118291717	-0.06543677371396692	-0.19368216372274574	-0.040246385475385164	0.023712419105397283	-0.1750851393801238	0.06861788998521855	-0.143463123440001	-0.05717334693356236	-0.19341160750674818	0.20612577613751185	0.07861035123544795	0.10816000317070308	-0.08888540810711569	0.03873324640343302	-0.18856514562639978	0.22696840355874182	-0.15616554543740746	0.020548365824695474	0.0779979988999717	-0.24439983712823646
actual	0.17545559353954487	-0.04535158612408643	-0.024442343467764683	-0.2459702990069145	0.2925143036275331	-0.1723243381207642	-0.0427794751553939	0.11237003025799452	-0.0965431611607428	-0.10985237806463408	0.05450981731301643	0.027080583855955156	0.049501052402993746	0.11727858127332039	0.20218563237861312	-0.10924922555247873	0.13743058689098195	-0.27948535380550643	-0.2081278437845741	0.08066118251744615	-0.01505973385713601	0.05577393175129233	0.0292588954843077	-0.12376969475201278	-0.0726210089663318	0.05133367609810788	0.02931466422543837	0.13494670705000192	-0.1265390965173958	0.2566610926803301	-0.34134378601300164	-0.057860862254285224	-0.01849003241356083	0.192286019933457	-0.006826390187486152	0.0006209302966161177	-0.19615274883661132	0.027119800434306743	0.09946699433139813	0.17211966309111243	0.06044089252788363	-0.09516817034577282	-0.18446788078218773	0.19571719983517785	-0.04577684246748398	-0.04147327049049322	-0.1344989067169865	0.23055065576371264	0.029249653754754457	-0.10057075050282756
ad	0.02681181231239497	0.08152750547246984	-0.06957268923922454	0.09610706288337723	-0.04708327932239351	0.11165490615588876	-0.001319652644242439	0.20979550429288843	-0.08190197692542486	0.004419475577479059	0.0906893538932489	0.1383107167141101	0.19009211476196342	0.08489889237948775	0.2206999157039469	0.07507514634323527	-0.03603400911909518	-0.08359089050917176	-0.12372135742994146	-0.03388407154729447	0.23972544750706734	0.2293592026746457	-0.014823610050199668	-0.039048905727708846	-0.09001766409032685	0.2595018466972319	0.012498240487167066	0.26754774830936595	0.193534590464768	0.08984571611815458	0.23523532031126546	0.10150459765210613	-0.19386652259523682	-0.23692017511183552	0.09156303092160768	-0.022308155200356235	0.11487174062775253	0.1424566966438445	-0.03308795429827142	0.035309383368762645	0.08293040710416522	-0.004583218506584248	0.23636461893207317	-0.04228173410685929	-0.21507849148429126	0.13760688240673224	0.008658137503488216	0.08077926943776731	0.23868439430240002	0.24785620056217253
adapt	-0.0950923291932473	-0.08061258162549487	0.43716592207088656	-0.12056339412721545	-0.10524730110457815	-0.09985572518684684	0.13707086953557168	0.07129002678258997	-0.14432484570864282	-0.044218370408830684	-0.08672731161889612	0.09927512494273873	-0.00412179757084396	-0.13158811572359352	-0.07857190304804926	0.277477407463022	0.10610702443005895	-0.16442978052553736	-0.07260235581403844	-0.14793892043239273	-0.039486424967922755	-0.1419254673329748	-0.19286851515440134	0.11906070030808887	-0.3584538535939328	0.020043579989190943	0.016382029439364645	-0.08647107526362008	-0.028079580287118076	0.07010329990715407	-0.016095254478055036	0.09302675113281494	-0.13046493678375207	-0.011128403500512528	-0.0252232740771459	-0.14054670213609638	0.0033891359748958274	-0.013057089063608484	-0.11551376035701932	-0.018967939875101033	0.1712663023623663	0.03181222111727024	0.08123791161827217	0.2207991663626224	-0.18572334485468475	0.08327982053798996	0.2592871648998461	0.18569271841537635	0.0659583044254986	-0.1372632174526021
add	-0.15557353626231799	-0.008190771147391578	-0.09656628168623739	0.1126853607776257	-0.05611302443272221	-0.19286228548429826	-0.14809449954753864	-0.027622474610568777	0.07096417200352721	-0.1737541165683617	-0.2544016556270277	0.22582381513902175	0.050509407885088925	0.11814138388715952	-0.003502232756775399	-0.040948720920760844	-0.0075377558037653366	0.0006535766224755568	-0.3088810239360781	-0.1146953313672114	0.04470157066980704	-0.10046052147460055	-0.17345260884362296	-0.04355291097910451	-0.015136455840402714	0.05104106821351104	0.16254940368526408	0.15527422477311437	-0.19080296693172336	-0.06538097149056288	-0.18407010188050932	0.04401255721375975	0.01397127280247118	0.07386686885922704	0.05972427512736851	0.03915727589305347	-0.11031972522058016	0.12589363215544952	0.16802630335391766	-0.2503611470572189	0.08322065411518752	-0.040706201771387875	-0.20031783884771856	-0.2558085779590998	0.182785050307532	-0.2405246821902224	-0.025995643510687012	0.024405585773308862	-0.08474604317584783	0.3088994251029685
addedit	0.09533938148482198	-0.28367140189798135	0.1400696299198295	0.20098550956014252	-0.08689669126966464	0.0751059638788311	-6.849120560433657e-05	-0.024661655888140187	-0.2433968798318537	-0.14235829202741818	-0.03227906199347251	0.1761715827542642	0.18768039154166655	-0.02834756715147301	0.1208410929817959	-0.26604925489595665	-0.2175679369480681	0.03258276510060393	-0.09322570668557989	-0.10315103141598435	-0.1370359326149959	0.17201910424685565	-0.2836333164048766	0.05071759236490862	-0.12497178444438785	0.18018090358653516	0.020458693696504396	-0.17385346391133627	-0.09434582768570265	-0.10364337946242237	-0.07086170218538622	-0.26499572384625597	-0.06339089761167811	-0.11520101763812826	0.03727315799086086	-0.04188322058639737	0.09162985433406468	0.04166454328217303	-0.22892560638882353	0.06726798930110522	-0.06152775100008779	-0.22180398934707704	0.07651709188001496	0.0027296415286220863	-0.05130324268211551	0.18106089476025	-0.013134427049366878	0.17985700563067447	-0.1276133524704185	-0.018225016270267017
addit	-0.0766274379419568	0.06293143074348245	-0.008589237189302521	-0.12188122622264992	-0.15405017354822753	0.1056953767673808	0.28067762052112477	0.0004245720226144578	-0.24343599713392994	0.09816235263244166	0.14607545578674422	0.31103124563983936	-0.06168466010607952	-0.11551377961612748	0.05935413550537108	0.3152837465832907	-0.05776629403341284	0.0897427343299429	0.18808504159724845	-0.014482692211302897	0.03465166873783519	-0.21984758328295143	-0.23688264553070232	-0.011948311582857824	0.21092812453254378	-0.12324853823649111	-0.3127864331648912	-0.18055429989871188	0.0046428866854254765	-0.09653173187701447	-0.018927791399454167	0.009656033641262588	2.7250207818198934e-05	0.08350995114375726	0.0517110881500869	0.08972465651856587	-0.2594034448413417	-0.08282747435240137	0.04584681525774929	0.12231928736161161	-0.05068606736483804	-0.19335571462048695	0.018180167500918196	0.03490852185094918	-0.033924236330420424	-0.028151173316057196	-0.0021020353656793856	-0.18368307504764025	-0.08548335106737014	0.09175722459122916
addremov	-0.11336245416779242	0.04097251265663254	0.043619744222224116	0.10310409811573366	0.023032967506443496	0.0909655239201565	-0.20719717626279113	0.03187506640255862	-0.07792052430955869	0.1505276982125101	0.03901684532588486	-0.07935966890467891	0.07879037611065527	-0.04869225339282244	-0.06058339032912238	0.11517035586604063	0.21777603229547815	-0.3511553789707607	-0.03535742198451961	0.24032470908492412	-0.16782868297612613	0.09175301847732464	-0.22605738092227415	-0.04623238858931178	-0.09063787734851388	0.01050148085256223	0.1255229121796454	-0.08500380564723864	-0.011780666850798833	0.22018563937259422	0.0448102547459265	-0.14530906157640056	-0.32421270424910476	-0.22271079931204338	0.023931985026572115	0.13414236878807095	-0.016999339358813245	-0.03762351546064015	-0.13691532483207414	0.14238988650701914	-0.17669853693077217	-0.14511958700148328	-0.28803251867200186	-0.10928041378733853	0.19251325261670593	-0.003975438432555157	0.0679262699397265	0.15323602771614284	0.08680540761329818	-0.04003946127795682
address	-0.0017588228063499071	0.24907758737965727	0.287763974490289	0.03278322675432714	0.07076366767907298	-0.08402973701023912	0.013836028571218826	0.0616036052387564	-0.16662385061148544	0.05157132660185204	0.07131512458709946	-0.18585069184596367	0.03614104873204025	-0.2942844346587863	-0.1335306896058592	0.26662733228431273	0.3155520263292638	-0.0812123604378934	-0.12678850530351335	-0.17241424560303648	0.03825196128479227	0.10278424466986567	0.16147851041863948	0.03321459880723778	-0.18987621183918957	0.0850130309488757	-0.10712915072516827	-0.1918757573285239	0.1239324370787806	-0.006969213789018977	0.04829305268986767	0.01688556668648233	-0.03477406697780599	0.001684076037111286	-0.21303699518832228	0.10196942163144007	-0.07349013171831177	0.0054220086044076	-0.07659770699291382	0.07659510545323438	-0.04633041715609756	0.03471033413036278	0.29716443107297097	-0.2047206019223071	0.02647783911295133	-0.1427119827840972	0.09748700223883078	-0.029489616488559075	0.18792987483257365	-0.12601057563858692
adequ	-0.0494189812079843	-0.15492962878641778	-0.042063386259701824	0.10137618894548069	0.24588881414994904	0.05158015480215581	-0.2035043161954763	0.0061041165942719525	0.2052282300924094	0.07391567389206583	0.22571677034689178	-0.05438512324383318	-0.012864533193407562	-0.08450260641160352	0.03841381933123173	0.17631681490274104	0.14790213911377892	-0.024143896087236074	0.10992197877991813	0.17342762243705986	-0.21038143566116593	-0.08411288618291476	-0.0929846471304201	-0.2756874041486333	0.07338980125132773	0.2228882408282897	-0.12265317617845833	-0.0015460584431601018	-0.009408752513184345	-0.16285359826383974	-0.17790129929123338	0.05240321972095893	0.22018075198331277	-0.10428703799676431	-0.03547819804123994	0.15899031335081362	-0.04846037277713156	0.2415576123787891	0.08975037833673549	0.15729235416219203	0.1633087003345953	0.13818969352406585	-0.035866596151510305	0.19174768983614174	-0.015523540324112184	-0.11767574065612654	-0.08597477867488397	-0.28025873294756515	0.019142303968426366	-0.14233997600981402
adjust	-0.13521439739110136	0.3584909646459267	-0.12417278498388988	0.015232408310524572	0.04810649424160635	-0.25725153654742516	-0.06890920577525342	0.06140984339399404	-0.07056275308569226	-0.016174232491795518	-0.029453585501291787	0.21636062512302526	0.06090575487921751	-0.05468300900109658	0.09496436366940825	0.00047371256150115253	0.125512860048544	-0.1290046827381431	-0.0764035149814178	-0.16594510433522644	0.0349620269965428	0.0912690160890383	0.14859969087873237	-0.2121913800283507	0.10779189253750251	0.05220431128522536	0.07873864192489922	0.06699396290738252	0.016876600338652098	0.22567172966986807	-0.0013996025600651375	-0.1310389446272611	0.1570344789171077	-0.04560831691537883	-0.0209472585121519	-0.15458560730294488	0.1266283084815718	0.12673892073017623	-0.2070931520876116	-0.3948865740247664	0.053105036233365474	0.0018827757988414422	0.11147658888789928	-0.00046872970180786896	0.024547288774337525	0.1407847140553996	-0.17637323374458663	-0.04421730083111507	-0.17084856322373282	0.2759161046567769
admin	-0.22411208541919106	0.2726568182220922	-0.18190218434697225	-0.01965990270323859	-0.19082809925445507	-0.05385658749970111	-0.022834287910384055	-0.06716777816099896	-0.14418122245705736	-0.10039443793628912	-0.028487289364522116	-0.029125328084402144	-0.1389553117384747	0.0641349906086385	0.009848267827543647	-0.06137969563807599	-0.1278648969680011	0.19323948927740375	0.14167189003557687	-0.11175059516852182	0.009625112736254254	0.0025807938407178153	0.05209326265701085	0.19566182729255668	-0.09991890901978995	-0.057433604051686765	0.18646695775635663	0.007382176676319373	-0.15989263296809067	0.18009377319243539	0.13184713154393726	0.11113436371050975	-0.10405349164917753	0.19028102791156765	-0.007767201498252625	-0.036694110581490205	-0.039275123843132816	0.1663716752523327	0.01818727074780666	-0.15269991853599843	-0.36112648032378747	0.13866197818877565	0.028067507177887262	-0.08044970994102404	-0.19440960459549955	-0.01658599127431971	-0.25827476941252797	-0.32945288168910764	-0.05382425986547212	0.013597879663491784
administr	-0.09301366522067378	0.28585199001917055	0.09033243386242802	-0.09495072862969009	-0.01744693228735994	-0.0997109622779581	-0.1363369697337477	0.05601064857382293	-0.08221004997344296	-0.07295654404154993	-0.2142192551342646	0.09750418927875996	0.0026486156265611237	0.17226779360020303	0.05347622515707659	0.150815315112396	0.23179704382536617	-0.04334828791265696	-0.13089844562839253	-0.2283946025682385	0.20332609285543923	0.06650788330796412	-0.21316357037486244	0.08951772149317444	0.20646401885394017	-0.14278319678018597	0.15218368122259857	0.02103356891255422	0.10540027350649168	0.024685676425611598	-0.008656471132920288	0.14834658151184318	0.23378216742202665	-0.08779017980493645	0.051473660938187796	0.049583112207222176	-0.07582221445629968	0.05597003088343345	0.06263788975823559	-0.14172038379420013	-0.029739680791128736	0.09006070195099733	-0.06267671791027012	0.07098449438391186	-0.21922928039131748	0.33797109921714785	-0.13205787748409356	-0.015924989935597732	-0.168274555522786	-0.25800290149007393
adminus	-0.2553403376057917	-0.03260903565041221	0.015620469147482857	-0.07377358975330237	-0.34712333319196403	0.04803611324488831	0.10084362830290243	0.0057498877175165474	-0.2574767598683044	0.1178958386606834	-0.06823920141248145	0.03473744148288077	0.03845581963446057	0.13107075166707313	0.11787347592916299	0.14567943878326362	-0.0769756540913903	0.01427460038538133	-0.05895214935197143	-0.048973588041339916	-0.1599890687228817	0.038122344773177885	0.0006250371206069975	-0.003804253831629828	-0.23468716764420533	0.41779847928966396	-0.1560712040047654	-0.041176429314516254	0.09965845752446054	-0.05826351542057328	-0.05840185458038583	0.0004570155639409112	0.28583383064562345	-0.1777075177998822	0.07351649988935084	-0.0786766198439321	-0.060976589459767486	0.1074174628500143	-0.08681009446807274	-0.14329125482436547	-0.13572931666356164	0.006955013668671754	-0.03273957530627686	0.24019621054933624	0.11480433355638862	-0.15439054676401706	-0.20087277066465664	0.1156493603120466	0.0866247624430539	-0.006325656065567342
admiss	0.22083254826804924	-0.24735350732583264	-0.11622204306552607	-0.10454651810352952	-0.041789959601538904	-0.1530049398116548	-0.06613721648194244	0.026857318986636732	-0.1212892381976962	0.19098990155388343	0.06729269242592653	-0.20515765811610234	0.01671410746198781	-0.2817911936002364	-0.07559065918076041	-0.13114796220639535	0.0558506100208068	0.039557586362370736	0.13472036610759638	0.050078719443106295	0.24938349330271337	-0.11672176737114284	-0.09736599719451276	0.05125217888960963	0.12552531855855134	0.06173611658706996	-0.14390119856994799	-0.04712458879683778	-0.11212249771994018	-0.04178962588975823	-0.20798059134026461	0.00973804632207257	0.28284478478126984	-0.07241452448179105	-0.23641771898575012	0.00723188651774145	0.09922579802544408	0.04084999733545206	0.18793579030458749	0.08182398941759907	0.21792109388317493	0.2379693615168601	0.11662296058268863	-0.23182253730829466	-0.2058880833176505	-0.035443281835791464	-0.0028972975968741465	0.10560264850387861	0.010072579945654034	0.02084876262440141
adopt	-0.016791804084553812	0.13670172743708187	0.07301029823674485	0.19636955182624358	0.001740537006199146	0.1445125158503133	-0.14069158003972568	-0.06693939863175116	-0.15728983531737356	0.08610478830736668	0.10216431745776089	0.04974584812369333	0.018831128096240813	-0.26673567391569464	-0.1205605474152398	-0.07400057894972609	-0.0042348864837999135	0.00578169845583974	-0.048136612801856694	0.3478605872526858	0.13255548941435508	0.0037543983887446666	0.15948926470511987	-0.029529499528434307	0.19587883408842316	-0.32572579034270016	0.16684567694574073	-0.024009680728097615	-0.10063613620993696	0.07261924901150853	0.14964642418398522	-0.15733196278722233	0.03411685960391111	0.31362561406905304	0.11558576743840045	0.17728972977138918	-0.25679190032527166	-0.010829604557077639	0.20318168411513865	-0.019267455649265772	0.07456737400194802	-0.007661495204146364	-0.10366385335767926	-0.14966486400178639	0.032012525519062654	0.00548582747010447	0.029525046474254715	-0.09447322613947916	0.22465387842672097	-0.024161021426875408
advanc	-0.04450269492761141	-0.05610240836105024	0.06162901211558837	0.2027016682079596	0.3785982662764363	0.06441512312476796	-0.027856810505526804	-0.10021778894012288	-0.03842320625173905	0.1344125805663026	0.30523012111349546	0.019804392975843393	0.112862466660127	0.32009711255718915	-0.11273242731017553	-0.17026179361376734	0.05105261681042145	-0.0043313621215605655	0.1291354117217687	0.07772709529339154	-0.08504070736497542	0.20389946374046075	0.1135193896880696	-0.10859237801698506	-0.17463157232756182	-0.08320206259750812	0.03917107192291506	-0.11715451468287759	-0.04771680295250853	-0.23936593511966903	-0.20712399829543843	0.1445491898117306	0.1597692891049958	0.06299524537442402	-0.14394509856579202	-0.24283134518800467	0.04594998670861327	0.1093541999486955	0.006268825458320693	-0.13340623771084123	0.05990105537570349	-0.04848447743469377	-0.0718676343315285	-0.017999456783276305	0.15036645681588634	0.09611572171048402	0.1524951203665336	0.1702192559062456	0.0983220330627358	-0.023376850643855317
advantag	-0.08202007434514003	0.14911722760604365	0.1039951430222708	0.072754866905848	-0.15941108304905557	0.14691764798779883	-0.053487975539689245	0.34630814260920384	-0.22368122203728638	-0.040181568568599765	0.14734758936560627	-0.08520819438309173	0.028745598858180108	-0.13437648573239272	-0.10179637661992634	0.04213044292086263	-0.05160296700558976	-0.15739916584420843	0.25113820656427177	0.0052382841904556445	-0.09337770613081627	-0.13273770183314892	0.23218822487476942	0.030929531042095178	-0.03727108659529521	-0.11674235766137511	-0.09286386160681022	0.1428996633781283	0.007393699728606893	-0.16255201881787634	0.10907046550233043	-0.0005995769759117933	0.0705376401684069	-0.0675511087609279	0.13263527087081609	0.10760493232840157	0.3186697771309672	0.05735246047675096	0.04739874891859705	-0.03407658894831092	0.3023747100599432	0.08554444125711075	-0.023847657154145892	0.14538476070546985	0.2969955917671633	-0.06211431507115698	-0.0195664483972383	0.17091564413553362	-0.0902904096948355	0.14866000392633236
advis	-0.06739414579500969	0.08018930986927485	0.09227163987070074	0.06518422942096437	-0.39170912268106006	0.10356173898951279	-0.07632929572355573	0.11225547493847007	0.15320796230108275	0.21599800348766046	-0.09880575082208942	-0.006384922541832021	-0.2779067537812317	-0.1436000141464235	-0.14163347294639445	0.17982103473802197	0.03829823823692289	0.1585560250115118	0.17150855274546553	-0.15477282440596346	0.00831443550843394	-0.13605347186355315	0.09736790995404726	0.3150811637598104	0.05647943054121554	0.07403983697937733	0.007062309860462755	0.04622129878313554	0.01803377657364246	-0.1632074428326287	0.01045494426384069	0.17854904027160887	-0.2267380014947361	-0.03810532992079689	0.08825786245322746	0.05366020773853044	0.05850811160778434	-0.11699687909741954	0.0445935482935067	0.07460510015703108	0.10094036912146417	-0.1492355025709757	-0.21712688614792006	-0.05506914524800898	0.06681354556043297	-0.24933649290965526	-0.10782353124067495	-0.14445997099189326	-0.030786857689542597	0.12435918856592258
affect	0.05736378792186124	0.1798816148851172	0.034399321384028195	-0.02573300672205315	0.14661582138809195	0.07787095626879804	-0.05356556706438952	0.0276855962745821	-0.35402587390235857	0.020254438609153477	0.011262964259367613	-0.06526107765241444	-0.09017761587237165	0.0745193332619201	-0.32714023108018947	-0.14130831475041505	-0.12285068469319135	-0.13078209904398921	-0.06919665149834539	0.15408376703677434	-0.04745450215754867	0.08630814059575533	0.15690774035625443	-0.2539507338172981	-0.002867522649939979	0.162879451592172	-0.03207167774726557	-0.08009688162678998	-0.19367105805236945	-0.1952185146180689	0.10441956532971923	0.11169995357210274	0.12821863505782294	0.07066969824877645	-0.2223820311810228	-0.11692551707106352	-0.13672792201715336	-0.08112899188303592	-0.031152745682947524	0.031411406982033825	-0.25621940419761885	0.26840093770713214	-0.08824020984617167	-0.07293655294982955	0.10512963054558352	0.14692767990183986	-0.1036958691059288	-0.03016438971693169	-0.2384851294408542	-0.0649798222927252
afterward	0.08671193801790097	0.07638664367968166	-0.08401806280916763	-0.15909183645008634	0.07121457272383788	-0.3029513567528335	0.18511621445234352	0.02163501110431644	-0.11304438597795456	0.059186486803364066	0.10916425473609684	0.11151868514129466	-0.20146797116524848	-0.0798838752562099	-0.15720857981454042	0.18174833278387845	0.06116710892661427	-0.00850095677285329	-0.11104837602741605	0.15234310230034379	-0.12897889870691562	-0.1652567599966146	-0.11969225080831031	0.014752040638744522	0.19688540616017988	-0.15434900163879298	-0.26386847204481534	0.07358028560311713	-0.15079282079169504	0.036027281632418015	-0.1570974694183163	-0.07871286347372049	0.12276459793719648	-0.0027893302501457735	0.08242406044575884	0.031511947023762414	-0.33696799388080506	-0.13261594109652858	0.0646744066275613	-0.022087301025027616	-0.25918099298061603	0.19811580109978444	-0.12077394049561906	0.09750084810510706	0.1392341440599668	0.016207329285380392	0.026103591928766916	0.18151410017363934	-0.19500222433555847	0.08038746264517117
age	0.07430404590045267	0.023921434192766742	-0.005935382803602001	0.017503583032678332	-0.17179667538297397	-0.009272078053904802	0.03025573991121686	-0.10799585907638783	-0.028182097110689825	0.03419220799372531	-0.028643670534495496	0.1596666444704556	-0.1554445069958186	-0.08301677833991655	0.05621689059824844	0.21176384068137402	0.01569825230002843	0.01934697966118801	0.005193715634362752	0.04755425099680229	0.13737638406814717	0.20035532373303142	0.14355919616103793	-0.16630217857780275	0.03308923019722822	0.4571508152279821	0.09043122548336029	-0.16070164077776902	-0.016894403174288475	0.108365600111408	-0.24715239552876825	0.06392214424147596	0.07931564361441966	0.29897106216909514	-0.017824218960116118	-0.03759828659526951	0.07970853142013104	-0.020402639251580017	0.24243373722834788	-0.045646009948428365	-0.026271070527994336	-0.04341060940056846	0.12239166420874031	0.03677885347288436	-0.05800791361795133	-0.042300188296656376	0.07925869214549565	0.4221100715950771	0.1850744852048379	0.06907496505927486
agent	0.09213022214108732	0.1896209977451844	-0.03176392629661515	-0.14002397075278114	-0.2816803346282836	-0.12642895965936912	0.07210052314652485	-0.11931298163364328	-0.30128612254432496	0.18181689448479213	0.10474116564696623	0.13390514800926837	-0.03873615746668022	0.05175516264008865	-0.008579454576211372	-0.22522310743935	0.034426623471166484	0.04258960399644369	-0.03898695578874193	0.09883880278096084	-0.12436210308346923	0.05261542394650772	-0.05325286524378478	-0.11341320758891223	-0.008508641784753506	0.13748181672742	0.057503145989438516	-0.21612772295985552	0.10538643357671863	0.1695975237882999	-0.04720613652484698	-0.1712219990774348	-0.21464252954278212	-0.15455744307927052	-0.058625168938299534	0.20249711752811217	0.22836146831555257	-0.16301716857665427	0.014387774698832288	-0.24930023061274342	-0.011747846864032529	0.07558751803578567	0.17531928708065705	-0.10231980690470108	-0.19573576541855425	-0.2026111328572575	-0.03717873087771502	0.15653646882475084	0.02821345751387511	-0.12350956671195563
aggreg	0.08522013403101887	-0.2646316511431673	0.06931900140198875	0.20265729697006785	-0.06358272318814633	-0.09933430941510739	0.023530766778136872	-0.1171473395577999	0.016105724782248185	-0.001712454424229077	-0.21701521082014633	0.015311197066075963	-0.016978066231959653	0.018892100684968764	0.1224695000806127	0.05538578622419317	-0.09866711536046747	-0.2878668672945258	0.09538026701844604	-0.23260328761206597	0.15002869723746798	-0.10909920610582462	-0.20047153776100668	-0.0249306747512896	0.06441183175165294	0.012689944877968708	0.10005829078796272	0.11269155215441791	-0.2088620194876515	0.07546449124852327	-0.052685893327005996	0.3496980191306302	-0.22707337867938554	-0.053109963396141796	0.22049628375624583	0.08879391959720297	0.0888912688178478	-0.07581157999451667	0.028280460771420088	0.3900785934683586	-0.08806358975587343	-0.12163650824414568	-0.011393300371033824	0.06184665832173971	-0.006357778715638086	0.1116686993077172	0.07496037259889608	-0.039019490682704036	-0.11833923774943451	0.1106986014790788
aid	0.12020205414751518	0.0375390316192747	-0.14806906223250962	0.05606780074075871	-0.004329232676484127	0.05791409997105982	0.11964314390234504	-0.1250983124822062	0.12635793784893576	-0.16056516033269072	0.1519375997291617	-0.04978521296569892	-0.40167084276275566	0.03561518906373784	0.004806978244994485	0.12913315747880602	-0.03080771418500224	0.029875639619298025	-0.07391017259995993	0.11748328246806608	0.2553137606742377	0.22011170832518026	-0.027524397241452888	0.10288491932792368	0.22238840283574557	0.03933047211123166	0.017458821994754844	0.07605300863534031	-0.11483051252932498	0.06142412334311348	-0.06758967138376472	-0.0031069336201520045	0.01837362014957336	0.5716985533845758	0.07100286856387766	-0.00980156270479141	0.0712306594817599	0.04757652510319504	0.13827236953953256	0.09934627924115678	-0.03280022231056063	0.06828571804806681	0.10878498075915638	-0.015503719093002506	0.18067187813988228	-0.17843704460937715	0.05294077600507307	0.02358596858793794	0.007724477398448342	-0.007209288058596097
aip	0.23287775257923474	-0.1364172767880839	0.1680887679672598	0.021676529957839658	-0.14069569605109233	0.07993485963872225	0.041330626725193324	-0.09180622690679181	0.12219439287753872	0.07668195811775809	-0.03233663463066407	0.04651435543063316	0.16139390246546964	0.22490263560890855	0.2262164170349	-0.0678587323217206	0.07960232199228831	0.035086094072139425	0.1346980046836918	-0.11138449550870053	0.03101048070154959	-0.07656348982027812	-0.07422348545596526	0.002719320440043038	-0.1209503463560332	0.12789017281511578	-0.012732977425432758	0.1744575762129035	0.24251711592004627	0.12553643067628656	0.23131439188786	0.23313305560580394	0.06509778567926797	-0.2922094462206798	-0.10173876193572032	0.21395370693864998	0.004109945723827258	-0.12344636255336489	0.027180547203454957	0.0056845900897531795	0.012573713044909535	-0.049108929089427614	0.05386631229035388	-0.003947087289962621	0.12098383257643507	-0.2996029167207195	-0.18814225147295607	0.0568774942843722	-0.09367237336664619	0.3035487241813067
ajax	-0.24424925139030207	-0.2313095746938154	-0.019402737484401036	0.24907495696744192	0.13044103052653636	0.04648351892579058	-0.03725298124118	-0.09057534240091789	-0.011772457863192089	-0.09233265142760491	0.1284418535523684	-0.13266073564620465	0.03532770971156228	-0.049323765058206064	0.051321473615002715	0.10205928315056019	0.14172454562523412	-0.07206109119566925	0.04190085719040275	0.06326630871727369	0.00234938321252361	0.11038584881702708	-0.021782316941653786	-0.04296087011970948	-0.2006333421317002	-0.13777446904024485	0.15993101516965047	-0.03956402086867922	0.04963059449086588	0.03746653673334279	-0.44452246880157015	-0.011575968293156458	0.03685360152270606	0.2613756006633391	-0.10023071334337394	0.02125208955006671	0.1599670981712528	-0.32230128233253785	-0.0669918360452524	0.005411479019426256	-0.11652805805760044	-0.13069217457994786	-0.07113045191191324	-0.0960897235598113	-0.16960624505445293	0.16825653182515973	-0.2246219060973597	-0.03310252900226374	0.003196973590237855	0.18678874003584003
alert	0.0746649991145748	-0.07036933752124615	0.0018111979768734021	0.11201003379458604	0.24940542862501985	0.267066791156831	0.06031883063364045	-0.12961218481596176	0.2955458569828168	0.06177060692979859	0.33312196847348224	0.09882382781298348	0.06868220539786245	0.07967119678565943	0.3611048076566572	0.0039473354731347455	0.09296385731382682	0.0014884138334531794	0.0228974840321496	-0.26599683532093105	-0.09904293921249144	-0.1260071476941596	0.20792090674449046	0.17635801321022998	0.09172708777521867	0.2092433027730653	-0.06142748564630297	-0.03981206324990313	-0.15059510048899527	-0.11491965650315235	0.0013951063313386587	0.032688204624719185	0.0564534325570468	-0.009776062684830363	-0.07914963047837945	0.06430647414976023	0.08412157408331197	-0.11850213155325336	0.21593045410625583	-0.021323660088619134	-0.13835949062912642	0.08320872480605485	0.15831197539501754	0.09961338242184396	-0.12613761772495194	-0.12423648877860183	-0.09555345836794797	-0.04042019450501248	0.035457814547337506	-0.09394478520508116
aliv	-0.12281880162351216	0.02097650934877092	-0.0778185499119676	-0.13315129530741915	0.30532383296812365	0.08251747242431169	-0.14290976450912515	0.27230660413582775	0.12317564673977957	0.08024073854710628	0.011721400699486233	-0.18785372533750958	0.21594597659183823	0.041346202318949074	0.062233042101629894	0.009090100979246627	0.11124100295127727	-0.07927034331849578	0.09585029437660263	-0.020807479610169793	0.03193600164424096	0.2604689104077321	-0.16364032401260267	0.26349007133669805	-0.0021164455771545015	0.059999973130743414	-0.2050987712666952	-0.05173682594022155	0.23299256751927058	0.0881950004362998	-0.17773891905927167	0.13915659462719948	-0.03199280175196149	0.12494997002314254	-0.03334008957656557	-0.09013686688064135	-0.20554654209772388	-0.10038711426215319	-0.17912110112684412	-0.04509923632029887	-0.02649263580952996	-0.1547496846304047	0.22457297068946486	0.08010184088599145	-0.09372675686371777	0.0849170546563209	-0.18059436051706898	0.2060454880855869	-0.06163663592347848	0.11556729915354036
alloc	0.03029199925717854	-0.1554169439800667	-0.12285375185308134	-0.007332292534102622	-0.07825431449142607	-0.08985825340408783	0.30379740009827844	0.053587242677766246	0.004676558337799226	0.1292928215251485	-0.2452464128496471	-0.16823959937672042	0.1813622431842379	-0.02597444821845571	-0.17416735945883183	0.03036956427214719	0.019278265532864398	-0.16202101224440246	0.020893732631766034	0.0666396874014621	-0.03921442199090261	0.13276387043150173	-0.2795508171629794	0.11489868042329654	-0.11702794094727562	-0.1583032974524177	-0.21508037110319103	-0.18470519665257468	-0.11102246349464065	0.08684753062219294	-0.017898885976628892	0.13616510844744392	-0.07564152097239213	0.2817837300534443	0.03323183721459465	0.06094635170646388	0.02300376991071499	0.1184552017334413	-0.26698656501119794	-0.006646875668528099	0.26681036312371936	-0.04535644425344641	-0.25895938062008145	0.11197037194480101	0.005440529620733253	0.14259711439047082	-0.14133185383038996	-0.07297769710318884	0.06961925323943845	0.03672263452883712
allow	-0.11334479339477453	0.1143314689928061	0.2844129334813562	-0.11721885195737887	0.07353328161128309	0.17520974838681797	0.070422236652149	0.2280621633430523	-0.22040570846157495	-0.1102097461454378	-0.1812529964187278	-0.014094431126238443	-0.1274471733244373	0.046660015833097306	0.12224262103512198	-0.11957768226184694	0.042739037663877544	-0.041418215894058946	0.10079583040783295	0.2675087139944629	-0.300362425478241	0.15224335542478035	-0.05030908215341523	0.024609244971704768	0.26715352126870195	-0.0017673013515328315	-0.20130362404032753	0.1418303036188114	-0.02637616016229742	-0.035301217958350097	-0.20042293421450416	0.08467544054002331	0.001512733627840879	0.06985140813361201	0.10188586556398284	-0.09705090356455412	0.0024204326308006215	0.22791455483095635	-0.06328523315398586	0.007006456810432652	0.14525614096877268	0.29291366530702345	-0.004652117567939088	0.07564431349732441	-0.05988883464749633	-0.055975075872196495	-0.00031213856383605987	0.01598676926000989	0.04202626983385763	-0.24449169654622827
along	-0.1001554167141711	-0.20029406074396353	-0.08109339612726134	-0.04262487676991192	0.06959515742255365	0.0002479803820672122	-0.10419130028988935	0.005905063355467226	0.059854200308151105	0.18630471519819614	-0.08967264537286841	-0.016806644620140875	0.0742176628449655	0.12618826086678006	-0.3060171205546875	-0.1388625929551887	0.15813964338708766	0.14189340140311696	-0.036216084190677476	0.11904548608006786	0.08316528532343079	0.23193891562612215	0.3229706717865251	-0.032900459712536925	0.09620691011726785	-0.0069596684559824025	0.24588483704344058	-0.2560758718460617	0.04512712483211943	0.03410582167513216	-0.17380612475528115	-0.07018045798885253	-0.11550167666851856	0.11377693754851903	-0.14094709532663102	-0.23083528093378727	0.20773943817688414	-0.03368394167030393	-0.04057589066451283	0.0796743319350038	0.0641452767568054	-0.18322169752130366	0.1364867295138603	0.13439277019117693	0.010964261836524518	0.1843744660911321	-0.022942566959597066	-0.1689748170042219	0.07759802588376732	0.22143745631621523
also	0.10444008165225385	-0.007095227901877766	0.0328495964742713	0.3238485168623779	0.2177379314715593	-0.04884010640423104	-0.21351182606172878	0.2433296678712866	0.12222332636407682	0.1739562664619041	-0.11277331560055152	-0.2115852172479211	0.1299780322243876	0.1362786459364379	-0.03642714950820888	-0.13135008776227763	-0.13700669382583217	0.13883753353184894	-0.010913899274210718	-0.006409185763805512	-0.2595007349803951	0.08850244619667562	0.08898785198637107	0.09244220532748783	-0.2929212192863837	-0.13518000320012097	0.16775478103135383	0.09897752283689702	-0.11793421113685888	-0.095022542494321	0.09708871056924971	0.2007240482905006	-0.21426464656539362	-0.12910258213016615	-0.015002242147879498	0.021764563660708395	-0.1206491954065209	-0.13845335740411024	-0.11552917549838164	0.007598967953625065	0.0686154942975267	0.07725628909001679	-0.19093893140769508	0.11872462235058799	0.0005034066568074068	-0.05980403229771845	0.0004192998174756896	0.19541440726504195	-0.10995150667829069	-0.041947521631716965
alter	0.0032275388592256996	0.14725059523158038	-0.08692950809963781	-0.20043763947600382	-0.011290755585604623	0.007300157366808993	0.10483596974045689	-0.054603789142900115	0.09137120542866045	0.17529232425669622	-0.013645136077691954	-0.11461962824212552	0.2820968329178533	-0.015896287345894062	0.02433032037786779	0.07991310219106237	0.02795540988562322	-0.1562824786841063	-0.2919677215252646	0.23541339450251486	-0.09095787828353301	-0.23075713027583966	-0.19936314042142	-0.09106551151249413	-0.04548813162675646	-0.1849257932491276	-0.2668240653079158	-0.004594123848177475	-0.07935172803312271	-0.3385199937910998	-0.07300363701055874	0.04343488540835132	-0.10631057149150167	0.04304304752173893	-0.08410312007278982	0.029068660557729407	0.018576806791883484	-0.166822226675697	-0.08789965901134668	-0.019671305157121243	-0.1746314679359444	-0.03583176545825481	-0.15168827005903687	-0.09004143111871818	0.14508023812614626	-0.14896164538082457	-0.0339869583359093	0.06989547720378825	-0.14060884239418037	-0.2772776803151409
altern	0.08661944454824892	-0.00598247850028341	-0.012154267652003174	-0.06628406081487266	0.09129428959567715	-0.18232551779074235	0.26128517114206284	0.0761794160909916	-0.07170007970865792	0.022315739951455495	0.14319924724219046	-0.0959141690664433	-0.053095373634338736	-0.08431381050356007	0.1775117415518692	0.016374730960779224	0.11498201784236997	-0.04286272160952697	-0.07023131117639089	0.11207229845480932	0.13475365731717875	-0.19341615205506765	0.01761441019345981	-0.3692485828331667	-0.13800474811094396	-0.3415276853581788	-0.13788866502143315	-0.011625880006799236	0.09333917838331099	0.13895588290963448	-0.003516647839911887	0.20449556614216216	-0.015322666179809152	-0.03378814551997973	-0.051411047332287185	-0.02328529914062355	0.0474118090706797	0.12963787870659743	0.08466929657370113	-0.33121686985806237	0.058389434664814784	0.10326403567550645	0.0963129193979063	0.11357274152078656	0.19682303595572243	-0.13877908846473055	0.026766125599098158	0.2943935501540459	0.15346193159839075	-0.009366490517940675
alway	-0.10584803321235292	-0.16020258515200766	0.3260912475662053	0.08805798039301503	0.12681828542915843	-0.19348726570343194	-0.3196285650867091	0.061390932950066625	-0.0225726908452459	-0.0049818777718878895	0.023137778754314487	-0.16490002969844236	-0.0872672310704753	-0.02238228267154726	0.049383755667575156	-0.1056686087434393	-0.04278817725553292	-0.10134222726969834	0.10985413292955663	0.09682744548033678	-0.02065527072831837	0.15044196725098383	0.006394009159052188	0.07438486074256088	-0.033718535736917965	0.13212841722478288	-0.14134517086475074	0.07285911129575928	-0.10478245822418637	-0.3301704661864116	0.17912577274655644	0.29499979237237495	0.0827403084631431	0.004669750065888688	0.04706948379399065	-0.08507472807541958	0.3465118083134022	-0.16284406064298013	-0.0526858011924689	-0.07053473789098874	-0.02894758796136342	0.02368521144139377	0.025757850782505393	-0.2655348296843252	-0.049503994284864704	-0.021134217726114714	-0.10328375008815621	-0.02691377137347232	-0.0013991614933839046	-0.1921505581122371
among	-0.16917752753032417	-0.1668197697623879	0.10849650277845832	-0.2107595069044527	0.08079089059698118	0.026560090146610295	0.07310517813182936	-0.012455563408901603	0.04493786370054884	-0.08221369472279999	0.13267718061372183	-0.0990940117076824	-0.18955082910570298	0.013746864457280027	-0.12191897387387717	-0.19304577662304065	0.20498304890671531	-0.24058999371975529	0.07590042427365162	-0.20968905514718716	0.009348426150234092	-0.0643495852469819	-0.1314057271918769	0.052224478704105966	-0.18958792175959938	-0.10810396424280964	0.2530130671646542	0.027064750932365062	-0.04634532612557432	0.2534525997259273	0.015420132886577455	-0.13374197835647586	0.031650705302300186	-0.4450532872053758	0.010708996020761327	0.02032416083851558	0.08051404957222151	0.08960888769519416	-0.0013143989284281773	0.08614068447703757	0.12211411210540432	-0.05143154351651283	-0.16046609282752133	0.24445588828139062	-0.16533527084276123	-0.019368630810425745	0.040485757654482	0.15883322929743576	-0.002933939195363299	-0.01562908536817283
amount	0.15516103951108226	-0.20885699707650696	0.08625260664545888	0.025801071255594096	-0.06060721532982071	0.14503910207719717	0.1651404140587166	0.011675038120804304	-0.018340365111510628	0.12390756140248435	0.29905161220406057	-0.23287937591262875	0.17551928183309914	-0.29586069554849453	-0.021813298782872612	-0.03735729036885331	0.08164662195453919	0.11825689478714227	-0.09583297542339266	0.2136523783027926	-0.05090302041427728	-0.03643908183952344	-0.10521312081090735	0.10391804224304539	0.027476037394806484	-0.034021898619085514	-0.021986084452012243	0.06670921387925569	-0.08192187138325807	-0.1296417359478383	-0.20749034248140996	0.2540902588376118	0.02747084197560458	0.26677210020759506	0.315872010841167	0.019783405813138824	-0.12654449358416922	-0.06059472115351528	0.06797515909848371	-0.11466006756530296	0.18414867527007214	0.044079079002397596	-0.10332796158465478	-0.1416958711948134	-0.13672974726573828	0.13260584898150155	0.07949243778845785	-0.13278491494816658	0.12305145271435065	0.041784845417757545
analys	0.1444794042558101	0.08701538982050896	-0.15778119690015305	-0.046379889979277805	-0.056440506261747826	0.11567652224255745	-0.09070598757757926	0.28682438987123704	0.021036347395083484	0.04686058112156586	-0.15580044072186447	0.15256341598266987	0.2514122073900156	0.02785599286436982	0.009821353472405054	-0.07965311984683746	0.17668094383544813	0.08967935959992708	0.13358917114516314	0.1696057861906698	0.08837704335628313	-0.22609968573436162	-0.035197966764354854	0.15173742937359413	0.01223106415154499	0.016133171370720758	-0.3107472380518951	0.06080560729919301	0.055507495803537865	-0.03826357359708884	-0.12422473169600255	0.11794816370262179	0.13210705652360386	0.07076202700902387	0.28106424383473133	-0.04496228052623438	0.04559184727054918	0.06071573022962717	-0.02425822964618586	-0.011214349702543985	-0.27978003528359585	0.09265290885096436	0.19959463204474773	0.06224056543113589	-0.23848824918724876	0.008698208095090096	-0.08798102693021888	0.31019147041210726	0.003054078533156671	-0.10842315642577437
analysi	0.1835618407600389	-0.04086449359830271	0.15124802874147553	-0.1090690369722746	-0.23758876230687517	0.05639075243546782	-0.03761233123080012	0.02314836063730078	-0.050649761504243156	0.008298522559309148	-0.22239206822489965	-0.2588666172931195	0.13768050061055143	-0.14334379771117564	-0.08392535187130457	0.1456663344347835	-0.02802719288581621	-0.14385514732391172	-0.16090127977856777	0.18023121706448753	-0.007759865216222912	-0.11606777786232934	0.18634078735491308	0.14725537831195423	0.22364484468997015	0.2703094079753346	0.003584513940148329	-0.05067426622274415	-0.07222409178072194	-0.0599751882917782	-0.06998267835520196	0.2461921431019778	-0.18935210886052525	-0.178537044322814	0.09746724076715808	0.054228694972147745	0.01609956013529911	-0.02210194530235808	0.08962513744671859	0.04765080953835068	-0.15718272941906697	-0.006430963854328763	0.051824348202473385	0.06291275692455874	-0.21880472200808448	-0.2703374071012726	0.07502226613512952	-0.08762849646893092	-0.227058221644164	-0.15232670075496046
andor	-0.07156458088203568	0.14752890645114183	0.2820153689991946	-0.31224979463104774	-0.1146943742641649	0.08258894812980093	0.043942687300652684	-0.08883196171719232	-0.1639325073168125	-0.20032297292098522	-0.152041152464666	-0.026566904735478927	-0.024219284791646062	0.14103492082754582	0.1001648065273661	-0.18960140104418163	-0.10297084058939673	0.01736590421615794	-0.15369301561564297	0.08122152625246845	-0.1201369040151787	-0.14303753402401373	-0.01084151266210821	-0.08692635408618792	-0.09337748829236772	-0.05883237654730979	0.11602166428987698	-0.12873335239988853	-0.20631803614707891	-0.13243560765452203	0.1785243787458803	0.22644702791419052	-0.12593748348688213	0.32848591378570896	-0.0006745272837123592	0.04859087309023735	-0.042074288831633694	0.03854491181665579	0.0052412621202374155	-0.058406754152925684	-0.0833241408121119	0.2110181695457237	-0.14535713352232602	0.19391457848594107	-0.22523546608115325	-0.16106658574202676	-0.134403539596719	-0.006636663754360202	0.045002873826234	-0.0031859688376302737
android	0.14556660752144227	-0.1530063891099079	-0.1010342918041515	-0.02852158536021703	0.0326829447779617	0.2242686523944335	0.15406238639039296	0.1793904593546262	0.038213884868544726	-0.07888031041604775	0.23553962694251762	0.14602722742780652	0.06747143768334084	0.08157293979930645	-0.11705585789944331	0.05652275226404939	0.03586709197280937	0.2392782351001413	-0.10628249290920315	0.02074805660067889	-0.14554168161120423	0.10077161642588738	0.1857484369097291	0.009851793586082288	0.1808522732968763	0.17940785394505443	-0.05095367439764482	-0.19847151441446198	0.15235067546403483	0.071952670716735	0.12072875021035263	0.049281833887229225	0.10826922354733488	0.06821516398325522	0.19407217792071296	-0.16228400537065424	-0.11301882197938663	-0.1931478971998102	0.045287783474028086	-0.22833445009848524	0.19514378363143411	-0.04067854017737573	0.19993954222522786	-0.020662271503208606	-0.03307515481721794	-0.110154110947652	0.31297945126175425	0.18332864656876266	0.15003028309618796	-0.06282534866377949
anoth	-0.03428553506999901	-0.11980036948278859	-0.012046815689964916	-0.05096469074434478	0.0684996557574407	-0.12126690386891406	0.08735138468349611	0.09876127545777708	0.043509272502317446	-0.24956718663276084	-0.13705602714370282	0.21166818336278836	0.21496766364194958	0.023473089818452593	-0.26777550523068877	-0.022741912473083593	-0.12269931470203838	-0.11686519902644231	0.11488642092885591	0.10412832299457729	-0.038428110730994114	-0.13587163333564165	-0.1378649631442142	0.1110109283107839	-0.01400525376866048	-0.14110909395070148	0.0315399440623042	-0.06832663074703436	-0.025212997014182018	0.14399862765858665	-0.15925197952936865	0.09603287807902738	-0.09398327710400704	0.16655030874902932	0.11400340926611044	-0.08129623351253151	0.07230923858742191	-0.3775857980667664	-0.35463244672258787	0.06814989385040653	-0.036465252968764586	-0.013214844981072999	0.07489467078897845	-0.002411759286742602	-0.18250630749062619	-0.07250274251706616	-0.008946963986606828	-0.12575413492888843	0.28315559115681677	-0.19055270058850496
answer	0.03104652403129032	0.024996543537265877	0.09359112233389753	0.097672063037576	-0.005125076617743596	-0.015160333365914366	0.10785301516261828	-0.020479310950077614	-0.32792820638590575	0.07753992296773828	-0.09497810770399921	-0.018926329688566026	-0.008536548203260049	-0.0722171320343867	-0.14746505400965565	-0.25716062223821795	-0.013219976930830532	0.07495450708776771	0.13982366225587367	-0.08892964881844244	-0.2013764972406219	-0.2440083800644883	-0.19731539778986654	-0.1379942588639524	-0.35566176604488237	-0.04797313258807766	0.13598098525732336	-0.16975898639189146	-0.11310918859391297	0.05034989547665505	-0.26385786549852497	-0.11821074503486728	-0.24021719698738386	0.1285497744643227	0.11054819049454333	-0.1586732318671217	0.03302715977196682	0.07897504433312186	-0.18202400187639875	-0.0650982913538347	0.030070460407616427	0.027673655954014623	0.04648202341667553	-0.1334362263051661	-0.07057631125457897	-0.012461640734228724	-0.0999065109357802	-0.18862822343451724	-0.04836270475159129	0.23315605441075873
anyon	0.039916775657797054	0.08481051053928769	-0.15381036364920592	0.12511149197024143	0.10162566935949922	-0.16911288793378243	-0.2590139866586004	0.1565234226043185	0.043100053068354884	0.19537178753881182	0.12534002501020916	-0.007914215613933536	-0.2974181493921475	-0.0469801866905461	-0.0903020987400784	0.12668476653176178	-0.08484041911833878	0.08750966059587016	0.016916594149109197	0.1772815177138268	0.26983067445932596	0.05552341069461339	-0.0037634011997263288	0.22107329340473086	0.14088975272224163	-0.06085879576174117	0.002365854354704508	0.04643508109409579	-0.10327501123947674	-0.0916943574513286	-0.01679007335100823	-0.13614225975807973	-0.014661272999559345	-0.09191717796039314	-0.31529308663525973	-0.005230798619993845	-0.01760554703548807	-0.030509471283315492	-0.2268341066857003	-0.11044112887274837	0.20833685107083258	-0.18432670981113172	-0.009377260757971415	-0.014090775507116515	0.34878104758435974	-0.042442985338308474	-0.002660342341708414	-0.04611645034352717	-0.08791567796382577	0.1783035274116112
anyth	0.1754398018105082	-0.016443809055633137	0.010765042510846395	-0.10868742689013292	0.0573338743491043	-0.3610883818189252	0.13978965602296714	0.04921411976271372	-0.07457803641578367	0.05802021593522157	0.25045871715772694	0.4374443401617548	-0.017448650855764216	-0.07665717196975286	-0.07505464533059544	-0.037381027293674124	-0.051975573243307316	-0.16834520229300678	0.10606836512745714	0.0007847336682017492	-0.12234653853123831	-0.14229715237514523	-0.1143524373401894	0.18331830623063064	0.23998284582452925	0.09880336694704193	-0.22133690056003316	0.14696589240432223	0.11883607948776054	0.07249010069087311	-0.050823533792386154	0.09856287541861189	0.020294095019258256	-0.17793236651726357	0.22455521566803713	0.07398458382999307	-0.059396132783786124	0.07928175500700624	-0.03077799474472044	0.1276100492236704	0.08439468514812297	0.07320275313488254	-0.08927402208256997	0.07635994469712006	0.10588941715789568	-0.0505741245383006	0.24634709718161155	0.03407220393015891	0.05164730153484827	0.10847811922302643
apach	0.07830463287597252	0.08515136657580254	0.128584911022314	0.33265933153782795	-0.12319045201841998	-0.0966681677989861	-0.050162475230172754	0.0882488701788541	0.14613456232706287	-0.14093885266604284	0.07719597717651824	0.13141670136285086	0.014647761263635175	0.11926651802577473	-0.11473932422712955	0.3142769959917788	0.012520925676966638	0.11732135506766085	-0.07748135374211595	-0.0025823617348465183	0.19528818614098892	-0.13516177695307724	-0.061568459076488356	-0.15621371030268105	-0.046504673037809786	-0.13951612483447134	-0.12337758659978	0.0593529514846154	0.09659270022969808	-0.2920879301928279	0.2720977279264666	-0.008566813733686533	-0.18055082349250598	0.11285828810449161	-0.23254896483799253	0.004565151964815474	-0.07657370394237825	0.2360015706762758	0.07453438064405739	0.19191082090230635	0.14885117825354155	0.06676130640660713	0.0641057245809579	-0.034250890182751244	0.06201841807492324	0.20882700273271212	0.00782652350309322	0.03235146753576913	-0.1830412022075087	0.052635497146162114
api	0.18582979693886234	-0.14972090689006742	-0.047908057153463746	0.15290375378004847	0.02831282350862981	0.2012355888159197	-0.00513818758573761	-0.04090682358025895	0.09574202972705546	0.01630485744042333	-0.0960921832431927	-0.04418783022346215	0.05506778204856474	0.043855217438587224	0.0898551713229575	0.14253637662334553	0.020461832080951106	0.366845242742978	-0.2020352966100176	0.14120812007354	0.10632551001220408	0.19929491497621063	0.09359575599815287	-0.19099161567781633	0.1121572271491291	-0.004711991369715302	-0.27393476430058095	0.019730859866982392	0.23431461173491733	-0.038551371451659225	-0.2076111603896714	0.10256269497846994	-0.09656069304298351	-0.10462358100055474	-0.2032589376357581	-0.12150198094938101	0.16281624670667097	0.1139282317667332	0.0017581428046707485	-0.2241555479600432	0.017156174066835464	0.06871721242881408	0.14838496161947146	0.0006358100191494134	-0.1522577848975009	-0.10172782407439601	-0.18016114481014636	-0.02404617914652119	-0.14482145638185592	0.2229314427880505
app	0.07638274278117799	-0.05187510490297741	0.00027990832934694977	0.001908838200647587	-0.115437162521618	0.05240945518964803	0.003414158043291093	-0.1769802196602154	-0.20188159566525862	-0.2904356609991969	0.21381108354390482	-0.13148457112313644	-0.08455349723683353	-0.07240557658693396	0.05466821668214526	0.07001457046264949	-0.013768183029413373	0.0730771453313164	0.020624215038273722	0.07730398274354046	-0.07260848957106261	-0.014917887271006128	-0.03374777437347506	0.18969169253732962	0.13170697906698217	-0.1662641172143399	-0.08996719956682278	-0.11407691976564532	0.010735155497167423	0.0015832873431945336	0.18995068767606005	0.2144901151307188	-0.35534829881062197	0.23021566578172709	0.21797654554288323	-0.07462143971939274	0.055662809331685874	0.24696542166791788	0.1382792720528606	-0.139826758577477	0.23585128262093605	0.11476108781059871	-0.10593808415625226	0.1277629541871583	-0.05291224410413851	-0.05091533506870512	-0.19522469771012066	0.09700416254690271	-0.02532270636649858	0.21864234324430246
appear	0.0023425284341777996	-0.05348365350297916	-0.1540247512276598	-0.02418542683137432	-0.048246185022462834	-0.28372790571781875	0.07910137252279048	-0.03291564127487474	0.16719352459434864	-0.11328537926174292	0.060465526954810514	0.06869748325967123	0.12486651431395719	0.05239796932238471	-0.016202382202702873	-0.09239612852120271	-0.1818454018555631	0.0025423722399955714	0.045585577383470584	0.17490336990819255	-0.2967042367646914	-0.005669113977058157	0.13700428420496588	-0.2947686453690178	-0.18484335294314144	-0.014918426536994815	0.014323575737858486	0.17629436558548556	-0.08319669759367193	0.19696279431812763	0.07988941052734577	-0.22216165945986788	0.20836520094596905	-0.054783063179520364	-0.14830610254341756	0.12831636194441529	-0.040898899159164094	0.05355978110875177	-0.044687407164581465	-0.301672408552316	0.23200308498985336	-0.14616798035512066	-0.08066233210034142	0.10870617155284447	0.14130114765044133	0.10529999582374219	0.12566295126332003	-0.19492644586069166	-0.01643686780398926	0.13679415266444958
appl	0.06582096780327021	0.16745153467008445	0.06764543824588931	-0.024370002114381232	-0.20167284731376556	-0.01602937534727421	0.03687059071736613	0.061037912254668966	-0.03461411509019858	0.09458713258887674	-0.15526712999431613	-0.05372578569275172	0.121995058532055	-0.11096217507265925	-0.024234904828326704	0.057921699851946444	0.028012203839476914	-0.29644918385193453	-0.15126838119653632	-0.07950900287394383	0.25832197722163897	-0.3642085425221598	0.05597153290701214	0.08020494508993012	0.034989312760378755	0.11179095454685332	0.1978846568620562	-0.08402131714200244	-0.0049167877303686065	0.011455540878811586	-0.044126542367382025	0.2386209099807269	0.02195538463051153	0.1900576224530572	0.1094136012660758	0.028465956743640164	0.0471301400888199	0.011125432013886478	-0.03906985079191287	-0.1331556462969074	0.114018462773304	-0.03295427560974197	0.010682179230121183	-0.020740534174373333	0.3716631393485172	-0.1736272192664701	-0.0794104765458775	0.27753798916166666	0.20332835448700692	0.15426306868248132
appli	0.06649884141922216	0.2225909054720254	0.10973541246906793	-0.14572019733579303	-0.0779402100407316	0.2555890845902343	0.029923638065349922	-0.05423637474635816	-0.06616458381503858	-0.04358065011431168	0.06529759095794598	0.046985888627701956	-0.04703625279810656	0.09764203203196666	-0.14771304322498843	-0.010160201042471373	0.010240326848121917	0.09875826665872967	-0.2960418723222463	0.17612605624068856	-0.011890975415254579	-0.13565011182981704	-0.09222344721017531	-0.02135761296268701	-0.08156198805435538	0.00411132645905466	-0.15429586425662525	0.0922623691987347	-0.173406824763913	-0.2910285890614934	0.17015405455641833	-0.10803888846213175	-0.08314102585652618	0.01627476207404064	0.1033541058926291	0.1325479767853848	0.003503889352372669	0.04055814523174273	0.1333478724273042	-0.05270063503216949	0.14989444609833893	0.20285947488216644	0.396097395908805	0.19264012322871196	-0.14688638231326367	-0.08335810475125519	0.04569265972393038	0.22346340855966954	-0.01178334271849202	-0.21152109574581732
applic	-0.03793288817915306	-0.015855470857741576	-0.07753874020880766	0.0675976081307029	0.041208681110775865	0.14897052907444447	0.12321034999477955	-0.048009887509359986	0.14934331969318884	0.025064412235381018	-0.21862451146294268	0.14825907487801093	-0.11253601319323495	-0.07764610613045096	-0.025667781878655482	0.13517810719987536	-0.015607509734558848	-0.11418653299231984	-0.26811969650791434	0.11527881938342531	0.15534477329121169	-0.2212800704938501	0.26164937108419906	-0.11469155147451919	-0.1307560787838742	0.11096249786525401	0.160619688443454	0.045727970528712046	0.04964878491039852	-0.22217750337334444	-0.023467383182532733	-0.08963939569613087	0.20368289607969833	-0.013254437157017369	-0.02609476836268998	0.21026646758854955	-0.25088598820458724	-0.05385959298950146	-0.028464369834702515	-0.07615275147764924	-0.13630761217664575	-0.06935429553318254	-0.1516938967653347	0.0912238267048242	0.14579643507730025	-0.08821129601882689	0.0038961735532707024	0.22573301342674915	-0.1421540558944403	0.36219480353415395
approach	-0.025347793653266417	0.05509041696286562	-0.24805185036912025	0.044479143761994425	0.05330236122816005	0.03205911629469502	0.05887222616828822	0.02334147661854295	-0.1346706964762678	0.3218291393951647	-0.015369050012148975	-0.16812490604488384	0.25043321405683033	-0.05080072519182343	-0.14433777519808585	-0.08512733903564404	-0.10737314618194903	-0.02645504545478901	0.11781083613930604	-0.12339302740095986	-0.03750160943928773	0.13989833340443772	-0.17177662558452236	0.014546244897682511	-0.08956453259892622	-0.24855421140555928	0.33881757904939935	0.01909872391330761	0.20136941930936428	0.018843163417618294	-0.11791130969299779	0.0023000231138517696	-0.04124423469409202	0.04838130191724732	0.23814190649532763	-0.1839817567391308	-0.028457551846958973	0.046376000871812366	-0.1393779683301187	-0.027116647611882136	0.007898498246428189	0.09997338970389605	-0.2207229393158044	0.3507373766616628	0.08667226057342012	-0.02241334492274956	-0.04660711682513612	-0.10034078835734325	-0.14476934531883573	0.09384830056529192
appropri	-0.09841820402380566	0.18951442764445317	-0.17830765216989622	0.2968064408498816	-0.002480097137661403	-0.1265662712253575	-0.17393301809135803	0.0007791570850186811	-0.03925451441946194	-0.13447637947972546	-0.032044831445087844	-0.030968570750257406	0.05852250854915653	0.40496729887100946	0.04373653822267836	0.224997826199562	-0.27019924395181755	0.11961493871457284	0.13779407708395405	-0.0997572668918822	-0.15779807226736517	-0.09034196652124722	-0.027264486829274487	0.16001258024424803	-0.0369972973706463	0.0530191538619875	0.0910223862275808	0.019995661108382218	-0.10262057229628109	0.08148832020646116	0.0796614800817076	0.05942400533678731	-0.09365441373428195	0.19380502686125894	-0.06429153997052067	0.08283317345048556	-0.1929318193310423	-0.1959060464731217	0.16158657131341922	0.0901151957549162	0.11779496487467746	-0.17364517022587367	0.05218141239686585	-0.09882874036117285	0.160260040449123	-0.10618574185347075	-0.1622769610807195	0.057682305611863424	0.04932850668784736	0.19584144260179237
approv	-0.14472309494261787	0.1914952532474428	0.05081643571855638	0.014109894533412635	0.1930242002402242	-0.11768226485400962	-0.04277607937468423	-0.08740842249595698	0.004447696504896541	-0.08794101244775089	0.08048826875633008	0.16582191097752125	0.18703112977572678	-0.018693282596434643	0.02741373267249804	0.1608023659904249	0.024119637392974267	0.29196333611077974	-0.04857920992036391	0.06395726881933404	0.16014354074566672	0.09855244066101922	-0.17308002967722091	0.006148783525853779	0.034544777476329364	-0.08029903681059583	-0.06292529486331501	-0.21674262199243585	-0.14015806127343314	-0.1136435073976171	0.09106352708914894	-0.04800935453805144	-0.06682199381680588	-0.1290012057453441	-0.23051928236100985	0.10801577762210822	-0.06730774636771407	-0.27353190702381386	0.1466230503355168	0.11099899575873727	0.16189001392663532	-0.06336320366751415	-0.19090824738078993	-0.20976959866163084	0.18823030546731276	0.10099489765975835	0.05462233314411836	0.11251378266631193	0.2894569336396766	-0.24734992935532218
arat	-0.009749653292282114	0.11936681514853448	0.1451930755644068	-0.055725790725122744	-0.058680281993983605	-0.049622661642426145	0.1500561979405843	0.13215715973167028	-0.02588433999773648	0.025543544435894818	0.01567325709247825	0.12555865248449166	-0.20865260985050388	0.08424581423615016	0.13832355422378212	0.1134053720675687	-0.24109720756409547	0.193510176151127	0.23935977518164053	0.0066466084970653256	-0.03931132612870975	-0.023893366695175056	-0.1331133229301753	-0.08770066687247306	0.06624036444317434	0.023596956714760038	0.07384874662563078	0.1289865405100052	-0.059466955011842175	-0.12718880031221258	0.04631106429504062	0.3878053126107005	0.07680389973306964	0.1759993662889354	0.012490009164413672	-0.05339901572846194	-0.16096176729172215	-0.25297435515287137	-0.18509913348240722	-0.03496662424375303	0.31251331762744833	-0.2258955519832337	0.2829308218872548	-0.06419609657644978	-0.11830021577772074	-0.06804650793381217	-0.09639616874590055	0.07497217885990835	-0.017188847724804827	0.06266741992946545
architectur	-0.11940375903764912	-0.003925464430040257	-0.19798265070906682	-0.26567607637239204	0.26403267590704704	0.08082702575138759	-0.059267418350962914	0.04777430515650761	0.11565981900381377	-0.07365285157462849	-0.3848084926770135	-0.1767240306490914	0.09746855531073828	0.1720998853306485	-0.07342945864212544	0.08834438772762486	0.13448612950373184	0.09034000582257916	0.15828918262894023	0.10636717574163965	-0.20621133295315375	0.19774328230136767	0.1681384529797323	0.11626222984812638	-0.13833472053572088	-0.06782279413288433	0.10175794021139342	0.08851295030498227	-0.15397355758002113	0.019303895757377076	-0.018412279000257856	0.22027927738849296	-0.1831285478837374	0.08880992628635084	-0.17039205239297456	0.1272195551299129	-0.038573424754834724	0.0660572288270862	0.013566548006796325	-0.17570242803759567	0.07736157541860052	0.08647231251890777	-0.11882997199126845	0.03962415523679114	-0.16146261104662138	-0.13013791838780842	-0.0760504208236354	0.12974905066163514	0.08326026858910802	0.1316156506246742
archiv	0.2003665647154644	0.03752926533199279	0.1233100997504195	-0.14132910320696598	-0.030430788466121357	0.10976877078048554	-0.03636075157755365	0.0009120492462065314	-0.16601525218975666	-0.17488832498875273	0.08468156835713628	0.2202735736590929	0.21652006426647266	-0.05007329986465487	0.008204015215583657	-0.2869828626392887	0.03779302718968712	-0.039552579992124054	0.09105213948711265	0.14972859401809088	-0.16277760979570413	-0.07344468320364547	-0.09435991731788271	-0.0680987880851643	-0.2042291635578235	-0.09176620369461902	0.15944121930175822	-0.015306791551277938	0.0855744697964627	0.09703373304285191	-0.1457862012557796	0.18192380484273352	0.1864462771338912	-0.04951544779111209	0.1680538381968616	0.14948350614560413	0.08501637433823658	-0.1056289216587372	-0.3339233404294018	0.13760310249361354	-0.014760516602191296	-0.3070720015664002	0.22416969061120015	-0.13052863040391494	-0.013119698292310453	-0.049179776516220686	-0.007193550430544217	-0.11100677913291161	0.1513988577726113	-0.03149667292283751
area	-0.024214545146565254	-0.13533246755061917	-0.14778238271363792	-0.04726292446153322	0.24062230196073717	0.04404442572362602	-0.14704958949628794	0.15023719711132313	-0.01939711668665766	-0.3781325075524788	-0.030246206823475463	0.20544751447875287	0.04127266210010801	-0.008286878608146179	0.2790061187839972	-0.052661648486495564	-0.03234185800274736	-0.16764529272783066	-0.014780461909399733	-0.21922312725077733	0.12278309510960882	0.020496761539038063	0.0915587507921211	0.060483839427061724	0.04025704047217858	0.16000730887891915	0.05955650295309508	-0.06820259749911252	-0.011382247337030934	0.3302434870529174	0.08915456744877931	0.20677011339262974	0.12820533797812822	0.20951821238617313	-0.08652874894716152	0.025995613931571532	-0.11009509170873884	-0.2215132669707648	-0.04603450691836806	-0.10081855574637272	0.07653362850735437	-0.12065768514964167	0.06727451810322341	-0.07069779398894409	-3.05810278812341e-05	0.02686234388409441	-0.19943651923311873	-0.030182729569620884	-0.2356938007965585	0.12234945545390778
aris	0.09750576331405529	0.12331224326760096	0.06828637003674419	-0.1551027198611484	0.05225727651690548	0.07474748754631305	-0.03212868550914749	0.10204962341709915	-0.15417874097552975	0.006500910428026114	0.2891183656188485	-0.11940289178245043	0.0032264396680439502	-0.09319078286285429	-0.0072053676563041515	0.2804035243749791	-0.11684963723225433	-0.19156999904277897	-0.12345130058029771	0.055665158651166	0.18292663893187222	0.015773517549917838	-0.09436720205095271	-0.11675508012486971	0.1974502325925892	-0.01587022950506399	0.06190454388645374	-0.16078872283046472	-0.07303189153959004	-0.04112812092860432	-0.18649004296924812	-0.11243819491093819	-0.038035732537421714	0.12846891317661185	-0.1912382709640817	-0.15056456664730236	-0.1619865033663828	-0.06816980344373405	0.37264984166712467	0.04897783661099403	0.10980163270178245	-0.06509685591470556	0.10512731402585068	0.15288922572207111	-0.007719446039194622	0.08898587603322142	-0.13307153217043097	0.36181369935412994	-0.09536307470445896	0.06085921974151127
around	0.14661536119950655	-0.2243573754106439	-0.0877872615913727	0.05000141502734152	-0.20449810633816345	-0.04525957827406383	-0.1296558599398494	-0.3572665283733396	0.3649126564601443	0.043924910376767844	0.04751768724240672	-0.054743256020660276	-0.10328139350541984	-0.02492732059985073	0.03961905033195416	0.046638711226646444	0.1571774281683584	0.059204907244090756	0.014905810437059793	-0.0512997992559634	0.08130190595034331	-0.15600309952986785	-0.03599742084239216	-0.06964048450836914	0.3245541179773967	0.010535817068896057	-0.0352721098860112	-0.0674527331366371	-0.10555392656391722	0.08059093279184168	-0.10035718907191798	-0.16187425013519482	-0.08969029321107118	-0.3116767832124192	-0.003747480739230017	-0.008996504495509058	-0.10152804246245013	0.056208606390830605	-0.30390627087612354	0.11304672332771798	0.06451429488798033	-0.02903924561105777	0.050392195553778024	-0.009347533143014751	0.005418151832449376	0.11478293672137688	0.0008043944139660978	0.2503037472743879	-0.1822287428545141	-0.019288330355194016
arrang	-0.120782735426104	0.229884535098996	0.025241836046751186	-0.46625060809929425	0.023273618438519224	-0.14887546347154867	0.03641238167072596	-0.031490319703198176	-0.011798859377370127	0.06722566512994994	-0.050574420116261024	-0.06911489196778389	0.06519105435161122	0.09168259405819384	-0.17142216467725552	0.04716773337821986	-0.07145842622440657	0.1962186891400123	-0.05274718754640872	0.028805890448207624	0.1381696824066201	-0.23999794991688758	-0.109345140937147	-0.1610338568131588	0.22463082226653563	-0.08769079560791443	0.004965604056753905	-0.017025306105628957	0.04196484208368521	-0.17331661237744578	0.16102875079347098	-0.17978199804034065	-0.03499365725670333	-0.10874689120726379	0.007604609401878953	0.1110475392034927	-0.03131904799036228	0.11705930909938327	-0.06391604715170944	0.1740098824805938	0.021568869782538826	0.2328848041660219	-0.08076620441614146	-0.2352504261079767	-0.20262911837809888	-0.04199127551002819	-0.09885081870446107	-0.04121524683601196	-0.13026826671130756	0.24622370998661608
ase	0.09781145391398569	0.22386994088397283	-0.1749417443268053	0.046243356029281014	0.10586407439076029	0.21725971142435063	-0.02439631939890912	-0.06112993595843289	-0.14897107343896848	-0.24559101250106863	0.053075768562673924	0.14752811338543254	0.09892036192200353	-0.2462638190209644	-0.09239588469647286	-0.11971246999425433	-0.14423751755922787	0.060002194632450254	-0.12700923997954527	0.03168166590432878	-0.08329381130751408	-0.07375399381830315	-0.08282803037669417	0.05748018802355698	0.0909552957502732	0.01840633466376372	-0.12246797583012532	0.018084908416106465	0.06097518791225676	0.15483210876345793	0.018476843992232313	0.06647415582718183	-0.10709939576858993	0.004505617879946093	0.04719888982166851	-0.4013437034777403	0.02796669033924712	0.17972365520377906	-0.29595627304059097	0.02335955346054239	0.015500853668073846	-0.14823933273135353	0.20446824313277967	-0.16957757230487522	0.2067717247570603	-0.0913130120527764	-0.1390058981402934	-0.1500932510990164	0.13872525493755422	-0.1516324744800749
ask	-0.033303727161099035	0.09892388005100423	0.056374211594480646	0.2008437877024762	-0.2815926031790416	-0.04922361836903016	0.012711687117974572	-0.2942494744396878	-0.11247787870751053	-0.3122564226010049	-0.02521019265443349	-0.006798463677555787	-0.18232055894328358	-0.027092778239833068	0.14439320100588227	0.09265978291486675	-0.051482909063750276	0.21585338212684294	-0.07911165444765125	0.030321842131471866	-0.016350292138605914	-0.1446000656082674	0.14584172107694812	-0.010133683833279354	0.10958683630691013	-0.06556811095758618	-0.13848984778268	-0.2883229372135364	0.06195954069586965	-0.014156553204622406	0.18239576745554917	-0.08535155678038919	0.13489474149890004	0.12442316535326722	-0.003999687876121954	0.05534883394576901	-0.2735222553575052	-0.02542123187961181	-0.004958476416714827	0.12971952404424225	0.23916632118349374	0.08764942498437255	-0.027795274040054066	-0.07203879847554495	-0.11544242006834837	-0.26803883910151416	-0.15933448934276132	0.031275079594232175	0.0815159975938726	-0.150339858495145
aspect	-0.015815662297381298	-0.022159562623991005	-0.2156071553865258	0.004956671521801064	0.18812209778934416	-0.09848394958441503	-0.09186765138867584	-0.07082107382249245	0.28989289381081845	-0.0899311198373535	-0.05141463819841284	-0.21459850436362685	-0.0671681317694077	-0.16472831823984518	0.2251270464345105	0.10804020395099351	-0.08900866909560647	-0.1694371391702286	-0.05368814400283205	0.30699371899928435	0.0022915792760452155	-0.1104577035900023	-0.019152805058836146	-0.04803848825786371	0.06158698987771657	-0.15370038710023165	-0.01646213442683902	-0.1067099720280066	-0.078169566921215	0.06165595652117053	-0.05998965130939785	-0.06353331584174354	0.03788505645853339	-0.26124336176182017	-0.004516136722658849	-0.18423930891047863	0.1057706063253312	0.015663247593035695	-0.24292610358684333	-0.22690422044783218	-0.17094053881740895	-0.07126506944966068	-0.05862995033354553	-0.15040144638945818	-0.34306877428934013	0.07251475187505868	0.17041215821002695	-0.061296158703579566	0.014299775298299804	-0.11056758273951622
assembl	0.1338767389492985	-0.015439769432507373	-0.23771550967289434	-0.07238136613743436	0.09275280143186164	-0.00220076124707284	-0.11634233130405244	0.06675274735704072	0.051724930775715924	-0.07422175742560355	0.07207760357132235	0.1989473052861536	0.015508846907857192	0.12103584606501167	0.143451162120791	0.22688744369840477	-0.12702876244777658	0.0839016864425464	0.15398752644951624	0.09990760532410672	0.1565551203360667	-0.009413544670104967	-0.10492821178746137	-0.13709258566233645	0.004649030281135221	-0.2975439906690965	0.04470953453685694	0.22973996436444177	0.01570279775082653	0.06526492826069324	-0.12056114350976574	-0.3163224645566036	0.00025245273826430317	0.08731554615871405	-0.239409550011271	-0.2873354688809169	-0.005873918961365902	0.023467409053850592	0.29383143139994006	-0.024589234571065988	-0.028394230218456273	-0.08658373527180382	-0.013776997652109602	-0.07352440060446053	-0.09963971327550564	0.03071199107781402	0.10523778043286666	-0.26912311385186416	-0.05192068563170181	-0.18407046816354689
assign	-0.030102705339076073	0.17194551441369127	-0.08637470622230613	0.04211529649692363	-0.18393131752308833	-0.0885100838718699	-0.015241051000876117	0.18431780787157612	0.2537244393205486	0.0651274597565457	0.04325583470297731	-0.12493311689398612	0.23568043636930108	0.039205600847774316	0.020563261041112068	0.0585292581317752	-0.13030543012959506	-0.09623332216218827	-0.006874826256798224	-0.0010258416029409081	0.10487848142823702	0.10324859722696132	-0.15135602038296206	0.045611411212181	-0.0065328600891414535	-0.26222463409431734	0.057674287751688785	0.004656372565231164	0.303402309490152	-0.03199053764805334	-0.12877185733747654	-0.10248249011190061	0.14147185905032522	-0.025344757911750917	0.16698652512876366	-0.10497024905069784	-0.38279065595496586	0.042965987159859734	-0.19293712591735884	-0.14915602565527877	0.024164791558209858	0.05630356014861909	0.013861650173965987	0.2409356062966705	-0.15115230035078103	-0.11818260036152556	0.12879195701720444	0.19959624447362562	0.21391747058786068	0.06116555239268855
assist	0.02254952511611435	0.1388804672291624	0.03258780628966369	-0.05939849537331264	0.12230394691293402	0.10596261267983265	0.08522480170479314	-0.1414866654199888	-0.06170317047461486	-0.11701372018510614	-0.2259650101522215	-0.19420531486083573	0.16056777056783822	0.0898169222154958	-0.10983469859740151	0.03426824070828404	-0.2185832589208711	0.33768536098312524	0.028869309644177877	-0.16884597284931405	-0.10549196724339155	0.08934867363503869	0.24162333147392162	0.009988027438138957	-0.08335756559999948	0.08650732689138009	0.173475376990037	0.049116184155734426	0.3998180559620786	-0.1361326063644935	0.07186829642816368	0.0384594504345923	-0.29288855226784954	0.06057525166768703	-0.17671576652586915	-0.06168568109152773	-0.12043219805630724	-0.03693160999589196	-0.060028973206395574	-0.024203307415992442	-0.005872927503166976	-0.09581680288950986	-0.17565918811786516	0.11159421154920751	-0.08487619450595202	0.06220938713697024	-0.1270705788176829	-0.046521690904318555	-0.11293895490325771	0.16988083682592284
associ	-0.04514163764935456	0.14355905845826114	-0.0971940164665391	-0.13496027034856586	-0.2481069530347105	-0.14829061158436194	0.11158885890165833	-0.20159386826116726	-0.02794494179061883	-0.06535552875249565	-0.016228910079716868	0.09035071877583972	-0.17176252555460964	-0.04854424551751637	-0.11305361262751698	-0.16479150893673392	-0.16752755431826594	0.1932622404852925	-0.2606214631766483	0.3376606322712763	-0.18989413861999807	-1.0436335547221415e-05	0.18928353234147083	-0.2075094609485105	-0.05018807276594978	-0.06007798792317746	-0.10451925427651286	-0.12855505646622822	0.007568619461464666	0.06196010695069516	-0.26174872244887054	-0.08880475557495122	-0.03786470005346787	0.1094174731490445	0.19445306793544917	0.06278464067358759	0.1941750690503685	-0.15687225058322324	-0.08645213602181724	0.10542359457696118	-0.1136333928446855	0.0038490111398108307	-0.18937016872077095	0.002333406224729151	0.12958197478626676	0.07050643731399774	-0.12401503136607085	0.0010386403463501803	-0.1544611948167438	0.07579624211502808
assum	-0.07803858536992192	0.1264487063250802	0.1691305347736716	-0.22776736563102543	0.08929145517938544	-0.05756004766616512	-0.14180771250823554	0.00016867146965661008	0.13276833700893464	0.11010306277911665	-0.025344526821764066	0.2004588710086749	0.17738339475634657	0.06686757396722764	0.16196888708657925	-0.054171112826862794	-0.10321158629142022	-0.0640970983579267	-0.23147649892737726	-0.029107837240745366	-0.202519817698858	0.04149399757153648	-0.1164685390029464	0.01102016624732582	-0.006051697066801187	0.06003299338617365	-0.3040740964528907	-0.12085221170734489	0.04256321953926484	0.411630422583557	-0.022560869517321384	0.09097769725306215	-0.060446134864139904	0.054324735138664974	-0.33966914123348285	0.18189654327439445	-0.11904070413396439	-0.06429555492775975	-0.1333989179332537	0.08222633514697243	-0.012307490978127871	-0.04270133795351745	-0.2035548576166266	-0.16122816008507612	-0.08112965803133805	-0.1199620556194748	0.08302468715895041	-0.10002162750346136	-0.0022220782244181405	0.0937996063257241
assumpt	0.1822607495217466	0.0393038967028979	0.09043078217914918	-0.13528493203538863	-0.057142707935017384	-0.09406793756835628	-0.004782911051167031	0.05219685487018044	0.08849323199078031	0.03285952800296559	0.08080439971915723	0.09462018793513473	-0.2153949473575634	0.07764868099008097	0.11504194984056348	-0.08388433816585024	0.035036933970307264	-0.005236196964661888	0.12061387068007566	-0.1636822562795541	0.013823325051367175	-0.11654720553160273	0.010810193448844341	0.047072177921731885	0.15116438745662863	0.3844416729502688	0.26676228175148675	-0.007339105253853522	0.1560846269194917	0.06518195634779282	-0.0319581896686577	0.08607244272425864	0.16147920152584594	0.1874290038859678	-0.14149394077949587	-0.17134465697142345	0.03400283421948035	-0.08075177585636242	-0.14208406046942573	-0.17776873629212483	-0.08175179703775082	0.09045360795079281	0.028171784376517413	-0.24213938666978455	-0.13435073541499795	0.27690643089612177	0.22248038780303167	0.19182169568702892	0.24148844286793894	0.07431771829239654
assur	0.003616587572801996	-0.2380371197120555	0.03751518100108999	0.18278501610595552	0.12032126753140202	0.20874013585380338	0.1091078205797377	-0.022138965407248506	-0.08035704433016864	0.29190174161033516	-0.0688292974412756	0.07070088603906705	0.017325426871415518	0.08527213042364552	-0.11778359149291175	-0.32449905590623956	0.054603375116130684	0.06252685484564251	-0.1732899985634819	0.0680800246322475	-0.08848275732547164	-0.1814037222563327	-0.05829463693764524	0.15341686099305538	-0.07825488990332954	0.13800503455831206	-0.004643940873057088	0.07753973414303154	-0.2346610556197625	0.3108329666065114	0.12741573326635522	-0.19684126668051655	0.06021066334867855	-0.07692241476457223	-0.015422214483002	0.05565677334897134	-0.0776966741931542	-0.021257898427455665	0.07143400692198648	0.009280162604536258	0.1338642553831981	-0.1161207590163173	-0.11050809796008124	-0.038721224839676736	0.3050697290328436	0.050505091271299804	-0.2463267627596545	0.10041638543660422	0.001730185968503808	-0.1636233009095942
attack	-0.2194926464510343	-0.11644669112656368	0.07039991913218226	-0.04290634408885213	0.04092998083269933	-0.20322656364899	0.1477484668542283	0.05664154869166459	0.09388647660787794	-0.0008678817117060592	-0.1361300007647344	-0.06862744859302185	-0.059741835935660466	-0.041781867331287074	0.13525797660025016	-0.10886928228301551	0.32320002628137573	0.0542866205408751	-0.08591140492997565	-0.06359112395744894	-0.060649059648237205	0.23265715297260475	0.02159470103087597	0.18771034727410962	0.14098138622367026	-0.05328838345247398	-0.17073935140250232	0.11914722963722767	-0.1252361652746751	0.01877947769682237	-0.1998408616443194	0.0024388350005542735	0.1031467462504555	-0.06980608740079602	-0.006098652755603414	0.20263284404333995	-0.071891157357942	0.08063906215127485	-0.03521694984137937	0.09763533784922175	-0.09051130324422064	0.19028779216905461	0.2931977252909006	-0.017924564970392538	-0.1307264938600606	-0.45987339185239773	0.11052084910637323	-0.10095537819766301	0.002507756884035578	0.02871300869260367
