abid	-0.08459150828044401	-0.2646777385050313	0.0351500447603007	0.1283994313602399	0.13143100068054886	-0.043209103827387386	-0.02390040352614414	-0.03574133858923166	0.07873720592541865	0.08731578054748695	0.043635801827164734	0.0033279343644010734	0.03979837762699462	0.07083787191208982	0.024887655723386432	0.100290118047131	-0.09023913662299556	0.08310965784604503	-0.03713327421879915	-0.17179671869225346	-0.004716455689818147	0.08057360694978259	-0.14897212795397255	-0.033471676980494795	-0.2036009481163535	-0.038732441475065126	0.00043829943017019955	-0.1136969149432821	-0.10252988312987452	-0.03490046935306126	0.05062797435987622	0.0635382511130675	0.10092196823073118	0.005112693157408801	-0.11835468329767918	-0.07514809499629181	0.02737014136265934	0.11423124702897125	-0.011695696210106845	-0.028626973406813968	0.09006313179420777	0.02686034340895626	-0.0064556005717725405	-0.05533801329544346	-0.06301422179449039	0.1966634803743561	-0.03998461260185753	-0.06787248687423261	-0.044801972608271255	0.026478643561663098	0.08071261924778139	0.13646492839667945	0.006213555505498391	-0.068109002016118	0.08337130736397329	-0.16801126704352853	0.10564688957979021	0.14229118859714546	-0.09067186668235237	0.025168422151076987	-0.19214677467146865	-0.03125208184850651	-0.20181681058467554	-0.12683125498122405	0.07323403231986887	-0.2651620490302779	0.08616913898054705	0.10520444788649062	-0.05338843036287436	0.16503011512133833	-0.025010467888593912	-0.06519163453368396	0.04955381729827523	0.14839479624712493	0.06549023587505923	-0.024045324755940657	0.09955442210531627	0.1600264657681828	0.024012640794183776	0.03670359021536897	-0.12246634212219676	-0.15212967731619448	-0.00420986223099742	0.011746918628166222	0.00754631553454958	-0.022880301520846903	-0.02374107316710258	-0.010011754041258016	0.054823199538888166	0.13644489218202396	-0.048351921554700535	0.014713104152992896	-0.0007331190690916257	-0.21846469514558756	-0.12225578014267935	0.09439810174756265	-0.08501536926390303	0.18024837153227707	-0.1291338394423409	-0.07334040793862087
abil	-0.041421409559620176	-0.05640851053388934	0.026198508381074005	0.01602035243087956	0.2102921983497142	0.006748188157939628	-0.03863620870139103	0.07708842521366933	0.11766463879381436	-0.013849588267740518	-0.09163209503541464	0.123927737605332	0.03177246560606663	0.02005667890927456	-0.13309272500565628	0.11189890080839303	0.09162125632337688	0.016565044944800083	0.04101424878494504	-0.06371848142261247	-0.04129568229989503	0.20461384146982653	0.012440821757196362	-0.1024341891203313	-0.00928579144347408	-0.07671365836548322	0.018451092371003473	-0.1217593330991084	-0.03754043575537634	-0.16618205017615068	-0.0821288093228861	-0.09029971695890891	0.05491271422612771	0.05102685399215479	0.08181452496771592	-0.08819823581159446	-0.09412119378139736	-0.016077926844753815	0.07272350415159566	0.1835812895810313	0.010469376929235667	-0.019340396728645303	0.06678196989903083	-0.09294360740632973	-0.1379299329653818	0.13887640605537618	-0.13504204219059698	-0.11360935159440745	-0.07424843370502926	-0.00942942225049857	0.2105398487828453	-0.12591639483577013	-0.09729076697878222	-0.19428613785475993	-0.08667489814367192	-0.12880417245594775	-0.019909420761391166	-0.020558773700572776	-0.10361119179412678	-0.0197277994615694	0.07640861139182101	-0.054319649936780436	0.11691136918469684	0.12916710430154887	-0.14453732459938487	0.034406671909318495	0.09952886063220712	-0.04368041973298177	0.16351977576024476	0.15331501048447677	0.1557637624400662	0.08972097100323478	0.08373336078447527	0.012962219289619086	-0.04097274087974605	0.11261086738400655	0.05721367075426735	0.18913185524141052	-0.03888678901199028	0.17891380314027464	0.0023410304329641697	0.13443924039692975	0.07009032565598217	0.044217051432418206	-0.01884373982894431	0.03850987783236566	-0.26215805054877406	-0.05350925794445086	-0.048041021158756164	-0.14349663563315207	-0.14436673240229153	0.027331340775019954	0.005833083553084356	0.004561250030317296	-0.051188666170773174	-0.10862155986976915	-0.0029293744700343806	-0.0020116803407447055	0.17760566938777592	0.021435162352390753
abl	-0.08849884950223809	-0.15991507090498966	-0.004057898226202375	0.13766668939146384	0.03395345299628793	-0.09177513549747433	-0.08204753439475322	-0.13674002991509143	0.0572115081845308	-0.04899839052838098	0.05681612319106957	-0.12527473848523216	-0.05261486596677848	0.12995579741940808	-0.03284136815289894	-0.03183023480384402	0.030981960185534962	0.06738487705529551	-0.12571645294499884	0.20454593057371215	-0.05629564161913278	0.13883989119527984	-0.010245012194109802	-0.024173369284726676	-0.1304185213181016	0.058929775586677294	0.05746350763675789	0.06341705268359238	-0.09479489570493252	-0.1313905440131026	0.1599344663151821	-0.04852140639769068	-0.03372522315575859	0.1287702618216836	0.0502530133153392	-0.20996792507066345	-0.11760721464806188	-0.05762375108322244	-0.10931018209655351	-0.05112666348586233	-0.05551577964140359	-0.10015583276425355	0.007280743337162549	0.05430472649762786	0.03912218404600401	0.0017145247547834198	-0.011321872366176789	0.018829854790364742	0.07030879831695992	-0.13023531378347747	-0.10833104429429238	-0.17755996886579034	0.019621071432662823	-0.028632145497215853	0.08433336551048597	0.06048602424275612	-0.07491512999342032	-0.17591072946065922	-0.11218835535245972	0.11388945510165467	-0.025120011053923287	0.03378147659712911	0.09240075502783225	-0.060713942873920575	0.05307143437456285	0.12191827538992198	0.03740830196605822	-0.07746497222677395	-0.11047338204256825	0.09578158303307878	0.07769785673450386	-0.1565994216713121	0.16319072821447142	-0.07803735417977657	0.06816680653312633	0.12545894220865628	-0.07541680075382554	0.29339972395658587	-0.10506160667569796	-0.030732076259229763	-0.05786098712952805	0.0073038109071800715	-0.006461356965626872	-0.10034339158868888	0.24589804401507281	0.04419241376417195	0.13660440123999265	-0.06311788887436987	-0.05208981209943221	0.06131756715292225	0.04034457977548791	-0.09108971318924278	-0.11449456796407376	0.137039942136221	0.1417135611289124	-0.03847647348429046	0.038788603128394716	0.008411143042691145	-0.15893428401573736	-0.03790790062468266
abnorm	0.10745854612947735	0.017424580892887304	0.23527840356949914	-0.10833523081003849	-0.001746352315859499	0.05357639004127547	-0.029217967897258404	0.05295152265842218	-0.08208571585882518	-0.04009509027295599	0.1491370826562223	0.12662406919316516	0.013126359334061378	0.11607219251339584	-0.008651845947782948	-0.016361997103846688	-0.08030470348486428	-0.03908688181413933	-0.18440997411828564	0.18392754588817384	0.024509743243675233	0.05955195888225188	-0.12712273376387814	0.19704238779530886	-0.07614999404675932	-0.015117639538884915	-0.007337356022804532	-0.009956509519951815	-0.06565952978881842	-0.13426886889782685	-0.09470661043557396	-0.01784729843297143	-0.05916314259746355	-0.08132167461934509	0.25083702429494076	0.035409648962005706	-0.0944940354411538	0.1456123449293938	0.013304304324390465	0.010490099248857835	-0.07293865820456477	0.05023079873350189	-0.07141833936120538	-0.049876479173999747	-0.07308133178591592	-0.013441460101668502	0.13717458532552057	0.016779346852933145	-0.02775224802102362	-0.0734731250969177	0.19999247682606883	0.06597707307726138	-0.02900953994438555	0.08094985074114502	0.15405615495775082	0.005503899106647326	-0.16043967081886665	-0.05638475525575156	0.03732013081311454	-0.09261013202085294	0.025602861532076557	-0.0488053153942477	-0.07159463306544099	0.10150997067103316	0.04587953986374618	0.08522643294575913	0.26702273311270713	0.16284567225272384	-0.02289794419495373	0.09404620437496966	-0.08460451783008868	0.00278984431195068	0.07716858779892108	0.010097237574391255	0.15930427983814624	0.21839267895915615	0.05645812436336153	-0.0229868638036202	-0.05549662556799557	-0.044561230729545515	-0.17533326725399753	0.16336652102430577	-0.1066111033776965	-0.11476437714791697	0.14660823504770537	0.07147052319825026	-0.010880926179098187	0.02921938159892624	-0.09698416337251826	0.01994233465316814	-0.11394979982125868	0.009626961726056498	0.07704345003618658	0.053880577111040724	0.10477870729824645	-0.14370195487668663	-0.03419001907708662	0.01631610909653915	-0.0671001066236303	0.08312881474515676
abstract	-0.0468174913874403	-0.007604108085673539	0.032076041612163285	0.05804463835013034	-0.08542237102380347	0.007130700844872065	0.032969532132327624	-0.07999636787544367	0.07749584543544577	0.15421664356516365	0.04088156934382246	0.07856130286678845	0.13626927889469181	0.06614244029538417	-0.17058234267477934	-0.0017231516071381542	0.06862104944793677	0.09927604595388094	0.08653200680842683	-0.22310646287600688	0.06952270240229039	-0.08173505640968289	0.2364941514454609	0.044656953777817886	0.10256021470591405	0.11513595438507036	0.09635811389788072	-0.09356225581180039	0.05361736855267135	0.14944479973324884	0.015532004653157861	0.21899595233362118	-0.07497295482393972	0.18727859482327572	0.029278773411646804	-0.037162202793703775	-0.03882027617073246	-0.032459778281795686	0.03518014838252249	-0.022230760073570114	-0.22577673032371506	-0.10264134796312431	0.12524838051499435	-0.018905530165504322	-0.11902629910714671	0.004434532730138443	0.11765891027827373	0.12600586449830475	0.006305010068483473	-0.0388811620528511	-0.1505984485892531	0.23619567162034089	0.04826233525284195	0.001924827889638828	-0.033717354123176474	-0.07272634818130828	0.02149158565581052	0.09329951707196174	0.15230384832383592	-0.09545774703046452	0.15945991198851725	-0.02290651717131305	0.021385575584569414	-0.0003727076892526442	0.06233754315210799	-0.06052557324048005	-0.13166315216032423	-0.015721493250542798	0.039910940272338574	-0.169130813803537	0.07803108577696016	0.053614102209813205	-0.08852889850776209	0.03798875986943834	0.19961127303226536	0.11228819757041514	0.17983542238102793	0.09898827463610714	-0.0905028851083429	-0.006154526247092459	0.047544884744518526	0.08204398221833091	0.0213785493977723	0.091635007559527	-0.11137561869921046	0.08790825062873599	0.006941989675658458	0.07611818900939027	0.12197334787907856	-0.014808369294190679	0.06076606707961992	-0.11025622047170136	0.026042052561378492	0.01836151621457543	-0.03197039776728167	0.020493117626455892	0.11628946222718813	0.009493357215742659	0.18867610739107155	-0.06457161696443696
accept	-0.07135135878026612	0.07081102094515623	0.09188869064153181	-0.00452641604787144	0.034566470386285776	0.09962834442288004	-0.07322703681243979	-0.018852190906448126	0.0018433171354198452	-0.23262081818930702	0.10243549809081373	0.007320319734212207	0.061303107044581674	0.03382120460977552	0.09678840714315641	0.004217421887839885	-0.031683521656724126	-0.17664067430385252	0.014981770244291868	-0.07387972301937139	0.11374667115438351	0.01695177138758262	-0.016097581124006156	0.007641258055351415	-0.006312463332133938	-0.062283754278854526	-0.1557506297469542	-0.1495070303052979	0.022775275271610915	-0.01029951336650692	0.12001673969031317	0.0168153154747022	0.009765611429959605	0.09291125475448314	-0.15060945592879765	-0.016772375042373347	-0.17267630951386975	0.05798308439905909	-0.16231322655693634	0.04590161453956756	0.017992847643829687	-0.09227207726488466	-0.05017187476171766	0.08562834124598381	-0.03522475542299421	-0.009327143000750458	-0.0991087611622462	-0.04424828577483373	-0.0007016250001256005	0.1176394745867407	-0.008397551380401628	-0.08590526140015738	-0.14334683847230892	0.07093529552303242	0.16339526912530714	-0.1077581462558801	-0.14915373030138426	0.08422404732900277	0.17154011209631126	-0.00951465221294033	0.0030989364838680173	0.1927430269585127	-0.08447531114023916	-0.05786431075452525	-0.08033018374536577	-0.1121744112881009	0.05847382075266515	-0.023577264921292886	-0.0498505281630822	0.12776160725625907	-0.19885738759529678	-0.033124105414959706	-0.14771160485869028	0.022888990000297777	0.21933861235451918	0.051115175892812795	-0.10135774917908648	0.038639020028714346	-0.18335834143224927	-0.1260290701668303	0.05103342396158619	0.08561791660762123	-0.0036330872004531533	-0.15423692673239436	-0.08739542655787784	-0.07859905315192241	0.04705590158030803	0.054610356607274674	0.06960889643327789	0.025723957026451	-0.12294524883082508	-0.08488278475841554	0.013004776779362666	0.0012458617781512316	-0.0595604332902537	-0.14630536792029072	-0.13603704092574267	-0.2445959326150376	-0.04968580865199848	-0.21970716957292977
access	-0.08348537725430889	0.10730353579016771	-0.0210797648446172	-0.12337582897817316	0.1716677941635824	-0.12023371737809412	-0.032513233189615784	-0.062327757549921044	0.10232569190152986	0.09149916303276366	-0.038414159577683064	-0.2364568655507298	0.049996227061819096	-0.025855466786457837	-0.2196732526723295	-0.04093062783353861	-0.016737529845491036	-0.019264225833660685	0.07917463301306628	0.01936869627635845	0.15687258303413903	0.0498485545872245	0.006602488834632892	-0.06985830701450192	-0.0830764440281704	-0.03970610663825429	-0.004201464623462543	0.07450412412388202	0.22790155751188143	-0.13593248063374208	0.13355552872120566	-0.08799900850416881	0.08072831985210914	-0.11841792536894705	0.0635901292215314	0.010330251186217174	-0.040483279734091895	-0.10497340216652795	-0.06373125979027712	0.0673188537195365	-0.020510040369828057	-0.12065285520748772	-0.1328261130100026	0.1267213384266538	0.18195467715589927	-0.1827617034018505	0.033104529289156116	0.05453961357798055	0.05815098050585696	-0.02991698138504253	0.046891518899375866	-0.15860152194786423	-0.13179085074871474	0.01837384529224155	0.005072585982324281	-0.008644245056896817	0.10202214366573609	0.008870730241623428	-0.1458239763609964	0.03979676573269676	0.004004469714736402	-0.020519046765213714	0.0529556601657252	-0.06207717671394091	-0.046896422805240784	0.14768912436022244	0.08595342817631221	-0.016828985052892674	0.027497518550041528	0.016319878221217683	0.26494852387262324	-0.0011755423678358574	-0.020916767069525534	-0.05325110760037778	0.010815881018306415	0.06853509184058183	-0.17106421590489487	0.12948910785306095	0.13396854497444935	0.1507930358216581	0.022443319510347955	0.021580103291906585	-0.00904648404480402	-0.014710836425161834	-0.13709215871665634	-0.18621699280461212	-0.10927264520361903	0.1100063794331936	-0.1927108618559652	-0.13412257482941542	0.04051414589398357	0.08449376492362885	0.09906178942632062	-0.019721897935738746	0.015576335539789633	0.05875773634130348	0.034929314764116814	0.06170094073497307	-0.14150272918168627	0.06232580705717058
accommod	-0.011368325159007677	0.13481508372077067	-0.10387715325521091	0.06207614800290013	-0.03716126215850544	0.08810348188396636	-0.10092764526868254	0.17155264923107727	-0.07304920937440496	0.03403378694279158	-0.12899545705058466	0.0017045825104762477	0.034432876600099006	-0.005111087207471402	0.027746749561948777	0.02619451148974622	-0.03893516093389561	-0.038907207473953376	-0.1560896375171824	0.025232755541745863	-0.031040240068217217	0.08897866937955631	-0.014393934189863419	0.06321059526346276	0.10647881325815592	0.19776954608642008	-0.3396450612986133	-0.12754074648373884	0.032946911238918894	0.00778062198581159	-0.0016755483718029355	0.03505854391250919	0.03926945289787914	-0.1239401644705513	-0.03428576416851619	0.11997966315679644	-0.048012980918615666	-0.10894262694174586	0.20514605876503436	-0.016165082902582593	-0.021465865064222614	-0.056310499259324166	-0.005325363305332482	-0.19930192104569372	0.019847430057253403	0.006561812439293868	0.08168145703297379	-0.14309323275388408	-0.0008902500986212186	-0.12060948586320294	0.0899705795779733	-0.055451545612834455	0.03968228376100618	0.09002700194979125	0.04963250251067241	0.009175210543730947	0.15448476631398983	-0.10130918509044003	-0.11852165792237956	-0.1690881463989819	0.046636471013941014	0.0992786890889198	0.022523294041287552	-0.05675470618164741	-0.08639654100275106	0.039006363880036816	0.023578078060306002	-0.08324537269179025	-0.14860946567500746	0.005065492833859461	0.005205079890734258	0.07950778865268145	-0.15800416928906935	0.103597222560793	0.03761688973486003	0.0021505180039032195	-0.06941964524230344	-0.004987023212365735	-0.07021899933504813	0.11811767133795704	0.04974167412774555	-0.0218336697407138	-0.07115776981248016	-0.03532997740468438	-0.09607279077105772	0.128910088580404	-0.26803456399795633	-0.059955989865231	-0.2035303901169643	0.1897900954204806	-0.03983739458302112	0.06375662307733879	-0.10384140079028618	0.016767149972399368	-0.04384287484024099	-0.15205909239145765	0.09285582736663367	-0.016306147683778173	0.13739702537429177	0.11487058292240875
accompani	-0.095965569042753	0.061785649436529096	0.11996265633650106	0.13045263208438337	-0.046297166070158095	-0.09909470864084567	-0.0058769247227578635	-0.006650694363343781	0.1698273156844526	-0.049429544851460776	-0.1454573470138112	0.06216921018906524	0.21504153885885788	0.031164286300688702	0.03116534998499682	-0.03045136649062356	-0.08348063617584732	0.04646613844853033	-0.026103983557484275	-0.0900262151322684	0.029300100986059358	0.03354454398509662	0.06942437856697496	0.15628081457454276	0.015766548172386888	0.0916257542508525	-0.01197285926410649	-0.009462946881977337	0.0013017750069399497	0.09147073496375377	-0.00276935228452123	-0.041941707171021574	0.0395655501606327	-0.029100147852768	0.03498228444655159	0.047344955236576745	0.029140433506770726	-0.0024491414414551187	-0.03374989755434699	-0.06660557724670911	0.23441695692294717	0.09192977507970392	0.13745721803117095	0.1059310710604416	0.049762416151097645	0.08416407084238695	-0.06003881681171762	0.07808548428850191	0.08545715743328416	0.04818153485073711	-0.2682038407686202	0.07698045846089482	-0.08459309764380775	0.21382266380990053	0.12433867008498088	-0.026823690406972227	0.20103529174370793	-0.09261513280355738	0.13821215681626803	-0.13915172615767873	-0.0153985911624548	0.01303561031825534	0.08727796227939534	-0.05528724118064876	-0.09116599941842185	0.10113310371597217	0.041696739482725696	-0.04483097936417639	-0.06815506850635081	-0.1319158223570064	-0.11963630413139303	0.13534006943082955	0.06063284837186342	0.09059792539608008	-0.022510210950821435	-0.03788177256723058	-0.13306289362607598	-0.11083172704130298	0.0031157193524468693	-0.11611380132171471	0.07982863903533574	0.06803872422500272	0.038265059259015605	-0.009240921016928406	-0.13295431172476932	0.028436162500503074	-0.0873982875997612	-0.10079446192431883	0.059725963658095835	-0.29795556454133015	0.02956319662820332	-0.051491405538503836	-0.05204055004233016	0.06138501057386019	0.20586044128613032	0.040522890072426744	0.014181482844831516	0.17600750162101778	-0.024231655130502905	-0.1689393484339498
accomplish	0.0752137133564077	0.048724742145729125	0.03383610031618912	0.11215375851484825	0.02853218987853987	0.16803818243384058	-0.03076078916642043	0.11312102549062342	0.0004167677796117576	0.12265903489035875	0.007258920127654569	0.048538335526180004	0.06853267496595679	-0.27492168192779703	0.044395580808717576	-0.07312528161749944	0.08968862415204726	-0.08193393219106897	0.12699846500681536	-0.1386386359352468	0.0207021174087321	-0.10306316206762124	-0.12166660034610342	0.12270102231256491	0.11228679433301525	-0.02348682248190805	0.08026528494595611	0.10883207831248226	0.012699344826821175	-0.1345933609852135	-0.06557213796042305	0.12652914926569925	-0.02333199011221482	0.1020565039943772	0.07029024453042614	-0.12105612111120671	0.09065627075314608	0.02648583856624095	-0.09247931673942648	0.07797390524028622	0.008884018110678252	-0.0495289721114765	-0.0401418223295872	-0.1278591343119221	0.1565442713912488	0.024919853254390032	-0.024547809650506854	-0.020587161325844632	0.022002472463247838	-0.04386880059073019	0.07200763702038625	-0.047282292120031856	0.005631246799532194	0.07052510365258277	-0.26657762946797486	-0.1522127243337856	-0.08566040697898196	0.1473784313183637	0.01960672025613848	0.03322431395987695	-0.1512092734060778	0.13045982645055054	-0.02783499976505922	0.00177877678506782	-0.156737004350647	-0.15866050308916044	-0.12608398594879555	-0.11562480663492991	-0.20660898192417768	0.14322295632466855	-0.03332382227134489	-0.06655772211938096	0.13798177740633663	-0.017506535119364362	-0.06924420698971341	-0.012680102183507156	-0.07735740655009894	-0.09135367760406994	-0.04939407371641292	-0.004775244124803009	-0.0688607366743275	-0.07565179173836481	-0.08527915025755602	-0.1161417011161189	0.07911293842170161	0.09098922688511146	0.03922342217224064	0.03762813848754384	0.07946073653774066	0.03536496254115298	-0.04444781565458963	0.019718422233734403	-0.058829896137956014	-0.16387777392447267	-0.15708658155625313	0.14021484739343126	0.10472234713062564	-0.03297618373474075	0.22860923823697052	0.04321525321139779
accord	0.034104199117807134	0.057917720293243935	-0.14048339048479244	0.08952218694584295	0.037732614059028655	0.041858661030384534	0.17777540120475077	0.002799026556445507	-0.09187014368509015	-0.05350947373124721	0.03961836928638634	0.16750952817050152	0.15162751458421034	0.039689940497932244	-0.0614978489969867	0.11914170160048859	-0.013791680935530862	0.013566936513251962	-0.04252607574923981	-0.05102655190556874	-0.009796793581887783	-0.029522039344254923	-0.010549547850271686	0.1552708052984511	0.015906667931320038	-0.019005972300358883	0.10771938579620526	0.06003602178396961	-0.004585434415893808	-0.12559162707247634	0.019624853801371755	-0.0011168316410470895	0.11000703325535995	0.01662614925488898	-0.0610800533926962	0.10520825102959262	0.14040862989464875	-0.011721601549019158	0.23878890791051108	-0.03501632936485267	0.060526161905106304	0.023512916499599818	0.09825595255041202	-0.08520297573193658	0.005813707614699759	-0.0574096908256277	-0.10444112664547782	-0.1343394878663656	0.008499600898631873	-0.15032724805656306	0.21314072692131558	0.024763335879951016	-0.09630845556806591	0.058834894483520014	0.024668572254132416	-0.027149669289426547	-0.10264678466399375	0.13690372009996252	-0.0686961690929809	0.029212275677229324	-0.028522873480348144	-0.03247701839700792	0.17809323469930383	0.054222219697030914	0.13004748985593587	0.10544491374495851	0.03218991458721409	-0.0986884840383332	0.1470384696887469	0.22614038990009888	0.02499240637938914	0.15673303506319433	-0.004109959383088753	-0.07709980775618841	0.21289449324080795	-0.07779427535468764	-0.15796768989882967	0.07127682909496728	0.0024393023280146688	-0.08274365903504342	0.13430419421780157	-0.0512129151214326	0.1148077168184737	0.10903578036986973	0.16130576770594515	-0.085719332288272	0.13577588222197898	-0.16404366652331553	-0.0707889437418783	-0.08871593266054816	-0.03432069479188397	0.07473408742526966	-0.00980444764741232	-0.07251625602236424	-0.08181643089582999	0.031288298340829995	0.028601833708864897	-0.08325227029182443	0.08046181715176794	0.26890750102154604
accordingli	0.052560998823023765	0.09749354543621878	0.17027623310886858	0.04847067775740749	0.09135899087812943	0.021997107312827346	0.014533943911757745	-0.028088646058666372	0.10333199698661392	0.05301189724480873	0.04835450733968765	0.06115913601930941	0.05142743613112969	0.0949535419751861	0.10398131233832156	-0.16586216541371135	-0.13742048970642928	-0.15776054928277997	0.1769179341560366	0.1200640996470606	0.17691834645924964	0.0888089186021313	0.01249833067248223	-0.02622996376992582	-0.001688781511344969	0.11460461585014292	-0.12291484437990474	0.1634901101802614	-0.009686872042098652	0.05514851579832681	-0.013494066476828834	-0.17560259413081494	0.16455971251481408	0.02704196470837127	0.01612090942029392	-0.07931757322026767	0.13619268739040874	0.020893692195258693	0.06432576917356872	-0.03522838164470367	0.06603451433713084	-0.07326282380333544	-0.034577372276533756	0.035088692085648125	0.06700873161878777	-0.16510176140489177	-0.057426443526225175	0.047905058905974386	0.08754849793934907	-0.10384094770256803	0.0923097311151825	-0.14147918585098912	-0.01413433844277742	0.11999745121910624	-0.17611835329936207	0.05511557511174227	0.0662622877820528	0.011242034220266383	-0.029795900776524532	0.04694052681728483	0.0054784344296941526	-0.09003981881117108	0.04681042262697029	-0.017789745180636203	-0.05026627554010052	-0.11517261255932246	-0.041817613645038824	-0.11206801990644244	-0.031129525256928362	-0.054033897712115746	0.0026294217534506502	-0.02556272141376295	-0.006717828716265158	0.04852870110551992	-0.19436310745011226	0.16153366198608318	0.2116734744887931	0.0900345262778974	0.0059118422485577105	0.06677476677073577	-0.15387327467422343	-0.1250585085298014	0.23187890483321685	0.06679128205897514	0.19200748224559755	-0.04184053009146433	-0.04075647745106605	0.10428064248726605	0.09247293831305685	-0.011178483418931752	-0.1282986056985917	0.012250960711757472	0.004815318242459624	-0.1991518564079681	-0.12392583779043609	-0.08583816555518844	0.1081461589472734	-0.08082309772863198	-0.053024608999380135	-0.14313067901899507
account	-0.0632478765918593	0.04473892948689457	0.16927207869319236	0.019456754020478296	-0.031105738350137024	-0.12719705306859996	0.013776344531925772	0.010141583110999913	-0.16051696943846835	-0.033893950506126154	-0.13083459418618953	-0.08367389795917866	0.028760706232125913	0.011034450978137142	0.16391864021238448	0.15130686415053776	0.11691696290565042	-0.037037946889348174	-0.2055182325448204	-0.1545129438384228	0.14081957301354028	0.0142669934577849	-0.006340524297731694	0.05261796293304722	-0.03468070478762189	0.11998840232174794	0.03774170226341299	-0.050521319210305116	-0.09299124203184529	-0.03362253620790452	-0.08462010031878395	-0.2700406042081608	-0.04416704637794724	0.05165084024606137	-0.18472238048688197	0.07644906696183248	0.07816844148011046	-0.03295628086833895	-0.02344893413672969	0.0032756037742784653	-0.03304999449668931	0.061022117836638065	-0.06895058883604965	0.08007307169831085	0.09841512954910914	0.09049698951215963	-0.09798313323116731	0.05194970200978974	-0.020434686680281956	0.08074003191439912	-0.09633668088510876	-0.07181235864583331	-0.08698608070515579	0.11422791724981661	0.06791589253995835	0.045346334483573815	0.09174579458754525	0.11645959185321128	-0.13368944683009104	0.054585461847906955	-0.18640165848357768	-0.02761124190718005	0.037011670349756	0.10865890541865707	-0.11299687567663423	-0.0157071855843905	0.00013576149162788245	0.17491139341494505	-0.1367356769521796	-0.049682014433493585	-0.07254548580053576	0.00393615014554825	0.08021952215455615	-0.06084878930766872	0.0058504373041505416	-0.011182026084083993	0.13833388717526465	0.02061108835793614	-0.11899695168257117	-0.0578561974883056	0.004489133329620651	-0.10874841663386597	-0.06897053969407382	0.1361279595551218	-0.07650628999406009	-0.041712658066406165	-0.1176485921250459	-0.24622478665582162	-0.028161872022135374	0.19338306777355416	0.03194727598831835	0.2722705601365587	0.03136853442801372	-0.1475004336888069	-0.058417119353500975	0.004634837128000029	-0.022054507620996325	0.1288265594797112	-0.04843684193256233	-0.010790235584122858
accumul	0.12603039343925773	-0.03571437738260898	-0.13280801899154523	-0.03192741966638594	-0.0272876020812977	0.12378472367824023	0.2372633847667966	-0.050970575498070346	0.12031838301504949	-0.14074693837891283	-0.007028850180137251	-0.100257156097123	0.02561543772917782	0.01713626617902552	0.06343821761503628	-0.10504778823376207	0.03262203317003719	-0.04137873886198962	-0.08969422390806192	-0.10095356726927306	0.07402771290203282	0.12667659788892358	-0.12815176292479968	0.04039740861041298	-0.012633933212389408	0.00550765034482408	0.07282085171685074	-0.05485058782600743	0.0013950102269289337	-0.03297963993876415	-0.032946328000307605	-0.06693253280248042	0.03494919745879398	-0.09916378467599664	0.03453094338422089	0.11607974328118748	-0.03948882384544463	-0.14029128834608284	0.10257680156886044	0.27400532764759805	-0.19376852296235705	0.04666156080771352	0.07282536351170936	0.016716008707750862	-0.08016550562896395	0.009274173712870527	-0.09408857636000291	0.10800859872365205	0.08781270762652756	0.037624478078963554	-0.12996985182035042	-0.02793570186269549	0.12576907461064515	-0.03639516972948032	0.07130598251469833	-0.08202259116281936	0.049562212950926623	0.137149422172511	-0.1750458142098642	-0.010435842606195931	-0.04757150716212984	-0.13258520535295812	0.01295230580791391	-0.012605045335780848	0.10658546643912296	-0.06931797748876758	0.08412574904197402	0.05223660175234924	-0.021845156962434532	-0.03271598364125238	0.20128937920017678	0.20128843446151953	0.04137369826745023	0.062234815125409036	0.10129359691582462	0.08534800448840583	-0.04989347418747721	-0.0012586456074005028	0.11117816097632639	-0.2052350458891213	0.02720573951881519	0.0036223357280412414	-0.007079477505477559	-0.08627272000769841	0.21227531052159923	0.05689993995320085	0.09657159642483384	-0.15239675727705418	0.12233474298228368	0.006873780437759052	-0.08214108772900544	0.04164739678376209	-0.1458660289584652	0.10942650366318102	-0.18232516951452205	-0.13472647124733306	-0.02181658190770628	-0.009198852131325864	-0.14319560951242039	0.11523888153017826
accur	0.08796867951752972	0.09114908427976738	-0.16173366054464444	-0.021146839824620168	-0.08757585331576608	-0.1887755673243766	-0.016104743111003753	-0.08682334577936579	-0.1293943957836466	-0.05149475571931041	-0.03746703147472283	0.09470940134474004	-0.06998780209804431	-0.05958883249117849	-0.02228989004793828	0.037156743115923194	0.11417362074044453	0.07993989435631113	0.06395419618197686	-0.22534662089578886	0.2527378930565485	-0.09337230156336382	0.17016421194363024	0.13408944865242603	0.01081910404070166	0.031274838424522486	0.07036378805091319	0.14029090128885188	-0.015546630465787943	0.0025503861677804943	-0.082784992056714	0.05535271616213944	0.1715384774844479	-0.025615204184086044	0.21879855595834358	0.19888505040347967	0.010206689309671271	0.26176450269288587	-0.028371631964734138	-0.05305435150706481	-0.11745381974426082	0.05527251042112608	0.003521277889844614	-0.1822380451162025	0.05035366650594937	-0.009358286479663275	-0.17792632689846363	-0.12193265147952137	0.08698314701973163	0.06179683728645635	-0.08504767185735385	-0.0594633732216596	-0.15421745840633827	0.049513230095850416	0.18938148975435523	-0.055268925232553896	-0.0016611383167858093	0.06286736447195825	0.08890976412828906	0.00655483431102329	-0.09559194437522239	0.013509134352486896	0.05487472884672584	0.03916233918485436	0.1497207500701214	-0.001613017086433977	-0.019635527845124744	-0.14064395341762817	0.09489311661096705	0.04891025743473038	0.09938838384753096	0.1306358268452309	0.029342935212526358	0.08688896651349669	0.07703374682055059	-0.0009322748642418599	-0.03727076663290937	0.04358791719305067	-0.08932563949954346	0.07225219973546904	-0.015062223528527366	-0.05565559798188139	0.03309465523990183	-0.10854840999146635	-0.13302353079579535	-0.06875657604445112	0.06769306219322217	0.04917741609081105	0.11172213640910121	-0.04189170524726936	0.11454548212572346	0.07763164113396986	0.11228999770716058	-0.13108882042348866	0.04519591287220479	0.04794989364201613	0.038227952942081186	0.03338948643372085	0.08297775671557005	0.0030388340440637104
accuracyth	-0.12397005568993522	-0.01850964486031702	-0.029584331851107405	0.1389942362426723	0.11126970836554848	0.10810895718290964	0.12987070655986205	-0.0008815605329115531	0.011051599014444934	-0.011649166292698285	-0.09158104642239646	-0.022371391241455527	-0.07198783686050605	-0.08879057716265551	0.10684133704140984	-0.18067756094438175	-0.011221180342846287	0.07676674905810699	0.027054270443666	-0.05437702638056136	0.02100906288858867	-0.09898519206654909	-0.03840565141305403	0.06393879355707198	-0.06275386231776538	-0.027953666141186974	-0.10740673545070492	0.09023966049560747	0.03543038930269737	-0.20331281000349763	0.18673862220673013	0.06909994534905946	0.031420264852150166	0.05794094196854922	-0.05156407868434139	-0.2170541480421355	-0.018303354643637592	-0.10029695709379141	-0.031868357254708886	0.04063676170026484	-0.17924904497828778	-0.025270695229684628	-0.0064636992803605384	0.1449664339718936	0.07904398294391504	-0.14144014068832172	-0.007330223643827237	0.2133804544225445	-0.10930756730239422	0.01502169361712034	-0.09982596197159554	0.16444189669325818	0.060050506785846815	-0.06934870510212464	0.059727898643883004	0.020766756534871894	-0.04879023339103645	0.004876383239837007	-0.043018180653097655	0.08924980175503278	0.10675019299392662	0.17989278317737206	-0.15258727463602265	0.19686653918918828	0.02659261180621955	0.1982411989243024	-0.13244158148411325	0.02290928768754102	-0.032985461768498675	0.013522914767612188	0.009167942600212213	0.024282438554262497	0.06455275030787411	-0.0445995613623439	0.021298361923930247	-0.03565044806732706	0.019140257159585578	-0.010095271309549264	-0.024083139284277594	-0.10348187812048852	0.03561618284275205	-0.043581842668165796	-0.10545669056831727	0.06075751155715261	-0.0910242778107049	0.271570129816808	0.25610053958626416	-0.013972213780867163	-0.13032517574500455	0.04906431513783195	0.01443012123708722	-0.02210420512545074	-0.13026051163417154	0.007286822286691177	-0.06867193462866002	0.09036360886052654	0.07946168415491138	-0.05073323371125766	0.1146225215012248	0.1865954644605192
achiev	0.026082516195267243	-0.1443951242877848	-0.12805975819985246	0.11596178881596532	-0.07951818044529385	0.013522662345920472	0.007738695475299355	0.11127322298525025	0.0018167309009881761	-0.022471598272478202	0.09391403739334957	-0.02548424822365973	0.14725350730272765	0.01772246327913703	-0.14619875522856782	0.23410455198387486	-0.08364487816420899	0.055815717289573005	0.06000900072245568	-0.12886661000645797	-0.011434519093681265	0.1670122457033549	0.06383170178119359	-0.15179081714278425	-0.02594431397700151	0.19539456722512843	-0.047978298132134355	0.04588544572631362	-0.07226852632280839	0.01587918271296105	-0.13727649181993956	-0.0342622159574969	-0.07599003791927088	0.02373260511813151	0.11115401261306135	0.11465949823909204	0.0529968626223231	0.042918198409582026	0.032430229623411196	0.0027572658720556534	-0.068499930794259	-0.028553973546428794	0.007200412240860593	-0.053612855998648186	0.27936752519387825	-0.08686053903318743	-0.05455005898932144	0.07905762062257228	0.13065734321497316	-0.055320714254139446	-0.07806405866002145	-0.020938542344325784	0.1470700590090005	-0.13224080990237413	-0.10575147930729856	0.10973825217983668	0.06203773558866287	0.1250460839530725	-0.05019610828238075	0.10120688460039495	0.024657263276690506	-0.07558432020898434	-0.36485625648924164	0.09749613468312741	0.013319087078507522	-0.04855309364881521	0.011708994199780817	-0.028588695445631057	0.09830730228416536	0.02799396208074319	0.019530524209542623	-0.10542326991420514	0.07377097818305327	0.05465455204743518	-0.02398580113834715	0.05926510683891867	0.0865506927171256	-0.023396689177755232	0.06521539091728287	0.03717771915633901	-0.07430105485273424	0.176377592353698	-0.05632141248865271	-0.04378335326049776	-0.062141746614536746	0.12210781852757446	-0.01860195045256563	-0.06337107472124176	-0.06890530080922949	-0.050892744595849554	0.03698794385129215	-0.01807870053547558	0.1528600079213334	0.0669248486791601	0.05897496676751509	-0.20447106285686067	0.0013511593877167886	-0.056958077205302785	0.19660954044704576	0.12556429559011356
acknowledg	-0.06486206877308817	0.06416418525560282	0.14348532594355395	0.0765215767413558	-0.0721925979180146	0.11272851131220842	0.056822083731321006	0.04832277358905221	-0.01715434263875695	0.10626589929954579	0.004266231706687718	0.03138610264647208	0.010889001051774401	-0.011129682013584358	0.02241772301652557	0.15326848530105752	0.08678131063750294	0.025303428998986056	-0.011387754514817142	-0.0162223290353024	-0.00428860985191731	-0.18688957427720634	-0.14336809314621668	0.08271619273387093	-0.1844392291929134	-0.16657148193231536	0.06586075321302062	0.043163356622921666	0.03721316102218462	0.08511855476958681	-0.00013632096506419517	0.21057700300710036	0.010976830751873721	-0.08652192925978384	-0.02199764720323144	0.09160192127302298	-0.09148528982552492	-0.08413260760478249	0.08550598744036848	-0.00642776844607182	0.07571347542830816	-0.04443826674895159	0.11989468981772794	0.014382255866925993	-0.02102372124954374	-0.09322620243143946	-0.04781030131957067	-0.09655463078133836	0.020270610125191765	-0.030417239069878588	0.006811951561460703	-0.08264091048133823	0.018436145681650206	0.17593964503350998	-0.1841390508492722	-0.0056652204269739765	-0.02914084513123163	-0.10252928228306317	0.11363778990670441	-0.05021880778917085	0.13974897468632455	0.08500291952539939	0.0743411857606969	-0.015488919578207054	-0.06860270488920975	-0.1364765263395881	-0.06222849311744736	0.13939612253480452	-0.14256720624343205	0.0478848324665349	-0.018415155390127752	0.18679083076697367	-0.030073898587219056	0.02826225061273445	0.11660307537203028	-0.12178308446423575	0.04536429109878868	0.0013373806327886496	-0.1771471719028287	0.0934881471551763	-0.07263023789102088	0.3524469026821752	-0.025647902914140125	-0.024998919715843396	-0.06650485525540473	0.029056668371481267	0.048123100929884144	-0.1437168215246076	0.16330359813592604	-0.11593761592485845	0.05377613192202488	-0.08880784339620108	-0.026193022433729587	0.24622891988658588	0.09431678298136201	0.06208670045958087	0.06921375092327771	0.023921491954038993	0.13896653668048728	-0.11208908495179647
across	-0.06485965632828918	0.13429029896646025	0.04137344213983194	-0.07068306550311865	-0.08153424070371292	-0.15183811531011396	0.10477352496303641	-0.07513323056875758	0.040168396472937344	-0.011823721260088774	-0.016423052963238812	0.1726598093618987	0.18303130509740953	0.08894647186710213	-0.08014195887703297	0.054147222149360734	0.07710631531715031	0.00884972792145487	0.059313525101914656	-0.13824574234535705	-0.004758028836979006	-0.22156645021222543	-0.05829879650440509	-0.031068745116808055	0.1129218809885749	0.030460850806561003	0.06288559930285109	-0.01497022615354739	-0.011695324664196021	-0.041197473450251765	-0.0070371083955217805	-0.020686158282836507	-0.10660891295798637	0.017089208915585023	-0.0012558398290872968	0.07856266777025071	0.14172416790227688	-0.08128657753740601	0.10143480520192286	-0.007185187296239192	-0.05323139451762001	0.06511616823660998	0.13737073753259638	0.049433416506508704	-0.07945767982799519	0.09024308330964087	0.009430345773501884	0.07394964670145893	-0.02532677437603098	0.010908552729169001	0.12523979681250438	-0.21447805415430835	0.014448225890559545	0.06408308937809962	-0.06108774281688607	0.015993451716157327	-0.06919213885671824	0.07058599470811926	0.11760781797530008	-0.10710449160974608	-0.028119876063070395	0.2264777754713535	-0.06790657213650239	0.07587299095227419	-0.07721506926622812	-0.017112462831808794	0.01234827160515779	-0.05449653458661899	0.05191712749134302	0.16609278615043363	-0.04491612289462108	0.11125317223608754	0.10524311751927315	0.15199128198725217	-0.12389884958302555	0.034813955490402455	-0.11826094337298491	0.09107608340044468	-0.10169998124975918	-0.0025793376405329	-0.14285919413619563	0.08091261761936139	0.06210844730826131	0.010949446461378718	-0.30071631541988614	0.09552532953341988	-0.1070038553267709	0.2468813907772209	0.012841275612338525	0.004428356706986852	-0.03679610210342195	0.08960269208817585	0.220002683107411	-0.06770678745049218	-0.08826088254095485	0.106358577020533	-0.014453379135652738	-0.139566018690692	-0.0836161530394647	-0.14012773468884823
act	-0.03428082789881017	0.012417795993255603	0.17549377481221465	0.0985236107387969	-0.11400175567539911	-0.06207302366102914	0.20381416794890467	-0.019168053076127168	-0.052290811040719073	-0.06163300582262105	-0.056182225346418695	0.19579056858284088	-0.04915965676310359	0.08834728823566611	-0.21417934117224424	0.14229695838405956	0.03346202714018216	-0.07540764148837166	0.13466984154574113	0.0586594446046607	0.09751358564681083	-0.03615881463087974	-0.21261675511985423	0.17399488992672446	-0.08766826784405433	-0.07629840700828734	-0.06155588211002619	-0.12629816818856454	0.09849276719921234	-0.02547725994614713	0.014787413840449128	0.15858482035504454	0.09362998642735412	-0.015176722860335551	-0.06476464912922887	-0.029882491009147878	-0.035875544108295895	0.028285934184173692	0.07116909317219543	0.12460351221460099	0.1038946714318479	-0.13127066597388265	-0.0031344494386609328	0.040829422069079094	0.149710326900697	-0.013784829238453901	0.034233325282286765	-0.06559994367605064	-0.02218776799159719	-0.1368327898736608	-0.031164935264352496	0.14430170422750888	0.014839605883093273	-0.03487400018152128	0.16209481028130107	-0.04256879865678399	0.1353925706503058	-0.16541821880724575	-0.21088944536144688	-0.1267531199339129	-0.07345565474932601	0.08733946752412974	0.10056125419017614	-0.021127402915653903	-0.050276261477302825	0.017589547293481937	0.006252451318803422	-0.004543028954648801	0.07177333804682781	0.10716306445425038	0.16199136563727626	0.10969595142847106	-0.12839449922081095	-0.015210911342322983	0.08943546955408696	0.20766436797060375	-0.10616345114736266	-0.19542002197577502	0.014865595884616726	-0.1008436041753322	0.014681589564855557	0.09731607357314923	0.0825867084690505	0.013441728112873688	0.0647440873965926	-0.06815011773160244	-0.046112964440177456	-0.07652364982813879	-0.03286003959592207	-0.07227419325650393	0.02608529386545609	-0.005939811283245577	0.00981344889320446	-0.11562890108174578	0.1069807940615603	-0.08386478090813626	-0.043913971725348964	0.18423502939067984	-0.03269269879335816	0.03996381416882041
action	-0.03769492937044331	0.0077642899197816855	-0.050955657886419474	0.005350086942350259	0.16610715760524614	-0.08050737370203907	-0.019113965014196266	0.1251325543045337	0.031000942823057924	0.0026698309733567726	0.017957849914118144	0.04408767328184935	-0.08079192398059053	-0.029058667589487074	0.13605883189574747	0.062093529820678804	-0.08933066777078272	-0.1656093561002719	0.0805419693013917	0.2760403684085316	-0.11571362124254547	-0.019788141737907147	0.07417826593383012	-0.09786725071828348	-0.07920317130926778	0.20601003714223312	-0.013264344575150418	0.044792372674375566	0.003066636233895368	-0.1064074154533109	-0.007246438621834404	0.05809761821804269	0.05183483905248393	-0.06932494987115909	-0.05530166818848675	-0.10360415533449162	0.02904991348551587	-0.06435424616787094	-0.15555712314990935	-0.1286787837548755	0.05606211497022054	0.05475418347223545	0.04297011093193993	-0.09850748398884011	0.08210049003362317	-0.005857889600569829	0.037833966202062495	0.14392743338051417	-0.16299389917540874	-0.09455580822008305	-0.155095974308055	-0.12782800242619566	-0.17404063888821683	0.0006523713410497864	0.15268583373097686	-0.08398841977662591	-0.06924623118288888	-0.2907914449584573	0.04163623608971172	-0.07761526025801985	0.173311602051869	0.09301057660374369	-0.035814613134259814	-0.03549701228985775	0.1674403077635121	-0.09955610415874137	-0.02420131782504217	0.09443375030512385	-0.04292899779640177	0.07303676183769096	-0.11438067270832508	0.002854526011437113	0.04182942306462674	0.03411871936380384	0.11720208811706932	0.08689302332725211	-0.11359725997391004	-0.029156998906300087	0.021334531869401038	-0.03620823840680538	0.057754883948847605	0.16406475363130063	-0.1445093077726836	-0.011965269444245915	0.01983686042741399	-0.17190049536025537	0.09119338110493906	0.09531836436393705	0.1701778120277077	0.0701470976026553	0.09475067464560011	-0.1380439059606333	0.07033788136571353	-0.07155030047036921	0.03851964142590086	-0.025166853865861476	-0.13046145634850645	-0.05343435456308166	-0.09547031931793167	-0.050189058238233324
activ	0.09948130741758514	0.14611645955555086	-0.0017820499082022371	-0.02631748480850516	0.010050099629778667	-0.11187290466127994	0.10543148804595827	0.0017951925737806139	0.0030195292150473497	-0.056176216847666216	0.016761356198141984	-0.03917940103284754	0.07038882514243446	-0.17283995601343205	-0.04150271561622675	0.10336333155886318	0.06891833968797566	0.13365741833952635	0.14850776036824587	0.09833584385564367	-0.150834636265885	-0.10253578005448796	0.026130783553121102	-0.14480440640325778	0.18650721064085343	0.11455359701890197	0.0870116702055465	0.040638074441584765	0.07798003204866043	-0.008584576313258731	0.133846663602078	-0.15058023132358353	-0.0706720094297705	-0.1706624962523416	-0.04647040997733623	-0.11508566650187114	-0.1771646227107362	0.07823686887114312	0.21156412563726673	-0.06349359408001665	-0.048005793326798246	0.050528126482535136	0.10296040103682547	-0.08657693237224036	0.13884084631899385	-0.09082344376992244	0.018649551154317403	-0.17292085404166024	-0.049308889180916936	-0.01447158771309166	0.1489029228128552	0.10770387856348977	-0.04033579423177364	-0.22319825516383246	-0.10968890025799649	-0.26334184838534647	-0.036649368692248094	0.12263790829649474	-0.25382106025638057	-0.0489908419304828	0.037317986616274924	0.15937815595320923	0.12812829274799764	0.11336538320272646	0.04503299519128758	0.010961551908712132	0.004703350207757452	0.005052504634225678	0.06671168204354185	-0.03307171676310062	-0.14395350798007858	0.04498024247815004	-0.0619821770252551	0.09238102307370896	0.035330081886527455	0.01384610199440732	0.07724079124568504	-0.014644619035398073	-0.05867151748465042	-0.08492794003185657	-0.019873232994551532	0.02661443667239301	-0.05190473320433232	0.0957818635899229	-0.08379871404839112	0.04639139393284092	-0.08803487963460067	0.08472566371400332	0.03925991147476993	0.05056070265501859	-0.035491735559716915	0.14765688000054744	-0.07825937164307202	0.016559610753861517	0.08636008101633977	0.021740624809419518	-0.026918351114129147	0.06785783519201341	0.08711735255070306	-0.03600588066901293
actor	-0.021763681232983827	-0.006152610047145277	0.17579719042293612	-0.07340034477299713	-0.014058502536675455	0.06334040860256851	0.2210813780336177	-0.0632201236645928	-0.14838393396376576	-0.03690498293008579	-0.06368939148986612	-0.05768525051053117	-0.11861694199908351	0.10232206436633211	0.15854851016484942	-0.16769360507835895	-0.06910375254293355	0.0044565769739939925	0.10882088688157364	0.0043744055640594455	-0.07145636149737788	0.030303916451760962	-0.1751814637503384	0.007176765717674614	-0.14838258400634238	-0.06400367607832078	-0.07114903048965714	0.05819787944516161	0.07343867722558181	-0.013670871301402151	0.033136614269006624	-0.0832708777590105	0.1400112030370303	-0.07454253065454466	0.12841612992598336	-0.0955415595641198	0.1358612762505546	-0.1556756455810629	0.012104296000825722	0.07178911228910025	-0.04671411957857472	0.04726821938459454	-0.13634553212835993	0.02140821465661927	-0.04460211118330122	0.01605095351133358	-0.09233770844194175	-0.02597656474843841	0.0926318084702366	-0.02658805211654562	-0.07461071181839435	-0.06539986712582273	-0.04011785936187216	-0.09439050906739625	-0.11657123324315044	-0.13762599878773257	-0.19562094753430576	-0.09750287405039011	-0.10386542782276932	0.0831789333507785	0.15264085387713225	-0.02512827431708575	-0.0032721128914728614	0.15812936839767053	0.028300778600145272	0.10948600543219457	0.2843291669297361	0.019316515684733037	-0.09924702659774234	-0.014782330377410351	-0.004653621353721698	0.06235069984847681	0.12373240379736064	-0.11542378906629333	0.02901805297235562	-0.014673260353185917	0.14852998706889073	0.02418083343529459	-0.28842759466110257	0.012415227754368603	-0.09284062622465698	-0.06495507367082323	0.044640708496465786	0.10839828298031905	0.028825081853634034	-0.053177804131508064	0.0024583767425580385	-0.08668203194782739	-0.05359920107098454	0.06355278111371977	0.057017489697060296	-0.1114992805035233	0.07577702961418627	-0.0123706169132747	-0.1971293645740424	0.17442670316296569	-0.03971546977439016	-0.0005360438916879922	-0.0696003586275739	0.006563376298025012
actual	0.04691974162668674	0.06918412352200949	-0.1308967925945234	0.07491320025602528	-0.052309618745623905	0.12857124772877673	0.10571672613253479	0.005130308003518838	-0.0070912768241235295	-0.15279175391805425	-0.02374359705646335	0.052484107067424006	0.023851374203759514	2.0007594703591714e-05	0.0030210344720316587	-0.08437370529667527	-0.21373197746901643	-0.09733943513939286	0.04084644217284267	-0.11484786540677505	-0.11063478019672052	-0.06800552166602236	-0.08460792297937332	0.010302948464854418	0.07614627304038989	0.047122948258611984	-0.12004904402394309	0.09273289937450907	-0.03958448217684411	-0.22972390481049235	0.03483052773914204	0.007826198700211312	-0.12708919457365545	0.043729440484556986	0.14500877860184308	0.13127899776488855	-0.029488181977614658	0.10865375987792683	0.018795923857603834	-0.0763004733294445	0.0015868439663558227	0.03320224045095767	-0.05042147616566393	-0.08378658283408817	-0.1244968099792443	-0.10439936901501697	-0.23243483119877562	0.06799944896963687	-0.1654726246951219	-0.14944102210264168	0.03098423814560853	0.0013670512603619546	-0.0782571525434839	-0.022529559522746143	-0.02084490307311799	0.11786919923798035	0.0453809289248217	-0.11917690749734289	0.008556393866254442	0.1412662075420747	-0.06542973241315846	-0.0797934912059512	0.03356340235272019	0.18293826738361302	0.024549847869027027	0.02073085086244639	-0.07547795203316744	-0.25480980627961947	-0.031275024338798946	0.06283079696117772	-0.12184054070850053	-0.030384176544635193	0.028963657226001707	0.09545473604364073	-0.13140207501208495	0.00891495895189062	0.03440195448744664	-0.09925388962676122	0.008664774028376213	0.14747961015446093	0.006370744251602278	-0.06399850236873655	-0.17165390795854304	0.13575967951898893	-0.11816548286649528	-0.14615994979639954	0.02340663822426376	-0.03100175635071121	0.04929668285565279	-0.0447548971429603	0.2675661086651812	0.230514569450129	0.07471393534253548	0.025507936817796305	0.008893814910219105	0.057068450301011424	-0.0317762403880436	-0.056743467320577064	-0.1078819172801261	-0.06755612711419472
ad	0.0739466566305673	-0.07460099590344964	-0.1646928394478502	-0.08913297294140655	-0.06996434425738707	0.023118014036427294	-0.01914408216634149	0.033992189332284505	-0.1309583910581216	-0.01990685130031419	0.016932629287898866	-0.13240570670468543	-0.01615485192922445	0.007077930932780005	-0.13682139626498513	0.13152381875321847	-0.09670473765859368	-0.13977424755015738	-0.012310611847488972	-0.010922689693340462	-0.009162078508665952	0.1902442133096016	-0.08407285024006052	0.043287984198734974	-0.04908786727440158	-0.02664949105330215	-0.14123749103601727	0.037745126869594074	-0.04984271812221097	-0.05979598631996909	0.1310561809329886	0.2157717030124435	0.006145458113082971	0.07673420510150053	-0.041693954359310045	0.09267463891492597	0.07637874247875326	-0.011039214672726864	-0.09476017375669565	-0.04600594414437138	-0.002823641738276205	0.02950512758460586	-0.02320110413535039	-0.08454716705768452	0.09432644900663606	-0.07226733074050189	0.17831926704414294	-0.03265363433067269	-0.031411380478777	0.15287255108031825	-0.14447833841531973	0.01927239289591795	-0.016472801773406903	-0.0810452367765549	0.07199575615597603	-0.14825784093098887	-0.10244838786502322	0.10632038766072176	-0.09083638037656185	0.09177767997810807	-0.04447899529064043	0.054160972404404845	0.1258219397922623	-0.06956454201058591	0.2042127035837904	0.11752071256072698	-0.28517368721454683	0.07241572713709749	0.09715507813556361	0.12467879912628024	0.0004522628311569818	0.15551789194487897	-0.021440757022182837	-0.14492255023429856	-0.14320734807446783	-0.0011282683273651276	0.10793727882750524	0.13213329763109863	0.009237413603004906	0.10927756835613547	0.05890724895317105	-0.09880203646517727	0.008045066001895636	-0.06931406473275424	-0.0781644797829517	-0.04501256814288355	-0.13547654241556936	0.12218857126741724	0.19481510331751517	-0.002823422793618644	-0.051642812843777836	0.1688158590094036	-0.014236772439757631	-0.09700556224086467	0.03335280529142291	0.06086337294080423	-0.0995044710003019	0.1369520921197873	-0.12572277479545443	0.11032980257228964
adapt	-0.04245510475613799	-0.03280509098250281	0.1287690690164706	0.25769465291961574	-0.027162919434940987	0.05450017873754273	0.005582882081473079	-0.21967702251303714	0.03981616659667855	-0.009782470950672278	0.02249117523292779	-0.08695250460600269	0.08241596738391312	-0.14949844482151844	0.04933694329889683	-0.16319005325400002	0.09809870413986368	0.012486006313807509	-0.02806135407829888	-0.16959452106938044	0.019885338237820505	0.043103411449996194	-0.004122295888333989	0.10798812009663643	-0.05862318124515928	-0.044426095030665275	-0.2294973864750637	-0.11587751731123384	-0.05470846808639947	-0.08267533785541623	0.07859634152185681	0.12167751968305537	0.12009201805957721	0.01773156071715209	-0.0016756029421879097	0.036268449144230254	0.01788728152810232	0.044939803715239875	-0.06283816908268489	-0.027488697413570587	0.145530294824154	-0.06598643749561918	-0.08754914858890633	0.06318992963875054	-0.1293201737446892	0.009853645615347077	-0.01174064147334345	-0.05663018913581848	0.044593083179323825	-0.03721274863992273	-0.01929411454101835	-0.08901301493031895	0.17120063440595382	-0.01669823238038644	-0.0009171872564169269	0.05380608711902801	-0.02369873192823184	-0.08741250140633074	-0.013318786206781518	-0.11877791661164253	0.161293339327774	-0.043816252218340415	-0.1461972644073193	0.19477585264672023	-0.14082728617033274	-0.041678380247034685	-0.05918641607966624	-0.039916445130219795	-0.03041606040389062	0.059323725074739785	-0.04558429735176634	0.10474485492402846	-0.12555940039502683	-0.12386825851878536	0.19590902855707812	0.07854068132606414	-0.19824865671852931	0.1644031645806071	-0.02993591643528029	0.05228580068526303	0.02840046534742446	-0.057722254078132716	-0.04744019157063756	0.01976869744955938	-0.037972386606806185	-0.06307554844124041	0.10750483422811309	-0.14325540832722938	-0.1207685091332441	-0.15955226738465061	0.19296037323933193	0.09823517441938	0.15590988957855398	0.14394833164225943	0.12565165464155606	-0.0638025966233828	0.030490020209645485	0.11418858011946977	0.04118474917091228	-0.05217812577512021
add	0.02638553765686422	0.2871943119454127	-0.049689954619390304	0.09159463857136789	-0.20514445412968838	0.11119740006395419	-0.1925271991844711	0.048753988619987	0.19908445582477577	-0.04045111763125908	-0.06427408441655663	0.06809937337629385	0.01739462484759141	-0.01065994473189171	0.04430900589630982	0.08095507325183984	0.007452987207739617	0.06020666784027592	0.18084399895564765	0.0422887871937092	-0.13691518313295334	-0.02611302311100246	0.0038556467364330577	0.09653463267553718	0.1388629476505227	0.008187359164481042	-0.16613027446028397	-0.07222764895608567	-0.006567963230787268	-0.21153013977579235	-0.03560437907635296	-0.13807807399935404	0.0049314123574735165	0.007733925203198837	0.07515111493987062	0.10405625137388044	0.016526817155302288	-0.01571456880771854	-0.06936815812951751	0.17151863443980253	0.15407124915227308	0.00026043931999955746	0.023954365272577105	-0.050313457017067395	0.04173326764133473	0.05595561014878719	-0.2815498780786088	-0.08493007707454753	0.18580497280882366	-0.0741309388045056	-0.01266054185066281	-0.14567532152285528	-0.04874205729042696	0.09453126556844954	0.07609439760207369	0.13399890618290997	-0.029297828445413055	0.12161698219363631	0.09590452413906016	0.0890608502503879	-0.026636162107321996	-0.057140278077159906	-0.02705842360967441	-0.10812714113595279	-0.059664699824300456	0.04301671387569361	-0.10654130949984943	0.005593229508449579	-0.14324915401212096	-0.1119530737437345	0.13922927230010118	-0.06176376293333115	-0.0625005851849093	-0.04722498980166645	0.010445885338295893	-0.055645363672034584	0.08103120424279912	-0.015493493510215674	0.0939834691271811	-0.016034044467614802	0.10174976289421306	0.06025104302615615	-0.08450923827674783	-0.10029742292608147	-0.0684860587544354	-0.024796330416390067	0.11388425863327381	-0.0387938760931901	0.10729449951422745	-0.005776746278297603	0.09252176537859742	0.023688297339403887	0.10705089055635808	-0.16832337561269892	-0.07920362787816	0.09218060072053667	0.06654126015591694	0.1075179293007579	0.11517474362199302	-0.0006303962318950834
addedit	-0.05735141183803876	0.00808654909197539	-0.046556132864766765	0.0982526197267758	0.035267065552767644	-0.05584497421246837	-0.04843412205077737	0.13980211126092504	-0.07171579629076001	-0.1107934953803161	-0.14678943494264962	0.02279304285758968	0.051709399385942975	-0.01856678071841638	0.11330495880384611	-0.09105393756715092	0.021759879817153615	0.22126920143519896	0.01972790868978528	0.0042083862000189595	0.09705318805934528	0.008511493544125863	0.11223056222794686	0.0009552807465022724	-0.11055635335823699	0.14712449578030662	-0.160911469475178	0.028675072151826495	0.09885444130533227	-0.017266650185587294	0.14024956736080102	-0.13016478966731843	0.020986176537984996	-0.16228160259101118	0.037410402254423054	-0.26528582726608113	-0.11046610923605638	-0.07373226242417771	-0.23898778224746617	-0.23943033937141395	0.020766236617352524	-0.15444490947693107	-0.0922419120229221	0.05772569293149354	-0.09388507147643525	-0.10577211212235899	0.0902105760036454	0.07435171444696384	-0.048601009947932365	0.1327443524101895	0.04593039091134318	0.18064025238483367	0.08257678377760272	0.038612587215747875	0.05320750963927226	0.13781863772218364	0.05772002282007007	-0.13751413514420524	0.024547692886895893	-0.05580963843201698	-0.20197616959153533	-0.043728470419245276	-0.08288035486773646	0.07803941941598536	-0.0015059052532488027	0.12694304645978316	0.10796994875112574	0.056457395448638724	0.01991040765998816	0.024159979500335504	-0.021555837603770136	-0.053162356019470836	0.06542128820215147	-0.038615393632027956	0.09023756463225027	0.06687703864055938	-0.1007958854492798	0.044442877285526546	0.01138360738478527	-0.0018678444266057128	-0.008216921010352785	-0.025284701666120336	0.032176222917041974	0.24080243261994844	-0.11093061468723123	0.05985015468170781	0.0008319392116456756	-0.12967165009116216	-0.02680403427956133	-0.02307955880554021	-0.01899251233785949	-0.054283471926296935	0.19852172051129424	0.04818651173680559	0.051584353303221205	-0.00359443727577831	-0.061532319822226005	0.12354618326569788	0.09055437521346847	-0.11958423891778777
addit	-0.0774134709302792	-0.03566386787244377	0.0181416025586098	0.06195613311246034	0.164868384516421	-0.08470878870418348	-0.07732575136290458	-0.13082893859173148	-0.08406718628960586	-0.09915306557875729	0.05581036452281734	-0.0586913380904463	0.02701178839695605	0.12664899603281055	-0.009309796026337951	-0.2712824833492217	-0.047593371769680606	0.11485628755740714	0.1449952223410485	0.023442707065955432	0.022577851099717765	-0.04926554803149438	0.09248205521667173	-0.11626412691985386	0.04823545337370619	-0.10333561460431745	0.09829435955922339	-0.01867337548567719	-0.11202968108276906	-0.1498457039588958	-0.014174793853806685	-0.038473068906561894	0.13211297200315938	-0.1065317093809132	0.0779007871784561	-0.06733583980963265	-0.12715731450586384	0.07295667213474355	0.15162616158703024	-0.1488165199813956	-0.031831441128615655	-0.10136593050362278	0.014653380560918722	0.0293851854087209	0.27093333586696133	0.1365768336121217	0.1525719098241887	-0.0013623045016168038	0.034046438841271315	-0.06653274692972007	-0.15251382780893752	0.12705153418027706	0.10860206534002184	-0.013874145366838878	0.10517164193767772	0.11191416190421714	0.1378735091545518	-0.05348288661696721	-0.04666520354580758	-0.03622039214292958	-0.03821355775602489	-0.12674809264416323	0.008371796203136375	-0.07547951418158123	-0.18702847828793284	-0.03914900829899001	-0.07853207319152611	-0.11235388547827709	0.016791445269747816	-0.062035525693628316	0.07119199322531682	-0.12580297381918806	-0.19751527891356482	0.03972908134033196	-0.001335532868293922	-0.1688691211827885	-0.09611578211654642	-0.047035487586102404	0.007380134093860114	0.042344346534090666	-0.1501556365586941	0.05598175901135962	0.15123276918842307	0.08025980722641263	-0.11877853249416472	0.028719457048826322	0.042127140605740916	-0.038830355650428	0.1361182589897735	-0.08406294727299113	0.03979550480143701	0.049770858301478246	-0.17780428379663865	0.0382790382337003	-0.04142941245690533	-0.059055163409685814	0.015005234476590103	-0.14186575837796578	0.06677169159563186	-0.06183338350524705
addremov	-0.08871375743385135	0.04658623615592641	0.15846183007205994	0.09226434022916899	-0.059463193934626846	-0.06942468436896741	-0.008603145757901746	0.08247404314325368	0.01203915037262041	0.004970046128391068	0.07474085202788903	0.1904826526172412	-0.2927284445113165	0.07204929441093773	0.16846918795863164	0.009529367362338156	0.13054367877329015	0.16662232238183844	0.13545275549465863	0.028071557110735293	-0.05815273061538482	-0.01863687322197141	-0.01205295486907252	-0.03780693867955167	-0.03403447216680314	0.002750819578458207	-0.027683651453158833	-0.10406911642066002	0.05108666321210285	-0.013062832294004633	-0.0476872934451829	0.01057242684308029	-0.07027062518902465	-0.05863336805467898	0.018113919289226593	0.01975482503934841	-0.00027047448221040007	-0.05556635711274799	0.12748395518791866	0.09070499563219542	0.08446658969537216	-0.1737495713450823	-0.09406005463423935	-0.0759005684764824	-0.17826777476329936	-0.10970712325605586	-0.0854861389816344	0.05979049871737928	-0.10987380185097811	-0.0939226330475249	0.17312831595859404	0.01511714701918535	0.11341736336924663	-0.02142958208251071	0.03918654698619444	-0.009209610095927445	0.18179142393731865	0.04748594750713894	0.13034861974974737	0.16426842489631446	-0.23109749929325893	-0.13955638886354627	-0.019360419091656516	0.020957193325980145	-0.10032117402333836	-0.05340842349741446	-0.061504413271704195	0.017811206650233745	0.1550469438518012	-0.08691637383650037	0.007111794276657116	0.13933347751924363	0.14497992333884951	0.01428821298041385	0.021689589206869433	-0.16694295705558249	0.007853486112712593	0.10588587652881007	-0.14459505755024898	0.11386026549832283	-0.004287923784566016	0.11114885444370752	-0.015491212782397566	-0.08542239783008708	-0.00028004817048592114	-0.18135113466835825	-0.12716070493035783	-0.12145873610722174	-0.01734869235429434	0.17004314155124275	0.019334374324271604	0.0010213881134220658	-0.098517115344693	-0.0839295892092224	0.01980489850023789	-0.1398531741420009	0.0354505347747393	-0.0867200504082643	-0.08941330434974139	-0.025842863257420492
address	-0.06839841437209271	0.21157319670717276	0.0640515330907421	-0.048306799871669984	0.19818628194954066	-0.1522795429305892	0.047475381598558665	-0.029245849235045435	-0.08110277949081347	-0.10162960983239212	0.019129005015438637	-0.04093593505771034	0.05539366703731657	0.0001805487748941272	-0.06071659272827268	-0.07686688206963047	0.005651939155611267	0.011780700036824687	-0.11339262278872923	-0.028730546461414416	-0.056771248777022984	-0.006308663469062639	0.004910245939698895	0.041550352331400926	-0.023500731241834768	0.11351959657696747	0.010729175508461303	0.009933778647734773	-0.15836037875134365	-0.18900967122523576	-0.010121207732015712	0.04179682308096094	-0.141172454551302	-0.09378233925168673	-0.04540563240284501	-0.18710730009217297	0.13641252132957254	0.043115980839398924	0.08130701257208145	-0.129071091093198	0.2570189832930402	0.05786148073694879	0.012056800883854028	0.07493866900358498	0.04945733766906197	0.04724185500148062	0.08394195952693478	-0.20277641179307146	-0.130360170034487	-0.08676968234405094	-0.16087814377405002	0.11445432574304769	0.01469647733814857	-0.1625455363075023	0.08839015343322298	0.013901079137414216	0.011254485225794187	-0.04477875188879446	-0.16573276176629925	-0.07864408902410533	-0.01315178839431336	0.11594545868933866	-0.05197039802502568	-0.19326866750609467	0.05237838978350769	-0.04641692275657215	-0.12186097434569315	0.0849290259916959	-0.10450196309560433	0.15180098402090503	0.025190218329688808	0.15777211562306742	0.0045728776964261445	0.06383149859342054	-0.08885943162360191	-0.0691075612392935	-0.03459940879218486	0.07278572481198564	-0.09291590305417653	0.09433194576941187	0.09073625558234603	-0.10136284016432877	0.04672723700962196	0.06748279380377117	-0.053464620821360144	-0.07156416094501603	0.020284918878731316	0.0054001624904391685	-0.20544404530970328	0.05234131370828628	0.1521069661823466	-0.10763208682059436	-0.17710791195035422	-0.02353370157215816	-0.09236406652238935	-0.15171801110301555	0.05808753714038233	-0.007420628813042577	-0.13701621471517947	-0.01911054687675108
adequ	-0.13663722982829474	-0.1724818887872303	0.0032827315041987384	-0.05986041781156849	-0.08394403483812339	-0.17871502635656494	-0.056025643445712446	0.05879787617598987	0.10515639183806191	-0.027027327578451603	0.11486025079581023	-0.00021111282947139498	-0.025892273134735595	0.08159958644084823	0.023606967777051627	-0.06282183597829022	0.2197805855002438	-0.007472827183773903	0.2808370224322012	-0.0051955672080574505	-0.08520463248435428	-0.026960587594472285	-0.030237263209277814	0.2060324814243654	-0.10223638363848535	0.13461434523017166	0.028799775478743832	0.02935090437620535	-0.26914158955781764	-0.05016534519342817	-0.026579258750910165	0.0032972657598263695	-0.16865444129735674	-0.05440482670342953	-0.043619243794628615	0.019724277938011722	0.14800605091938399	0.04743287699684222	-0.052474258997755326	-0.12786337311713372	0.14547324189606137	0.18625736299718512	-0.08546899251033925	0.054135724818371644	-0.0183494969967265	-0.04051306254180303	-0.0688751495261488	-0.0665670875037786	-0.07861117446430002	0.011767100948816486	0.05495799330939665	0.07788232635244836	-0.04024524640391811	-0.0013100403769064108	0.11157494257379975	0.020050600404215583	-0.23626182975115512	-0.04699831916509156	0.12354955624746203	-0.15163667881420945	0.0458672455867462	0.1367858280076437	0.027901851960884846	-0.0814869397845101	0.08838218687907061	0.028683200331120665	0.14612936380711483	0.05622899397356888	-0.15271954671313198	0.0375590933280614	0.07182866445367458	-0.009309920737370976	0.11411926263343858	-0.11962935051803862	-0.0649081319113177	-0.09910534423702808	0.051420251384843574	-0.10104196549258916	0.08476770119311197	-0.02534242437982868	-0.10646572527173327	-0.03539914135072328	-0.08156616135936287	0.07997158449232289	-0.02373099530743162	0.0738103396641067	-0.05370639278268345	0.01930679433409785	-0.16990794446747104	-0.09434139081396443	-0.015270797062944081	-0.11301565456661641	0.07604531230636423	-0.16048433037327173	0.12281003592202466	-0.02469523644523838	-0.05829156383674031	-0.001218342158789803	-0.10166807212433317	0.025101056985257175
adjust	-0.06755295810609073	0.05008363920000859	-0.06769753144952799	0.05133151634240748	0.06949835116590804	-0.09262086191861357	0.026600330668680002	-0.037019459882236934	-0.14017711047671738	0.09812610693526101	0.06872070406375778	0.047398094865751035	0.07740079466303283	0.05564364156697795	0.14265703529238777	0.036468454428466746	0.2223807082295991	-0.051110544085928945	-0.027573632937185635	-0.14885991979488522	-0.09609608500294237	-0.01653846735165355	0.04949377231042369	-0.05717608221432156	0.018542423902178255	-0.16327386740113026	-0.0011953617976081595	-0.13102953536276096	0.10572847458015959	0.12516119651939148	0.004699149438922587	-0.0071429140177261844	0.014164991461162443	0.18531305770086806	0.07774563388114973	-0.03899283367587361	-0.10808078501045022	0.1428985240565359	-0.007376249488066352	0.20103408015961963	0.013291058641088564	0.1710830711707232	0.006123369811954866	0.013818765703913237	0.0009145489036050384	0.017406416566668886	-0.03319900737924095	-0.18698840653887186	0.08441076985427824	0.07809515288863658	0.03933412867136574	0.05716708028950782	0.020293689012852313	0.006981279795018933	-0.10142178928500387	-0.08990781978571341	0.004355396357434817	0.16047263309079354	-0.07141876597747271	0.1414925445534008	0.368097541973754	-0.07163546231490867	-0.0024389867313497743	0.10544256679897585	0.27816473080823445	0.19797868930099227	-0.07210475877265023	-0.002198805301147526	-0.08349809366482094	-0.07743896099121858	0.06246634983190587	-0.025387332152921285	0.04138100912862351	0.18239186269079685	-0.0069047646179992385	-0.008311592322152818	-0.01801428119795634	-0.06888402965269408	-0.020647925465275697	-0.11879893898180023	0.02256867421839537	0.11167584877983328	-0.07072588369064213	0.12003240049098035	-0.18955610385472774	-0.003598136216092251	-0.10526511827973767	0.012882219549001435	0.07229611000548612	0.07768993594129522	0.029426478204160587	-0.07345155991145685	0.08855834941652233	-0.0797777988108151	0.03691958216135957	0.06321530161589464	-0.06535335291404011	-0.005286476698871021	-0.08052045832708789	0.014929613189031089
admin	0.09575267751672642	0.02583345261021325	0.15306522717482876	0.047755663110264225	-0.032022484410328615	0.06695034064389148	-0.024689073098537215	0.05309014521855607	-0.024885578408782163	0.014387909307644352	0.02910113164269264	-0.07435351161245896	0.041036744209409254	-0.007467174997472265	0.13859050116944582	0.02123565685315719	-0.06053385846492396	-0.0026382352135043106	-0.009338320519401314	0.09985763002521447	0.17695686908227914	0.008834819883118284	-0.08406322983029436	0.07762809293979689	-0.15664354130518301	0.15682067059699792	0.023638239384287878	-0.14277947702596336	-0.08231390367054069	0.15264223159328122	0.10089803266757814	0.04836480260086838	-0.14804055314072578	0.08292867842230961	0.04075017166806983	-0.14890508331964772	0.06695605214668422	0.0842790954816302	-0.0015919883177880766	-0.05422331553568554	-0.17642237307213698	-0.015454499644847826	0.030693804935882762	-0.018340700232155727	-0.12381666957104549	0.18251694386928657	0.20248721499550051	0.1151473371908501	-0.054268453575682135	0.03960571181579162	-0.13252014066510606	-0.020213690618219537	0.0851339482328903	-0.2579868749565201	-0.0833706158638613	0.011697459484309678	-0.1231335838072068	0.14657563949806904	0.018739966137108984	0.015411614445874595	0.08939178026373543	-0.11377764869004445	0.12195205928798787	-0.11554306122448457	-0.16468197173626328	-0.032242545273140646	-0.1650342145781174	-0.07389074775205241	-0.0020068612115016248	0.06509369886179212	0.11888809522519438	-0.09389780740958836	0.06282235639576447	-0.0771934162128999	0.0029472541383467775	-0.11739896185915194	-0.06014466166487224	0.07034447765003417	0.07261444763060236	-0.028505975294677875	0.025897842047602457	-0.1539930871631307	0.17150232905478194	0.04130231196466487	-0.06767525001855466	0.06180846208557789	-0.22386323098671285	0.06205266447361229	-0.12408943326060923	0.04230643333393176	0.004613163581406172	0.15575759673928274	0.0913556227650656	-0.1858394279684352	0.10593888706870329	0.02378602105386518	0.07120311410070901	0.03559162613380057	0.08374375040569633	0.09903958895983957
administr	0.13227028243581346	0.08646835299712156	0.09204785252046813	-0.035153506929685274	0.04124418768535869	-0.11481961223788126	-0.027891296886608262	-0.09368891896280532	0.1036480074122293	-0.07886096986231177	0.11494231453563096	-4.9521152952100274e-05	-0.12339026256311175	-0.007285921918985788	0.009714828128494023	-0.09743758894606411	-0.016144537978196868	-0.04980842640270806	-0.10195016758072689	0.02656368359725924	-0.058919545877175246	0.01767204744819843	0.030987849726195577	-0.043039268564454954	-0.04607797968092002	0.12402914451607143	-0.07843752705957714	0.12719373492388486	0.05249650132316214	-0.1355502761977393	0.06408942042264971	-0.10086037777691653	-0.09985691616492319	0.06074791568827384	-0.13186362511818728	-0.08232175265609064	0.01042898816315529	-0.021268211686239054	-0.18701993577321926	-0.029327639557489064	0.17400427016121936	0.01991196132200053	0.0812131447297171	-0.034162529950518335	-0.016986219313071288	0.06441768777410195	-0.39204706328436856	-0.07800987364659061	-0.08078884091795129	-0.029822965106586146	0.08720904597752761	-0.07829792196980513	0.09283966435844732	0.11572186538587836	0.07621873411451047	0.10307633223773445	-0.20187143221617748	-0.07923930580389267	-0.0634136002960185	0.2370788394278939	-0.030508408636952325	-0.04196247202166857	0.09440879324110389	0.04674863503956153	-0.07286593340161913	-0.004679277407728131	0.13760636003570348	0.0670412768398404	-0.03793644812654822	0.08978541796628638	0.08424850481314998	0.0070359366208569245	-0.056717863456294405	-0.03770693053985814	0.13367046029710422	-0.01579539317655879	-0.07363092949305847	0.03135903569832595	0.14774617645079552	0.1374160806889729	-0.09806334687547863	-0.05953030026475051	-0.012683136864182725	-0.07336989678152751	0.018605195229665628	-0.1702770669331206	0.013894869897435528	-0.216551815244943	0.0830571223601485	-0.1527204577721652	0.09882359399829185	0.08566511443148339	-0.1330146874982279	-0.16999623981493814	0.01885289240405028	0.10519888765852645	0.05078303574208174	-0.008299886256253424	-0.11924659075378471	0.00024233646808095782
adminus	-0.05722365584348488	0.04927708219253247	0.10078906235559706	-0.051761417554543734	0.12193886483650981	-0.004830640103306052	-0.06910830238256951	-0.05506427185056817	0.032121968112102904	0.02806124588222653	0.16333401572554632	0.10061260272955742	-0.08940334595339969	-0.026556551806385623	-0.05914321820900178	0.04093344770127701	0.09754110150532805	0.10522249388188402	-0.18941798195400633	0.03587196395134846	0.005780289492375723	-0.04492582557912568	0.04307840144067324	-0.01685906678231985	0.04433671051686004	0.09346215437478073	0.054155521040486494	-0.13320412560580286	0.06389285042748201	0.16545990689994888	-0.09438237386855171	-0.08275190772123403	-0.0595229701235714	0.002471614975521902	0.06911754519237634	0.06881808128925504	0.0049320769434979305	-0.09074142820356237	0.07210131210619924	0.2216132596388149	0.04404555884206304	-0.037594421530610794	-0.042239587902980484	-0.05756367832408077	0.00020881184971849095	0.04219163243304229	-0.025094003851646892	-0.20149377092359524	0.1341233666566835	0.12450048064666816	-0.1691531265501701	0.017174405606869676	-0.15171075866654893	-0.04556266084344274	-0.15750453834830133	-0.029513254605023808	0.12620927435854595	0.07349278388923768	0.07869265842661693	0.03371178729866939	-0.08316975614390494	0.07230393983325546	0.09616543878188587	-0.039664037441563355	0.0984505635749928	-0.11953742013446657	-0.03108616406842783	0.013898522207919421	0.1962013563603632	-0.017091671927894583	0.0795171897148898	-0.15742598808064967	0.0007436200656349741	0.02710328153305148	-0.11413763850245032	0.1344731417397179	-0.1814498529611979	0.05677557456448811	-0.028185819763994542	0.13788688073991084	-0.07077988762261529	-0.21873138334546993	-0.138971338180579	0.25774788396837306	-0.09880588829042715	-0.1967035787721631	-0.050702318234016885	0.1360069832101015	-0.08238766024475053	-0.05706979437800138	0.04915110720470066	-0.14508989997060293	-0.14286126275251576	-0.04277710749157109	-0.08607661324627612	-0.08417824446748251	0.0554741429053133	0.05915740796738937	0.039080055439619926	-0.06735946269610461
admiss	0.17154394169279624	-0.06322863410735112	-0.0018681136518724595	-0.05771777251339676	0.07478031305360487	-0.010594611081101364	0.0800720128661219	0.0863089669816979	0.008381019968154454	0.13988371376334133	0.1023224112299094	0.05560312999497402	-0.030618614387236127	-0.06478964024248288	0.022918784096636835	0.005075562833506605	0.010295625102433157	-0.015458108410073553	-0.03664594991985047	-0.11117698519625131	-0.013252063559658083	0.14130403365016178	0.04074043959197905	-0.13562419147274338	0.051960534624661846	-0.015401578563327257	-0.035339973493115746	-0.002372938628614468	-0.01677675702859091	-0.27681396028209365	0.028717562712384837	-0.011496682362804203	-0.027704454594574733	-0.16725570190359684	0.04234801851452164	-0.06835791407950653	-0.1401515383497986	-0.0999541261087963	0.02689558940046107	-0.10122058431697256	0.03357054785738706	-0.06506209969445242	-0.2912168708125799	-0.10786652619844384	0.1965741840620254	-0.07740922255901378	-0.05918825705439711	0.037030222864928734	0.09525504816434559	-0.051806963132804675	0.1471526751918849	-0.006153624351685333	0.041789312286484984	-0.010483137280410995	0.07820794419999504	0.16781699284858573	0.10534353160499658	-0.22118476952741944	-0.17282641399289114	0.059801858859301366	-0.1357176356542993	0.2284793146747807	-0.0532371144727477	0.008181387809941692	-0.09342635796588496	-0.09868516718517051	-0.17086300751399486	0.032688979737611486	-0.13417174581228086	-0.019745990151766552	-0.05500688094208363	0.014379152573481725	0.0705965651531088	-0.1396849150601999	0.07983445818944025	-0.19506724120689692	0.04177861522667555	-0.013845823329221291	-0.05470455820173778	-0.022260102933294758	-0.15277345723151411	0.02997134750714269	-0.14230137478871902	-0.03381083955265481	-0.01224230388587797	0.0415281449955916	-0.022872021994829066	-0.0937751038484335	0.10705889873003001	-0.13792986334945123	-0.01248754573898511	-0.0897140029281211	0.07174638003705694	0.10528101699997719	-0.07071317954093706	0.11915244537043876	-0.008616349586106124	0.039540163000624996	0.13371156905171205	0.0981637070967575
adopt	0.01923712047485333	-0.032309774469535694	-0.12833589130994943	0.0347377136618504	-0.184004544308843	-0.10643398946526322	0.0667364757829851	-0.07907535523878594	-0.0711671702222696	-0.06200578189355037	0.133644252374597	-0.11373389932634258	0.12689159433352432	0.014820006390134774	0.21240644909217435	0.05593909852015477	-0.0002723709089092056	-0.07261384590850095	-0.0694454325052521	0.09030866994164467	-0.007744082974779509	0.17502290468643963	-0.00382718209501798	0.05257454485047236	0.0017550074632984695	-0.06204433731512576	0.17089074322050074	-0.03143324177600448	0.028046220120126777	-0.043082578905984215	-0.08753323079072348	-0.11365878540885893	-0.0024471338728643366	0.09203545294895776	-0.052493232911354486	-0.03581774720090635	0.12932362335620645	-0.11234301044152173	-0.02171565284228773	-0.06468251420236226	-0.13961496665121811	-0.10521131106507724	0.15571759020472759	-0.0512278711797957	-0.15652374644964484	-0.08260994465142427	0.062356830419961734	-0.07070440239792747	0.03513654367127307	-0.07997258760704103	-0.1948601781679811	0.017407646456551452	0.05791838733473405	0.05956111960732918	-0.15541777043870475	-0.009157863849394612	0.04744798756094309	-0.010977691168178958	-0.13931622471156554	0.182514896926501	-0.07739474235352699	-0.1669158749267326	-0.018776643552066583	0.008527205952832729	-0.09269917184406284	-0.06487507674725773	0.03680061712336933	0.0022374679659868525	0.1106754010793992	-0.2592346720874719	0.08262574276199904	-0.1561166159909547	-0.23538226414184063	0.14367422904480442	-0.08938441690739538	0.04537409733855043	-0.03965308677794654	-0.1515543562004171	-0.03953966810596438	0.06986983886066997	-0.08981570550305586	0.024197947692905324	-0.09933035303238825	0.01315034632294367	0.024728116119049827	0.021184177324893506	-0.12126297825319536	-0.01044687849333667	-0.2359549694530239	0.018821991390890434	0.029309971554461342	-0.05121578685894741	0.13548711895677087	-0.07265697807411872	-0.07174466710380836	-0.06346464678392257	0.023347577009577028	-0.048381382668469586	-0.0035070736934084243	0.17175372184746296
advanc	-0.10034510064927314	0.09615551572396247	0.176470119610935	-0.07623198945216003	-0.016318071780689006	-0.11454085700053795	-0.2084365338596928	0.17259656468093273	-0.014651632360670193	-0.14548963614610683	-0.05854841274427257	-0.029145620014630735	0.08078720043851598	-0.011922258068393721	0.11769932267116406	0.08364078315056571	0.05912509485047128	0.1412968942069165	-0.0009370791748446411	-0.11499499723830457	0.08038907396763492	0.04656186449827081	-0.07403826661438188	0.036907290237410274	-0.01997222219030366	0.15087587523977383	0.05430339587649968	-0.08099822805183284	0.05904654944898465	0.1554150754122563	-0.19963200772293016	0.06975656117015226	0.11774591390519343	-0.05676466591383011	0.03733741734827364	0.08675110189703368	0.07227134204625263	-0.19237424928272556	-0.05463284485324427	-0.0571512829117355	0.005686079932292419	0.005707724579798013	0.038969619551466335	-0.008062127962462664	0.07140819088670174	0.03716119275259594	-0.08934567446771356	-0.04737795125864298	-0.11236679608084144	-0.23872510641952374	0.08880488047530812	-0.1962773285755685	-0.03358054123316009	0.003167550759218975	0.07298007876506044	0.038391899878011025	0.08807380546593338	0.005349548111841441	-0.1019412769293784	0.10246358103585873	0.1856886364757677	-0.09854074654514552	0.06962819888231944	0.0572433949402844	-0.08377117912489282	-0.15422671014032985	0.020831208647832018	0.13855912290524314	-0.06415642028873728	0.08665506467729152	-0.02104555255134705	-0.009158145450304887	-0.04394353005623774	0.00504023746930854	0.0935179833667708	0.013148696745666016	0.172827126127742	-0.09933869956358407	-0.042014549973062816	-0.059558337036475326	0.05308984199168048	0.17974971349503518	-0.14705994466331335	-0.12284505569606859	0.13787738378925057	0.062440281676003184	-0.06994608022838296	-0.1204143135887352	0.0050424631743169026	0.1882938026342183	0.06463436363713046	-0.02007620209516276	-0.019239266466295993	-0.15390978883387715	-0.03320441635311991	0.09935964218330573	-0.03749424957851088	-0.0025592446853099477	0.1154073577646821	-0.16265712001723104
advantag	0.2341934310718762	-0.04264225231646485	0.14932613987509943	-0.05111698984540795	0.020491512489699954	-0.017510308129314485	-0.13668639464067164	0.15183732652704784	0.18488002544214024	-0.0663954033455412	-0.10843540756387011	0.00040992853841058727	0.048369186529892035	0.03375752411073028	0.01609975095988717	-0.09095955324625095	-0.21009372142926816	0.012308256893743708	-0.05069243219214556	0.014860657981417613	-0.13519861521827978	0.14579824934231153	0.069575383978534	-0.07442661207932609	-0.087980518445546	0.01895853774356056	-0.13304415837137593	-0.036517196543949845	-0.01760731863295003	0.005002613576220624	-0.018349032074568082	0.0385436476991049	0.12701103773482927	0.11432364235686528	0.23527454441384812	-0.05650227483066829	0.19053013992213078	0.03641096093661068	0.07054512363128744	-0.07789387844999325	-0.16962693314364571	-0.0885101955256197	-0.06338946550662876	-0.005438620706279618	-0.14051932125976582	0.0257988230168471	-0.12189853976887861	0.02470670009964142	-0.11568776727517888	-0.11447226593852021	0.08966330793890118	-0.16083414881170063	0.07929214901510685	0.11813922014879283	0.005422361430068259	-0.10178233300245067	-0.05807317066107369	-0.2536452279891818	0.05471723865094074	0.06002356401044368	0.0239449793269822	0.17374557175538372	-0.17909178002688936	0.04379660879479602	0.060631309050264405	0.09163454368282585	0.024529226568180466	-0.12091515409233032	-0.016078812910294945	0.02760218938320463	-0.06162673092777065	-0.07079461511819456	0.015161953427277244	0.0176161163127354	0.15867167092511927	0.002940201962340307	0.020372239157999825	0.043981192330349896	0.11044627592681362	-0.004428543975970862	0.02238960191274401	0.09568124580036436	-0.007143320120192239	0.04725008464369372	-0.07099356611010713	-0.1381484688804472	0.1931269125906486	0.13131042849569022	-0.037091813075906255	-0.07866283838366461	0.02623323313000974	0.024766144241775725	0.10589160372494169	0.043298572882204386	0.06538280840661649	-0.0862590471627114	-0.1988840418714622	-0.016097081153273383	0.006086284611243472	-0.052213938065761516
advis	-0.0574831463606157	0.13017888967835	-0.12052318143146735	-0.07761686370176223	-0.06765056665438185	0.05274838013008628	0.17062821193932232	-0.15948331932469037	-0.10978265324209346	0.027181940425130974	-0.08358055413188732	-0.08030235229994093	0.03757618674656802	-0.08061577448313344	-0.01817561736237305	-0.07775231818821995	0.09301627115798121	-0.10611559836711328	0.1101120540504924	0.06767772959806088	0.08368218745023759	0.07680510872439417	-0.0338826513449165	-0.023427003430006657	0.001257619499913359	-0.14168189935931108	-0.08408921100366985	-0.02264600911678866	0.037935926050961924	0.012923352352010836	-0.009254085137635471	0.14717530544861707	-0.00038476760544506555	-0.1827470900907803	0.02105972428980782	0.12936837864898973	0.10312166811700042	-0.19756441103548714	0.08465476699383963	0.12556523157320196	-0.1429227834788849	0.006481041300774684	-0.20971974523230402	-0.1485586466631267	-0.05516587398250165	0.07478052383316465	0.07123337969189741	0.07112454894801519	-0.040082561354302784	-0.013933112599151079	0.09910292159541081	0.006275436635838227	-0.008672682201925314	-0.04687227745022605	-0.09727883581520884	-0.06395760731251053	-0.14397463964491658	0.04403246831095327	0.15956730910508907	-0.06162805152831293	-0.030629613833183425	-0.038057902701291335	-0.009265034918448555	0.053900859536550806	0.03745098645203135	-0.06262307039450254	-0.08609311538782215	0.19780151863436418	-0.03880715873886761	0.10517885641163095	-0.05206769558924078	0.12525154640677214	0.06848766605711736	-0.0064383393192535485	0.023135019285314036	0.06258981536483829	-0.08000565185765848	-0.03223939686924987	0.04951748480281879	0.18971857416023064	0.24461226843725017	0.12976720560370208	-0.09204606211086619	0.004644572992702761	0.19163850250456008	-0.010056086907985522	0.102116192564447	0.05391910899080154	-0.15483368466043848	-0.08736085989192764	0.119110183977823	0.0440117101424308	0.09161671468993207	0.10041872936703486	-0.054187923676763866	-0.1375562520083165	-0.1024521095830866	-0.1348179034216033	0.1793125876141895	-0.1384717604582666
affect	-0.0944836302565006	0.009528408253952132	-0.019860964103204783	0.037202536368593095	-0.18550958429398043	0.052026889863191164	0.05619913159067763	0.039467968473156596	-0.043966056222026456	0.09146186581921117	0.16854278804298226	-0.08359742704292825	0.2134649912836489	0.11153650359989216	-0.022057054945041368	0.0002201985514286387	0.11575435938929106	-0.036920410449068554	0.12366790969041185	0.05179917232126548	-0.04321495543714004	0.05694927530382825	-0.14240413327517426	-0.20500494707399083	0.00021338359586642116	0.003435368090052178	-0.0477914437767184	0.09852733104603868	0.024731915095814627	-0.08098240701258816	-0.12055238583247095	0.09393014347223258	-0.04224504579948857	-0.04326727438099397	0.005048463126843715	-0.15200404631066575	-0.04269024608672514	-0.034227513729322985	-0.18054008196475513	-0.05933625950819237	-0.019472480730019445	-0.03306933701124508	0.1337681291286815	0.12132933621629519	0.08487444845575579	0.03785246451459649	-0.056753151463923034	-0.1720603628210293	-0.1802524294767213	0.08642558125234852	0.014598598661432156	-0.10784870007203673	0.015430173868842342	0.12102789337247559	-0.08409104633797568	0.15691146787609594	-0.1655755526651897	-0.056337748597940746	0.16209438663995945	0.059436033243906145	-0.04770616926984089	0.08841455199391658	-0.18667155839626293	-0.013504408520200002	0.07818232798349384	0.2840050367632597	-0.027678872700790995	-0.042704274302767756	0.06228608614813876	-0.0377548165084847	-0.17164584696752863	-0.053394042236140166	-0.007472524366678901	-0.1362163864268958	0.1379391489858412	-0.07657924875232129	-0.00761253835647137	0.021080380109787043	0.12859703295047167	-0.03006918105367631	-0.040323553447579395	-0.10264386535432167	0.058732396318505756	-0.18012724901101743	-0.0800024241729463	-0.16617974387127193	-0.08667860042959762	-0.0049113656804404115	-0.05478084912904698	-0.0011693773250986562	0.04023266031833696	0.1403167054236471	0.08312233365649048	-0.08920584089191803	0.08088208493298797	-0.06601002615909111	-0.0916854811121025	0.09575288595538291	0.013643881807431807	-0.09630002382994998
afterward	-0.06707659795999335	0.04071007323752613	-0.14168226852256843	0.03958772228503759	0.13330007547044312	-0.10164631158465472	-0.051134847991795886	0.013751431593590699	0.04340706761355074	0.03983712680897242	-0.1071559128843961	-0.10145579937083064	-0.020795628560886483	-0.025211784617505707	0.12520337585272748	0.05142337285332616	0.01923152524202523	-0.03870043964152711	0.16055774932961608	-0.06778335055311256	0.01332465109989754	-0.13685826403325388	0.04039670553250708	-0.11829522766864892	0.21013611323153722	0.04773366520641164	-0.029437344483969938	0.08383512320508664	0.08204875189265662	0.12280883527417255	0.008296040938588213	0.023183909218433572	-0.07923661180668014	0.13841393422246642	0.10175635473795781	0.1642166768790296	-0.2096543201381333	0.09418625586151418	-0.08038425636130342	0.029285750041260657	0.005359883837604358	-0.07578788365738391	0.20910898556380353	-0.00819911386022201	0.013683813676096451	-0.07179626689249466	0.08382837026987386	-0.29811793031894523	0.05701707062388317	-0.013137578265943643	-0.12767842375925523	0.03775180766196675	-0.11627194495648217	-0.09206250653262844	0.1032628701309226	-0.0656178001563892	0.07324752856374075	-0.035989535891231494	-0.18490771713585005	0.09668082109572189	0.04282285423481681	0.07963545558434139	-0.059134747950571796	-0.211795865922294	-0.10083549531337213	0.14812389487311362	-0.16863679975669285	-0.05773153092804015	-0.12341663409169404	0.12277454778544428	0.01583790916521661	0.11901241959656028	-0.0555891702720957	-0.03655401677092472	0.08445519604264422	0.015212626523511595	0.012314128377043829	-0.1790680029602738	0.0996551677231118	0.15295651505190358	-0.1280787130340001	0.06309051647146806	0.10573153758363622	0.0023194496081705564	-0.007391712479387711	0.010868254734524671	-0.004315239113951817	0.15988079512656517	-0.048627611177194024	-0.0021298034501684303	0.07223576546371707	-0.19545736810124056	-0.055723688206461244	0.044762350758437326	-0.01546635983497354	0.008204375116146355	-0.02995637364832165	-0.06680824952915025	0.0024150109825911105	0.12145817431219841
age	0.09761058233914896	-0.08448528447397168	0.00416679448502525	-0.06293005775267836	-0.07651093898760519	-0.023948165547672123	0.05659213856504584	0.16050514748361228	-0.1339244534095575	0.030136262394440817	0.11053044395237943	-0.06165160641796894	0.17308212036272352	0.10924072605181351	-0.04198602523486153	0.15669257096291642	-0.11177356107903359	0.11875977592913502	-0.07888702975476986	-0.023972514987328702	0.08186935478631055	-0.14766487112926505	-0.07693217848821984	0.007383442894196878	0.16300818883354024	-0.07134001365792589	0.023691977335649223	-0.016182499706759498	-0.22434429568507097	0.012152365349339849	0.2139531536379933	0.06772512094776065	-0.036804985391497125	-0.022269504309221172	-0.1746746052172203	0.1228848816004753	-0.004503793841928298	-0.03846319264671323	0.09917991030945714	0.14464949734282495	-0.031239369244974165	0.02775020290511163	0.059770989624774465	-0.005178932598573811	-0.11672830638341053	-0.0675182819766706	0.0837641585791793	-0.11780937022690144	-0.16592493549295761	0.009347990328389883	0.0562241124109893	0.02746235320804797	0.05715641900310255	-0.07206120123957686	0.06677234761013734	-0.13958357734929572	0.017356830825015046	-0.0880704594518859	-0.03724249414021211	0.08467358047371995	-0.07035943721442868	-0.05596263527890582	0.09529357104424392	0.0319292660498915	-0.26562635776486404	-0.012549871734591577	0.07187774939384416	-0.11162897401185029	-0.0469247787392259	0.10597840750772818	-0.07331561401189254	-0.08951755763832149	-0.10720150026045806	-0.04556306906380155	0.060261346218673933	-0.08291757549990988	-0.1420366532537464	0.028271669867687452	0.08736159700170996	0.06958126163023702	0.021275588735143132	0.09315343173743873	0.04330951160680867	-0.12979388999984884	-0.05267291356831809	0.2779786349400674	-0.020876026201513017	0.15816585768326266	0.031967765234353	-0.026574346168556813	-0.18170656723152728	-0.11838892788273771	-0.0509450992025416	-0.15755011840678373	0.03161232098296566	-0.1234715649612447	0.07337877291210099	0.0014549776716231545	0.09316895996724384	-0.06548466228683573
agent	0.03944213570266936	0.07275080162166732	0.06093435840264311	0.16625874233192778	-0.12893649914986702	0.008003385415930136	0.003298760180623034	-0.046905900573167715	-0.039271183589822956	0.006790505275716869	0.05657676812766818	0.040687070182204105	0.12374036268573457	-0.11067571095559606	0.12826335754147788	0.01983890354458805	-0.17749904715036607	-0.03395309713935698	-0.09897052029292784	-0.028927365363005626	0.07626429813544541	-0.06694771753975251	-0.14925350849028368	0.0062531003603565425	-0.09388976694678915	0.06561778305518501	0.16997892509908222	0.08267510403517568	-0.04008584163835898	-0.043035066311310474	0.0701703980090088	0.06111587212042105	-0.07581908003892589	-0.02313458031257024	0.007384305644306622	-0.11672418302187104	0.015170753141549373	-0.17228870973787422	0.027906150984546792	0.07659955835976136	-0.1378931180526751	0.0648020252316696	-0.08657430310888432	-0.03271568317261614	0.011724611300669591	-0.011989206609931916	0.02799508739693008	0.06633254382864154	-0.20164345780479281	0.05181161558955386	0.06116061442536634	-0.17508714382456128	-0.07808949523785112	0.13015256217412918	-0.03680527829973344	0.16350902701827957	0.04802239105071425	0.1418353049455477	-0.015373351079808311	0.09502228577704651	0.062161653668348346	0.09640063602616614	0.06332049768456456	0.03959282737861826	-0.10113518893723596	0.03968997011255489	0.03252573935626585	0.027300780847343355	0.13688873774964586	-0.25878881116699703	0.0729170320140724	0.20536918407704502	0.12827161970361953	-0.1040148565742657	-0.16441765550592918	-0.04526254850239323	0.11806144340136583	0.01418321748098206	-0.12643965708109295	0.0660490973638354	0.010458035223246601	-0.14186882719140415	-0.04865172369775402	-0.07999869395116309	0.11891703011919688	-0.03831532032684951	-0.1340614967967521	-0.22066089854814994	-0.05615440131215086	0.10720624515542819	-0.017456532800343327	-0.2426477570124768	-0.12338039459771397	-0.013050371521629314	0.1388949462188393	0.03612683019322743	0.11006973911615381	0.041350772910484515	-0.04913338201277202	-0.08442823493090373
aggreg	0.19035494590190996	-0.03306040239055696	-0.1088714270044199	-0.14337447801856093	0.08249759866810435	-0.11478506338548804	0.026605377432235424	0.17186598279478102	-0.04963803874411822	0.16608299676220808	-0.1398932055813789	0.06506334704365116	-0.015299593779340415	0.10754409267696335	0.15522761509858127	-0.015794965309817617	-0.08284434383776243	-0.2298083116108823	0.013863414862439302	-0.022856930653091575	-0.013402129444656189	0.07806293325102312	-0.11078472139698543	-0.05174338440138649	0.08460987979430445	-0.07637371238602626	0.0767013191184042	0.08663075993341092	0.17451252681627438	-0.07369348826999209	-0.1139431196932159	0.1438245097740429	0.08893813512935488	-0.015041031016942215	0.11646558972831184	-0.015256967419066512	0.007244954408254233	0.03175293003810417	0.11998328964242719	0.02615857518753638	0.22146565122073214	0.015866005179121984	-0.11459603931810353	0.0040407287493231915	-0.01252949088997305	-0.0731373452799221	-0.06696473210531911	0.04882098013471214	0.15411143513611922	-0.05884390576960613	-0.06517627122270077	0.03663101148782194	-0.05440531508883113	0.032782015501116424	-0.21310287274834774	-0.08292636816587964	0.021900361228277827	0.019673024098664334	-0.03715517394453833	0.25712257913362563	0.030921396737244387	0.12312455184846116	-0.0452697842417914	-0.17792383276271234	0.2253497174939135	-0.10426203728124442	-0.11628420117109585	0.0008846529268550042	0.0008659362491946422	-0.04844425584287799	-0.06773378365284452	0.1058028794984986	-0.03369718306538048	-0.014298262253914206	0.0069551568244021165	0.03227045753874863	-0.21338405736386706	0.08159489202496248	-0.04870065359816533	-0.039101881428809784	-0.10590219988164308	0.07566684524226712	-0.16282772028822015	-0.022723259176556085	-0.21095020624136762	0.11863795018648747	-0.0840638042578417	0.03037112892029929	0.007995670998165385	0.05046049982140934	-0.012287425108166872	-0.04095694045784239	-0.10308712576464318	-0.05788620457695616	-0.050432142025005164	-0.006009225599027161	-0.05319565657515021	0.07409928277940586	-0.0034886615303441676	-0.024490577884808594
aid	-0.1381005472013427	0.055436845479198034	0.10353458431074514	-0.022181965276876908	0.059011932679911755	0.11343174701814758	-0.08189106271434027	0.09836973918199028	0.1019169558220055	-0.02982040784001688	0.006769230517133724	-0.058460773424153234	0.015047759023677736	0.15278816451156557	0.08667824260196366	-0.05773960510358936	0.08592350611477528	-0.11200207377153469	0.007308460127068238	-0.02976327214242163	0.16660879044751253	0.03024210921624832	-0.03978989098314326	0.30244124319394683	-0.12440331048742317	0.12881080141640633	-0.12658816250329624	-0.02194049416396535	-0.1773949285200167	-0.08725530029496938	0.08528880016876716	-0.07076283545080303	0.05496576669389028	-0.0534600663611304	-0.06918941404855418	0.12995502378130327	-0.054547691979334005	0.05030613957152452	0.10659665207117888	-0.07153599939516947	0.23843048170291473	-0.06043507179198472	-0.04036208011244182	-0.0979774201899209	-0.023764787419568997	-0.003054597890245138	-0.0821765985039263	-0.11480053044779907	-0.1752416484648541	0.1593226967492791	-0.15855704584861322	0.10430401787103816	-0.061698594377441636	-0.015322626731192513	-0.12720475810802012	-0.18436747807329557	-0.02761523590984339	-0.049581572228701326	-0.12885559884956369	-0.0025735685152769626	0.1189076843607681	-0.14502522871354392	-0.0760374580343163	-0.037681647901694565	0.047041515535656456	-0.1128554188912099	0.17473386074815483	-0.06519826469521905	0.017363961466203642	-0.15279426219366277	0.07222061955587562	-0.06552464404383998	-0.02949997450395418	0.1911185489354558	-0.08987951056618723	-0.14275393986723112	-0.03534927830343337	-0.017750318760955484	0.11393828573603683	0.02848183253577592	0.04752521237594639	0.060162006012449705	0.012123896749437793	-0.10069589679616096	0.052202282653044815	-0.06714814846717522	-0.04605172431634802	-0.04616098707332455	0.022115515519166976	-0.053540748541889956	0.1933097061817737	0.12307674348552682	-0.025286109301505832	0.0028025573745656435	-0.006419229362356622	0.02479445154058719	0.04178246843566199	-0.09356281263566524	-0.13541442862519543	-0.11895651644631478
aip	-0.03439649579689989	-0.09254585020102522	-0.00866124962545985	-0.03592509127913882	-0.060333891203889566	0.04173004329321034	0.016072818495668557	-0.0043811436820587754	0.0239562533180843	0.017478899587822453	-0.07945527877802085	-0.1533065774079813	-0.08056762117074763	0.05666322054462542	-0.0016637724526021992	0.017797675317028347	0.20514665269032925	0.1085844345217597	-0.10016860691037519	0.09563938178239834	0.18663701669704147	-0.13783269503142467	0.14942312628200358	0.1249859162666864	0.017846691605307993	-0.10480040692060463	-0.05670033121593592	0.07150121725047215	0.20739480288149956	-0.00481088176082667	-0.23500837038905437	-0.10626454194319353	-0.1395643424380478	-0.003806044918120164	-0.0672470516396941	-0.20106462889058763	0.0596700564467946	-0.0007868529678989636	-0.07054694704928366	-0.04407846691612519	-0.08026716498963556	0.016744651580980072	-0.1466381425516008	0.06931648798296472	0.13972212808785445	-0.07264904626755862	-0.03166502939555057	-0.03169587501388348	-0.08191201036394623	-0.08647524966458352	0.0362754067612397	-0.07650310999552085	0.2095182179405421	0.05780078054334052	-0.191707477602056	0.013993143138475515	-0.09093476718177529	0.1466489459648533	0.022519389396384325	-0.17656003088293698	-0.018476524709038586	0.05617983862755243	0.03847972009621789	-0.0824771619643259	-0.004758387253798752	-8.722968409228765e-05	0.007879738377030739	-0.062030931176647	-0.14690988866387572	-0.16554883370832899	-0.08417518298881307	0.03451531478667611	0.006021819154362083	0.17854914824480106	-0.011121109760326577	-0.11898583976518921	-0.021433717639027232	-0.132115476134977	-0.11760152378178089	0.0398015714425496	0.1485034687684405	0.03216391034263322	0.03327434603765029	0.16106484118768494	-0.032334146164493184	-0.04714745242461505	0.09498137006027384	-0.0890888090849531	-0.012665362698731081	0.0956252285251231	-0.18697397593197326	0.022697880031176218	0.009843444058868011	0.02663035952980213	-0.05427258414617541	0.006376249046716093	-0.019887164304598345	-0.19023776515744473	-0.13346617993703241	0.14453644781034433
